<?xml version="1.0"?>
<opencv_storage>
<my_svm type_id="opencv-ml-svm">
  <svm_type>C_SVC</svm_type>
  <kernel><type>RBF</type>
    <gamma>2.</gamma></kernel>
  <C>1.</C>
  <term_criteria><epsilon>9.9999997473787516e-006</epsilon>
    <iterations>10000</iterations></term_criteria>
  <var_all>43</var_all>
  <var_count>43</var_count>
  <class_count>2</class_count>
  <class_labels type_id="opencv-matrix">
    <rows>1</rows>
    <cols>2</cols>
    <dt>i</dt>
    <data>
      -1 1</data></class_labels>
  <class_weights type_id="opencv-matrix">
    <rows>1</rows>
    <cols>2</cols>
    <dt>d</dt>
    <data>
      3. 1.</data></class_weights>
  <sv_total>3484</sv_total>
  <support_vectors>
    <_>
      2.12121218e-001 1.51515156e-001 8.62301648e-001 9.79508221e-001
      1.54206857e-001 2.94930879e-002 0. 0. 7.59235680e-001
      1.60784319e-001 5.33142798e-002 7.37327198e-003 5.35911620e-001
      6.62983432e-002 1.87681317e-001 9.68878865e-001 1.04838707e-001
      6.75222337e-001 0. 0. 3.02640051e-002 7.10301176e-002
      1.04819273e-003 2.21091602e-002 7.90752769e-001 1.40354306e-001
      1.37289157e-002 5.02005627e-004 1.70532975e-003 6.06650591e-001
      2.53096372e-001 1.40253007e-001 2.77357660e-002 1.46846019e-003
      4.31981236e-001 2.32947879e-002 4.66666669e-001 1.00000001e-001
      4.89601493e-001 9.58047062e-003 3.17454338e-001 6.70954108e-001
      2.35055108e-003</_>
    <_>
      2.30627313e-001 2.36162364e-001 9.83780503e-001 9.09836054e-001
      3.84173930e-001 1.34562209e-001 3.11926603e-001 2.63761461e-001
      9.82809901e-001 8.66666675e-001 3.22606951e-001 4.70046066e-002
      2.66253859e-001 2.69349843e-001 3.27631593e-001 9.95666683e-001
      1.77419350e-001 7.53558218e-001 0. 0. 7.59819672e-002
      1.18487012e-002 4.97931091e-004 1.63542794e-003 2.68589216e-003
      9.97456070e-003 9.10576999e-001 6.36156425e-002 5.49328774e-002
      1.09593727e-001 7.58688688e-001 1.31717563e-001 2.75954511e-003
      6.69843621e-006 5.98039806e-001 5.46365976e-002 2.70004272e-001
      2.58451015e-001 4.71546561e-001 5.40602254e-003 4.84150369e-003
      8.42329025e-001 1.72310233e-001</_>
    <_>
      1. 0. 7.37127721e-001 4.05737698e-001 1.39871528e-002
      3.13364044e-002 1. 0. 7.69247711e-001 3.09803933e-001
      3.32921818e-002 2.11981572e-002 1. 0. 1.90473702e-002
      9.30308044e-001 4.31451589e-001 7.03094125e-001 0. 0.
      4.82936241e-002 9.58613306e-002 2.03935996e-001 2.63087690e-001
      8.99094716e-002 5.72193116e-002 2.88944006e-001 9.41328797e-003
      1.01825371e-002 1.76000001e-004 7.25045323e-001 2.74778664e-001
      5.20755909e-002 3.68136843e-003 9.96859193e-001 0. 1. 0.
      5.47273993e-001 3.75746131e-001 2.62348235e-001 3.46055746e-001
      1.85255241e-002</_>
    <_>
      1. 0. 6.71429157e-001 9.09836054e-001 3.76074612e-002
      3.59447002e-002 2.30769232e-001 3.84615391e-001 8.11816871e-001
      7.52941191e-001 1.33204445e-001 1.75115205e-002 4.21052635e-001
      2.89473683e-001 5.76203987e-002 8.79158497e-001 1.81451604e-001
      4.86412495e-001 0. 0. 2.96200905e-002 0. 0. 3.46961693e-004
      1.03144109e+000 9.60559191e-005 5.33333332e-006 0. 0.
      1.10400002e-003 4.71402675e-001 5.27493358e-001 1.17634550e-001
      1.23664653e-002 2.93453902e-001 1.26945116e-002 4.21052635e-001
      2.36842111e-001 6.68123484e-001 0. 9.99872625e-001 1.27400126e-004
      0.</_>
    <_>
      6.00000024e-001 2.00000003e-001 9.46403623e-001 9.83606577e-001
      1.42071977e-001 1.70506909e-001 0. 1. 9.26036716e-001
      7.84313738e-001 1.08497590e-001 7.46543780e-002 4.56043959e-001
      2.80219793e-001 2.59658873e-001 9.95513201e-001 1.37096763e-001
      5.78226984e-001 0. 0. 2.00901479e-001 2.54437327e-001
      9.41333324e-002 1.05204128e-001 1.22231089e-001 3.59441251e-001
      8.40586647e-002 2.11376771e-002 2.51214653e-002 1.49034664e-001
      5.85957348e-001 2.65008003e-001 2.97926692e-003 3.82526741e-005
      8.27590227e-001 1.28615955e-002 4.35897440e-001 2.69230783e-001
      5.03579915e-001 3.57594639e-001 1.80704534e-001 4.30410862e-001
      3.65720391e-002</_>
    <_>
      8.00000012e-001 2.00000003e-001 7.81160295e-001 8.60655725e-001
      5.38474098e-002 3.13364044e-002 1. 0. 7.59210289e-001
      1.96078435e-001 4.13819728e-003 5.52995410e-003 6.89655185e-001
      3.44827585e-002 5.25453500e-002 9.33402538e-001 4.03225794e-002
      5.55372775e-001 0. 8.69007257e-004 3.41274962e-002 3.88117343e-001
      1.44533336e-003 4.14752634e-003 4.17159731e-003 1.05061161e-003
      4.28266684e-003 3.79189283e-001 7.86507308e-001 1.53162673e-001
      1.96063995e-001 6.50773346e-001 1.28249362e-001 6.53606951e-002
      2.18744382e-001 1.86222810e-002 5.66037714e-001 1.13207549e-001
      5.00747740e-001 6.28457725e-001 1.27444519e-002 7.47088529e-003
      4.10634995e-001</_>
    <_>
      0. 1. 7.10988462e-001 9.18032765e-001 4.46057543e-002
      1.45622119e-001 1. 0. 7.43168533e-001 3.29411775e-001
      1.11251315e-002 2.67281104e-002 7.14285731e-001 7.14285746e-002
      5.14321215e-002 9.47284102e-001 3.58870953e-001 7.32168257e-001 0.
      0. 8.43528658e-002 4.06122655e-001 1.33973330e-001 2.23229825e-002
      4.54693064e-002 1.91931743e-002 3.18688005e-001 5.72175011e-002
      4.99477834e-002 2.06479996e-001 6.94832027e-001 9.86879990e-002
      7.06383213e-003 4.49152285e-004 2.26865988e-002 1.30404131e-002
      7.50000000e-001 0. 5.36453485e-001 9.62641001e-001 2.98402254e-002
      4.93421033e-003 3.02089448e-003</_>
    <_>
      1. 0. 8.30528498e-001 6.10655725e-001 1.64514929e-002
      3.41013819e-002 1. 0. 8.33056629e-001 3.68627459e-001
      3.48415226e-002 2.85714287e-002 3.79746825e-001 3.79746825e-001
      1.08908027e-001 9.43691075e-001 2.45967731e-001 4.38315958e-001 0.
      0. 4.12105620e-002 2.17199996e-001 7.09920004e-002 4.67538893e-001
      8.63652676e-002 2.28613093e-002 1.40154660e-001 5.86663838e-004
      3.29201284e-004 2.65066675e-003 6.75381362e-001 3.21967989e-001
      3.56660336e-002 3.39725241e-003 3.76915373e-002 5.30785583e-002
      3.15789461e-001 3.15789461e-001 3.67819965e-001 3.73673029e-002
      7.34890282e-001 2.27176219e-001 6.61747530e-004</_>
    <_>
      8.99999976e-001 0. 7.71998107e-001 9.67213094e-001 2.44993687e-001
      2.52534568e-001 8.23529422e-001 5.88235296e-002 8.44752014e-001
      7.80392170e-001 1.45474657e-001 1.16129033e-001 7.41641343e-001
      3.64741646e-002 3.01755071e-001 9.35365200e-001 9.27419290e-002
      5.74842751e-001 0. 0. 1.37153894e-001 1.71173334e-001
      2.59413328e-002 7.07908645e-002 1.97297819e-002 2.72678751e-002
      6.15893304e-001 8.19373876e-002 5.05607799e-002 2.37184003e-001
      5.57861328e-001 2.04954669e-001 2.10054293e-002 4.00570920e-004
      7.77142823e-001 2.45731771e-002 7.28571415e-001 2.14285720e-002
      4.96694744e-001 2.60636181e-001 7.02778101e-002 5.44517279e-001
      1.45597354e-001</_>
    <_>
      5.18518507e-001 1.11111112e-001 8.84100556e-001 8.93442631e-001
      1.61955193e-001 3.68663594e-002 0. 1. 6.56013608e-001
      9.80392173e-002 1.03979670e-002 9.21658997e-004 3.92638028e-001
      2.14723930e-001 1.46131456e-001 9.49860454e-001 8.06451589e-002
      4.52454239e-001 0. 0. 4.05666456e-002 2.39776596e-001
      4.59840409e-002 5.04258610e-002 5.40645793e-003 6.80183200e-003
      6.12819135e-001 4.18083109e-002 3.12249120e-002 1.25170216e-001
      6.66569173e-001 2.08260641e-001 4.06803600e-002 3.80367157e-003
      6.42580152e-001 1.47980498e-002 3.52112681e-001 2.95774639e-001
      4.95012611e-001 3.23393345e-001 5.58429509e-002 5.51183820e-001
      8.13257322e-002</_>
    <_>
      2.66666681e-001 3.33333343e-001 9.40151811e-001 9.22131121e-001
      2.29665712e-001 3.07834089e-001 0. 1. 9.09546793e-001
      4.82352942e-001 8.08187351e-002 8.01843330e-002 1.90789476e-001
      4.67105269e-001 2.71810353e-001 9.93091583e-001 2.05645144e-001
      6.86980605e-001 0. 0. 1.92530587e-001 1.41525328e-001
      6.23999983e-002 1.01841263e-001 3.38680834e-001 1.17416359e-001
      2.51258671e-001 9.77773126e-003 9.94415022e-003 3.16639990e-002
      7.72671998e-001 1.95664003e-001 9.00383107e-003 9.16157878e-005
      6.74586833e-001 3.02387271e-002 2.32472330e-001 4.46494460e-001
      5.53068578e-001 2.35044941e-001 4.26952779e-001 3.15673620e-001
      2.60980129e-002</_>
    <_>
      1.77777782e-001 3.55555564e-001 9.64081347e-001 9.79508221e-001
      1.92654952e-001 1.91705063e-001 1.25000000e-001 3.75000000e-001
      9.52698529e-001 5.64705908e-001 9.04603526e-002 6.35944679e-002
      1.92546591e-001 3.72670799e-001 1.62263289e-001 9.92015243e-001
      4.19354826e-001 7.74381578e-001 0. 0. 4.95814569e-002
      6.97221339e-001 8.71626660e-002 2.62196288e-002 1.23111643e-002
      5.82339009e-003 9.37173367e-002 6.79996759e-002 8.04499835e-002
      4.87658679e-001 4.48224008e-001 6.41173348e-002 4.21079108e-003
      2.96032613e-005 4.04107958e-001 2.54758131e-002 2.01388896e-001
      4.23611104e-001 3.69032532e-001 8.28760266e-001 1.92572027e-002
      7.63679594e-002 8.83792117e-002</_>
    <_>
      3.72340411e-001 2.87234038e-001 9.20102715e-001 9.67213094e-001
      2.93826789e-001 3.77880186e-002 8.21428597e-001 1.07142858e-001
      8.04781795e-001 5.45098066e-001 2.61597544e-001 2.11981572e-002
      3.59897166e-001 3.59897166e-001 2.89029509e-001 9.83610332e-001
      4.87903208e-001 8.26818407e-001 0. 0. 2.31809393e-002
      6.90666679e-003 2.68266676e-003 9.90047216e-001 1.14471267e-003
      6.00349495e-006 5.86666683e-005 3.55553857e-005 2.27035380e-005
      6.56656027e-001 3.06682676e-001 3.66613343e-002 3.65665518e-002
      2.10976438e-003 6.67455673e-001 3.72299142e-002 3.36182326e-001
      3.50427359e-001 2.30131999e-001 2.25112028e-002 9.77384746e-001
      5.60179251e-005 5.61209126e-005</_>
    <_>
      1.42857149e-001 1.42857149e-001 6.13414347e-001 9.95901644e-001
      5.01022898e-002 7.37327198e-003 1. 0. 1.78962380e-001
      1.68627456e-001 2.64219358e-003 2.76497705e-003 1.53846160e-001
      3.97435904e-001 5.51534221e-002 7.62482285e-001 7.62096763e-001
      9.05628502e-001 0. 0. 8.37089494e-003 1.29341322e-003
      2.16467064e-002 4.39895056e-002 3.21307831e-004 7.41449592e-004
      9.31628764e-001 5.28939592e-004 4.07847983e-004 7.45077848e-001
      1.90425143e-001 6.44970089e-002 1.78984210e-001 6.95503503e-002
      3.82188261e-001 7.26075936e-003 1.89655170e-001 2.93103456e-001
      2.73889542e-001 9.57588702e-002 7.68832490e-002 8.25867295e-001
      1.74222304e-003</_>
    <_>
      1. 0. 5.44128180e-001 5.32786906e-001 1.53520882e-001
      7.28110597e-002 1. 0. 4.71263349e-001 4.27450985e-001
      4.71406132e-002 2.02764980e-002 7.04225361e-001 4.22535203e-002
      1.65155441e-001 8.71386766e-001 5.84677458e-001 7.96164513e-001 0.
      0. 7.01867342e-002 1.79354668e-001 3.19999992e-003 1.66915264e-002
      1.15896650e-001 5.41215062e-001 1.95930660e-001 9.35106631e-003
      1.30091272e-002 4.38346677e-002 9.32373345e-001 2.37920005e-002
      1.06516466e-001 1.14843054e-002 4.85494703e-001 8.68024956e-003
      7.54098356e-001 6.55737668e-002 3.83435160e-001 1.61789298e-001
      1.46640122e-001 6.71118617e-001 2.39044689e-002</_>
    <_>
      3.33333343e-001 0. 9.33199286e-001 6.88524604e-001 1.65673763e-001
      6.45161271e-002 0. 1. 9.47545350e-001 5.17647088e-001
      2.08248079e-001 6.82027638e-002 7.22222209e-001 1.66666672e-001
      1.84996322e-001 9.82201576e-001 3.74999970e-001 4.48835015e-001 0.
      6.54605553e-002 2.70444304e-002 4.35365319e-001 6.22560009e-002
      1.24222964e-001 1.59758955e-001 4.80519757e-002 1.48186669e-001
      3.38487253e-002 2.60863658e-002 0. 5.11589348e-001 4.88410681e-001
      1.94026977e-002 7.85066106e-004 6.13397241e-001 8.20271671e-003
      5.62500000e-001 2.03125000e-001 6.47595227e-001 4.06713694e-001
      3.06243479e-001 2.29223266e-001 6.75801858e-002</_>
    <_>
      3.42105269e-001 3.15789461e-001 9.63257194e-001 6.39344275e-001
      1.16833217e-001 5.52995391e-002 0. 1. 9.47973847e-001
      3.68627459e-001 5.05791195e-002 4.05529961e-002 3.57142866e-001
      4.28571433e-001 1.62299931e-001 9.96582687e-001 4.39516097e-001
      7.65228450e-001 0. 0. 7.34063089e-002 1.10126071e-001
      3.88980433e-002 1.79872662e-001 1.69044659e-001 1.18305413e-002
      4.77196574e-001 2.39477064e-002 1.14104887e-002 1.17696123e-002
      7.84411967e-001 2.03818426e-001 2.74353568e-003 3.91768554e-005
      6.35011554e-001 5.97418612e-003 3.25842708e-001 4.21348304e-001
      5.98641813e-001 1.54231191e-001 2.88453519e-001 4.99037385e-001
      6.81158826e-002</_>
    <_>
      1. 0. 9.44614351e-001 3.77049178e-001 6.18123636e-002
      2.85714287e-002 1. 0. 9.42920983e-001 1.37254909e-001
      4.05175276e-002 9.21658985e-003 1. 0. 4.98076491e-002
      9.87098813e-001 4.99999970e-001 7.89120436e-001 0. 0.
      4.63618785e-002 1.91594195e-002 1.31936237e-001 1.83425531e-001
      2.64762640e-001 3.43230247e-001 1.03855073e-001 3.38162616e-004
      1.72744316e-004 8.89855102e-002 8.79223168e-001 3.17913033e-002
      7.76319951e-003 9.38466692e-005 9.96627390e-001 0. 1. 0.
      3.69610250e-001 1.81793824e-001 3.75664115e-001 4.42180872e-001
      4.22160141e-004</_>
    <_>
      1. 0. 8.40309560e-001 6.39344275e-001 1.85688827e-002
      7.83410147e-002 1. 0. 8.45395923e-001 4.47058827e-001
      1.62439998e-002 5.71428575e-002 1. 0. 3.69143113e-002
      9.70194340e-001 3.46774161e-001 6.93317831e-001 0. 0.
      9.07920152e-002 1.36074768e-002 4.93146405e-002 2.36836910e-001
      3.64814132e-001 1.56336337e-001 2.04143301e-001 4.81825275e-003
      2.09530303e-003 9.56697837e-002 6.85333312e-001 2.18996882e-001
      7.48776458e-003 3.91567039e-004 9.96410787e-001 0. 1. 0.
      5.25025189e-001 1.02223195e-001 5.07302105e-001 3.82940888e-001
      8.80561303e-003</_>
    <_>
      1.23772100e-001 3.96856576e-001 9.79329526e-001 1. 3.76486361e-001
      8.94009247e-002 3.84615391e-001 4.15384620e-001 9.58750248e-001
      7.76470602e-001 1.88869655e-001 1.22580647e-001 1.74529970e-001
      4.24973398e-001 4.12597775e-001 9.96897459e-001 8.06451589e-003
      4.23983544e-001 0. 0. 1.26851261e-001 9.07783508e-002
      3.86695862e-002 8.78508911e-002 6.63451970e-001 8.78859982e-002
      5.94266243e-002 7.73532083e-004 3.96498246e-003 1.94110870e-001
      5.87724030e-001 2.18165085e-001 1.50055555e-003 5.15856755e-006
      8.02514851e-001 4.22423035e-002 1.76470593e-001 4.20651704e-001
      5.02900660e-001 1.63730934e-001 6.40464127e-001 1.91874236e-001
      4.59424499e-003</_>
    <_>
      1. 0. 1.76561415e-001 7.09016383e-001 7.77797326e-002
      9.21658997e-004 1. 0. 4.48096776e-003 3.92156886e-003
      4.05809114e-004 0. 1. 0. 6.80266321e-002 2.41827071e-001
      9.47580636e-001 9.95053053e-001 9.52426136e-001 0. 1.28783006e-003
      8.13525319e-001 6.12426661e-002 4.97756600e-002 7.68883601e-002 0.
      7.57333357e-004 3.64442705e-004 2.27035380e-005 9.46053326e-001
      5.02133332e-002 3.73333343e-003 4.64147896e-001 4.56002206e-001
      7.58016389e-003 1.15021013e-001 1. 0. 5.98011732e-001
      1.05042020e-002 9.89495814e-001 0. 0.</_>
    <_>
      5.16129017e-001 9.67741907e-002 7.08078086e-001 9.87704933e-001
      1.58281982e-001 7.46543780e-002 0. 0. 7.45229661e-001
      8.19607854e-001 3.44062187e-002 3.41013819e-002 5.92920363e-001
      6.19469024e-002 1.22188829e-001 8.49551380e-001 2.29838699e-001
      6.06864929e-001 0. 0. 4.89375405e-002 5.97440004e-002
      8.08458686e-001 1.30196050e-001 6.43900828e-004 2.10122336e-004
      4.79999988e-004 4.08886903e-004 3.74608382e-004 2.17904001e-001
      5.55813313e-001 2.26282671e-001 5.42696789e-002 5.50365867e-003
      4.97534990e-001 1.45652173e-002 5.76576591e-001 9.00900885e-002
      3.58741999e-001 8.28867435e-001 1.69049919e-001 1.11647882e-003
      1.12928648e-003</_>
    <_>
      8.18181813e-001 0. 8.84748936e-001 9.38524604e-001 1.01597704e-001
      5.71428575e-002 1. 0. 8.93701315e-001 9.33333337e-001
      5.18858768e-002 7.09677413e-002 7.37500012e-001 5.62499985e-002
      1.75898209e-001 9.81605470e-001 1.16935477e-001 4.23788160e-001 0.
      0. 8.17772076e-002 3.11664581e-001 2.52605438e-001 1.20303407e-001
      1.41485790e-002 6.05172571e-003 2.65380859e-001 2.54545044e-002
      3.36035639e-002 2.19130203e-001 2.68964142e-001 5.11905670e-001
      4.59224498e-003 1.50586529e-005 7.85321653e-001 9.70538426e-003
      7.17444718e-001 6.63390681e-002 5.93898356e-001 6.64409399e-001
      7.12976828e-002 2.08061710e-001 6.57237098e-002</_>
    <_>
      4.78260875e-001 1.59420297e-001 9.48596358e-001 1. 1.11244500e-001
      6.45161271e-002 1. 0. 9.18588698e-001 5.56862772e-001
      2.03659516e-002 3.41013819e-002 3.75000000e-001 3.75000000e-001
      4.47506830e-002 9.82821345e-001 4.91935462e-001 8.42343330e-001 0.
      0. 1.86735354e-002 5.26149690e-001 1.37054354e-001 3.51602212e-003
      1.78355276e-005 5.83684669e-005 1.89365268e-001 1.80363119e-001
      7.58371875e-002 7.15118885e-001 2.56036550e-001 2.88446024e-002
      1.34421000e-002 1.02059515e-004 8.86189193e-002 1.99025404e-002
      3.75000000e-001 2.58333325e-001 3.99369568e-001 6.19602382e-001
      1.66932419e-002 2.97354460e-001 7.75505751e-002</_>
    <_>
      2.91666657e-001 4.16666679e-002 6.86816335e-001 9.63114738e-001
      6.56547993e-002 2.67281104e-002 7.77777791e-001 5.55555560e-002
      7.44022131e-001 8.82352948e-001 8.08237419e-002 8.57142881e-002
      5.17948747e-001 7.69230798e-002 4.87213209e-002 8.62809718e-001
      1.53225794e-001 8.17465007e-001 0. 0. 2.83322595e-002
      6.80706510e-003 6.20832205e-001 2.78210402e-001 4.51698266e-002
      2.99365427e-002 1.88654885e-002 4.48933523e-003 5.23438398e-003
      3.22732687e-001 6.07527196e-001 6.97401464e-002 2.89491452e-002
      3.69929447e-004 4.23129767e-001 6.14410592e-003 5.44502616e-001
      6.28272220e-002 3.61864805e-001 6.91882253e-001 1.84041798e-001
      1.09219171e-001 1.73647981e-002</_>
    <_>
      1. 0. 5.42326748e-001 4.38524604e-001 2.14741565e-003
      2.02764980e-002 1. 0. 6.30882859e-001 2.19607845e-001
      5.56691317e-004 1.10599082e-002 1. 0. 4.45003482e-003
      4.08035755e-001 6.00806475e-001 8.41813326e-001 0. 0.
      2.89761759e-002 3.51685762e-001 8.55060369e-002 3.33123505e-002
      2.91141979e-002 4.18686330e-001 1.27758265e-001 1.51523761e-003
      1.47590833e-003 0. 4.59288716e-001 5.40711284e-001 3.96876693e-001
      1.10211581e-001 9.93517876e-001 0. 1. 0. 7.11274743e-001
      4.40452337e-001 4.47209403e-002 5.12900591e-001 2.25131074e-003</_>
    <_>
      0. 1. 8.84411335e-001 9.91803288e-001 8.39981884e-002
      9.49308723e-002 1. 0. 7.22332001e-001 4.58823532e-001
      4.80627967e-003 2.85714287e-002 3.70370358e-001 4.25925940e-001
      7.28878304e-002 9.55074191e-001 1.00806445e-001 5.83770990e-001 0.
      0. 1.26207337e-001 5.99104464e-002 2.24704474e-001 5.94565272e-001
      5.70097454e-002 2.23854184e-002 4.24238816e-002 3.35321785e-003
      3.73591785e-003 1.00901492e-001 5.37391067e-001 3.61707449e-001
      1.50834471e-001 2.73989886e-002 1.64413899e-001 2.54417527e-002
      2.54901975e-001 3.52941185e-001 3.35209876e-001 6.75683558e-001
      2.42037520e-001 7.00988919e-002 1.42361782e-002</_>
    <_>
      0. 1. 9.72794473e-001 8.72950792e-001 6.68323785e-002
      4.60829493e-003 1. 0. 2.22950533e-001 6.27451017e-002
      5.17696026e-004 2.76497705e-003 0. 1. 8.00459459e-002
      9.85355675e-001 8.58870983e-001 9.24062431e-001 0. 0.
      1.15904696e-002 6.12908006e-001 3.23922843e-001 6.03005327e-002
      1.40851771e-003 4.67631267e-004 4.51038562e-004 3.06625618e-004
      1.07370224e-003 9.14860547e-001 7.54065290e-002 9.73293744e-003
      1.79341823e-001 1.29084453e-001 8.48334804e-002 2.92541999e-002
      5.71428575e-002 4.57142860e-001 2.82703012e-001 9.27661061e-001
      5.32212891e-002 1.06442580e-002 9.90379602e-003</_>
    <_>
      0. 1. 9.76024628e-001 8.48360658e-001 1.52818397e-001
      1.01382490e-002 1.25000000e-001 2.50000000e-001 9.63294506e-001
      5.49019635e-001 7.68647715e-002 1.84331799e-003 0. 1.
      1.19352989e-001 9.95304286e-001 8.99193525e-001 9.76847708e-001
      7.18837500e-001 0. 1.28783006e-003 1. 0. 0. 0. 0. 0. 0. 0.
      9.58868265e-001 3.31676640e-002 7.96407182e-003 3.52209690e-003
      1.89639559e-005 5.40413260e-001 1.95250511e-002 0. 1.
      7.37727433e-002 1. 0. 0. 0.</_>
    <_>
      1. 0. 4.94005471e-001 4.50819671e-001 7.18048289e-002
      1.29032256e-002 1. 0. 6.11428022e-001 3.52941185e-001
      6.05028160e-002 7.37327198e-003 1. 0. 4.36736755e-002
      7.58007824e-001 5.52419364e-001 7.88286448e-001 0. 0.
      8.37089494e-003 7.05562651e-001 0. 2.93657720e-001 0. 0.
      1.02933333e-003 0. 0. 5.11183977e-001 4.88815993e-001 0.
      1.34420499e-001 8.08658078e-003 1.37979463e-002 3.29861119e-002 1.
      0. 2.91752130e-001 5.20447552e-001 4.79552478e-001 0. 0.</_>
    <_>
      1. 0. 7.42118418e-001 2.74590164e-001 6.40857741e-002
      1.19815664e-002 1. 0. 8.16559196e-001 2.15686277e-001
      5.16818538e-002 1.29032256e-002 4.00000006e-001 4.00000006e-001
      6.85313568e-002 9.63575721e-001 8.46774220e-001 9.44602251e-001
      2.63199750e-002 0. 7.72697991e-003 3.47273260e-001 7.07567558e-002
      6.33271262e-002 1.75390709e-002 1.08171080e-003 3.21153164e-001
      2.16655612e-001 1.05553560e-001 9.25993979e-001 7.14414418e-002
      2.56456458e-003 2.35846005e-002 6.15566038e-004 1.57028109e-001
      9.88051482e-003 3.60000014e-001 3.19999993e-001 1.53218821e-001
      7.23154128e-001 9.94178951e-002 2.45481003e-002 1.78687811e-001</_>
    <_>
      2.12121218e-001 2.27272734e-001 9.65232551e-001 9.46721315e-001
      1.33809552e-001 5.71428575e-002 6.75000012e-001 7.50000030e-002
      9.71328139e-001 8.35294127e-001 1.83748335e-001 6.17511533e-002
      4.51114923e-001 2.14408234e-001 1.65140063e-001 9.94276106e-001
      1.53225794e-001 4.94137228e-001 0. 0. 9.59433392e-002
      2.32447311e-001 2.73033142e-001 3.99774373e-001 3.68705427e-004
      6.72732058e-005 7.11161271e-002 2.46110372e-002 1.86990201e-002
      2.36220047e-001 3.28980774e-001 4.34799194e-001 1.78317714e-003
      1.62932372e-006 7.32496500e-001 1.22972410e-002 4.43202972e-001
      1.99255124e-001 5.37930071e-001 5.51523864e-001 3.40388387e-001
      6.51888922e-002 5.01406938e-002</_>
    <_>
      1. 0. 5.62991679e-001 9.91803288e-001 1.76597442e-002
      5.34562208e-002 1. 0. 7.06648588e-001 6.54901981e-001
      1.93204880e-002 5.06912433e-002 7.50000000e-001 0. 2.09061950e-002
      8.83519292e-001 4.87903208e-001 7.92828858e-001 0. 0.
      4.05666456e-002 9.33237314e-001 5.22506684e-002 8.48187879e-003
      2.64164468e-004 1.14066403e-004 1.48800004e-003 3.35998391e-003
      4.63152165e-003 2.51669347e-001 6.80719972e-001 6.76106662e-002
      7.02915192e-002 5.58813848e-003 3.76616395e-003 9.24369693e-002 0.
      1. 6.33099139e-001 9.80392158e-001 1.54061625e-002 2.80112051e-003
      1.63699104e-003</_>
    <_>
      1. 0. 4.80867565e-001 2.62295067e-001 6.21074205e-003
      5.52995410e-003 1. 0. 3.84607047e-001 2.19607845e-001
      2.65142694e-003 4.60829493e-003 1. 0. 4.66520432e-003
      8.61822128e-001 7.70161331e-001 8.87951434e-001 0. 0.
      8.37089494e-003 3.76631916e-001 6.13520324e-001 1.99947646e-003 0.
      0. 5.80176059e-003 1.92526891e-003 1.90075813e-003 6.69901729e-001
      3.29718024e-001 3.80254438e-004 5.71019426e-002 3.29192611e-003
      9.99073982e-001 0. 1. 0. 1.46627083e-001 9.91198003e-001
      1.44100748e-003 3.87541484e-003 4.07396676e-003</_>
    <_>
      1. 0. 7.31266022e-001 7.09016383e-001 6.30837679e-002
      3.13364044e-002 1. 0. 6.61045730e-001 1.52941182e-001
      1.22502024e-004 4.60829493e-003 4.58823532e-001 3.35294127e-001
      9.60307717e-002 9.11864281e-001 2.54032254e-001 7.48385489e-001 0.
      0. 2.64005158e-002 7.73601979e-002 2.85138539e-003 4.17533889e-002
      6.15096271e-001 1.01683252e-001 5.62972277e-002 1.31502301e-001
      1.20158613e-001 4.57531475e-002 8.20957199e-002 8.72151136e-001
      5.32814972e-002 7.86978845e-003 7.64913797e-001 7.07920548e-003
      5.47169805e-001 4.52830195e-001 7.26406336e-001 3.35738692e-003
      6.21123195e-001 3.75486463e-001 3.85476669e-005</_>
    <_>
      1. 0. 8.18779290e-001 7.82786906e-001 8.99394006e-002
      5.89861758e-002 1. 0. 8.26648891e-001 6.19607866e-001
      5.41138873e-002 5.80645166e-002 0. 1. 5.97072020e-002
      9.57968235e-001 2.94354826e-001 7.06015944e-001 0. 0.
      6.95428178e-002 1.41973337e-002 1.73322663e-001 1.15602292e-001
      1.49764732e-001 1.34280175e-001 4.31663990e-001 1.13777234e-003
      4.31367225e-004 2.20794663e-001 6.86016023e-001 9.31893364e-002
      1.19806081e-002 4.28692903e-004 3.11532505e-002 1.57935284e-002 1.
      0. 7.12315500e-001 8.20578694e-001 9.29635316e-002 8.64577964e-002
      0.</_>
    <_>
      1.63461536e-001 3.36538464e-001 8.91066551e-001 9.63114738e-001
      1.04408942e-001 1.64055303e-001 1. 0. 6.90310299e-001
      3.37254912e-001 1.62265822e-002 4.05529961e-002 3.49999994e-001
      2.70833343e-001 7.13694990e-002 9.53937113e-001 1.97580636e-001
      7.46480465e-001 0. 0. 1.30070835e-001 2.09548235e-001
      2.07758158e-001 4.20092270e-002 8.22850093e-002 5.30480370e-002
      4.01591361e-001 1.05383322e-002 1.26377111e-002 2.17489809e-001
      6.96273804e-001 8.62364098e-002 4.16942276e-002 2.90285423e-003
      6.17091537e-001 6.28031977e-003 3.25471699e-001 2.78301895e-001
      4.00136232e-001 5.05509913e-001 8.11411217e-002 3.88530880e-001
      2.90076602e-002</_>
    <_>
      0. 1. 7.77818799e-001 7.70491779e-001 4.41172086e-002
      5.99078350e-002 0. 1. 9.17746961e-001 2.82352954e-001
      4.59849760e-002 1.84331797e-002 8.48484874e-001 1.51515156e-001
      4.97983880e-002 9.32136297e-001 3.14516097e-001 6.85264587e-001 0.
      0. 8.24211240e-002 1.86959997e-001 2.89274663e-001 1.50111660e-001
      2.96909846e-002 6.61585154e-003 3.34991992e-001 4.68442170e-003
      2.82659032e-003 1.43386662e-001 7.62362659e-001 9.42506641e-002
      6.65128455e-002 2.76682386e-003 2.22520977e-001 9.45015159e-003
      9.04761910e-001 9.52380970e-002 5.68750739e-001 7.38323808e-001
      1.13305815e-001 1.41362265e-001 8.19116272e-003</_>
    <_>
      1. 0. 5.92418551e-001 7.33606577e-001 1.60246357e-001
      5.62211983e-002 1. 0. 6.20703638e-001 5.60784340e-001
      9.97650847e-002 2.48847920e-002 1. 0. 1.48752883e-001
      7.63294578e-001 4.31451589e-001 7.66775966e-001 0. 0.
      5.21571152e-002 1.84533338e-003 0. 0. 0. 0. 9.95274663e-001
      2.83554196e-003 2.50874110e-003 3.73333351e-005 7.77530670e-001
      2.22432002e-001 4.30942439e-002 1.40437076e-003 1.93109378e-001
      3.59236710e-002 1. 0. 8.10496509e-001 0. 0. 1. 0.</_>
    <_>
      1. 0. 2.79825032e-001 2.25409836e-001 2.33494807e-002
      1.01382490e-002 1. 0. 3.56953859e-001 2.11764708e-001
      1.63723957e-002 8.29493068e-003 1. 0. 3.28421518e-002
      7.44482338e-001 8.30645144e-001 9.16143000e-001 0. 0.
      1.03026405e-002 4.80000017e-005 1.86666672e-004 4.66049612e-002
      9.82669711e-001 9.66562715e-004 4.26666666e-005 0. 0.
      8.62352014e-001 1.37648001e-001 0. 5.34134880e-002 2.39132950e-003
      9.96859193e-001 0. 1. 0. 1.40763983e-001 5.73339174e-004
      9.94395196e-001 5.03145345e-003 0.</_>
    <_>
      2.25868732e-001 4.01544392e-001 9.94758010e-001 9.46721315e-001
      4.56482142e-001 3.45622122e-001 2.00000003e-001 4.63888884e-001
      9.97286916e-001 8.07843149e-001 5.24193645e-001 4.81105983e-001
      2.32068211e-001 4.09296095e-001 6.89070284e-001 9.99402285e-001
      2.21774176e-001 6.45808160e-001 0. 0. 3.85705084e-001
      7.16654435e-002 2.69254055e-002 3.83970588e-002 5.67234278e-001
      2.70723104e-001 5.69864921e-002 1.25206243e-002 1.77517533e-002
      7.82597885e-002 6.01107299e-001 3.20632935e-001 4.01234429e-004
      1.39795617e-007 8.46028864e-001 1.23160519e-001 2.13225365e-001
      4.26065177e-001 5.65874815e-001 1.12756364e-001 4.04636204e-001
      4.58365142e-001 2.83346660e-002</_>
    <_>
      1. 0. 7.90292025e-001 2.50000000e-001 8.66457075e-002
      1.19815664e-002 1. 0. 7.17701614e-001 1.64705887e-001
      4.16692384e-002 2.76497705e-003 0. 1. 3.70134860e-002
      8.93335283e-001 9.55645144e-001 9.94796634e-001 9.21625853e-001 0.
      1.93174498e-003 9.08042014e-001 6.68828860e-002 1.11626452e-002
      5.22453617e-003 1.82538701e-004 7.24324305e-003 1.51150429e-003
      1.16330059e-003 9.58624601e-001 4.13753763e-002 0. 1.05816387e-001
      8.64899065e-003 2.06960901e-003 1.83238640e-001 0. 1.
      1.87731430e-001 8.52272749e-001 6.81818202e-002 6.25000000e-002
      1.99229233e-002</_>
    <_>
      1. 0. 3.73333603e-001 6.27049208e-001 1.84498131e-002
      1.19815664e-002 1. 0. 3.98895741e-001 3.76470596e-001
      9.68570448e-003 8.29493068e-003 6.53061211e-001 1.22448981e-001
      5.16720563e-002 8.61042857e-001 5.76612949e-001 7.71562040e-001 0.
      0. 2.51126848e-002 7.09333341e-004 2.34666673e-004 2.25898754e-002
      1.64772570e-002 4.76677483e-003 9.55962658e-001 2.31110011e-004
      3.85960157e-004 1.32373329e-002 9.71669316e-001 1.50933331e-002
      3.34263369e-002 2.03916826e-003 2.22168431e-001 1.13581726e-002
      6.85714304e-001 1.71428576e-001 3.32734317e-001 4.47115395e-003
      1.06394231e-001 8.87716353e-001 1.65768957e-003</_>
    <_>
      1. 0. 8.85684729e-001 6.84426248e-001 1.63973272e-002
      3.41013819e-002 1. 0. 8.90217125e-001 2.35294119e-001
      2.96908477e-003 1.10599082e-002 1. 0. 1.67941060e-002
      9.80803609e-001 3.02419335e-001 6.64083064e-001 0. 0.
      2.83322595e-002 7.48840999e-003 1.13544166e-002 2.22255029e-002
      7.08711818e-002 3.48751545e-001 5.79524398e-001 9.39892139e-004
      7.67472375e-004 1.49359867e-001 5.81157684e-001 2.69482434e-001
      3.67344031e-003 4.58507857e-005 1. 0. 1. 0. 5.31203270e-001
      2.01973636e-002 7.67595470e-002 9.01789904e-001 1.46475411e-003</_>
    <_>
      1. 0. 3.76190066e-001 5.81967235e-001 1.99265648e-002
      1.75115205e-002 1. 0. 7.93131292e-002 1.96078438e-002
      9.38297773e-004 0. 0. 1.42857149e-001 2.59893890e-002
      6.08112574e-001 5.96774161e-001 8.75781059e-001 0. 0.
      8.37089494e-003 2.86293328e-002 2.69770652e-001 2.08144993e-001
      5.08764207e-001 1.92111838e-004 2.82666675e-004 2.13332314e-004
      2.27035380e-005 7.40970671e-001 2.57653326e-001 1.37600000e-003
      1.11792780e-001 4.44422774e-002 1.58673513e-003 1.64215684e-001 0.
      0. 8.48855913e-001 3.43137264e-001 6.56862736e-001 0. 0.</_>
    <_>
      7.33333349e-001 1.33333340e-001 7.98868597e-001 8.44262302e-001
      1.59531116e-001 9.86175090e-002 0. 1. 7.86832511e-001
      6.70588255e-001 5.82003631e-002 3.96313369e-002 8.54166687e-001
      4.16666679e-002 1.29283175e-001 9.15509880e-001 2.01612890e-001
      4.44804132e-001 0. 2.64928192e-001 7.85576329e-002 9.10870880e-002
      4.42084074e-001 4.42165792e-001 1.42605677e-002 9.26214852e-004
      8.12012050e-003 2.46245065e-003 1.70020864e-003 3.35735735e-003
      3.06288302e-001 6.90354347e-001 3.97656113e-002 6.61654398e-003
      8.39946389e-001 5.36562130e-003 8.69565189e-001 4.34782617e-002
      7.96738386e-001 7.78715134e-001 2.06682950e-001 9.27391369e-003
      6.22745603e-003</_>
    <_>
      5.04065037e-001 1.58536583e-001 9.17694211e-001 9.26229537e-001
      2.21165478e-001 4.70046066e-002 0. 1. 8.44659567e-001
      1.41176477e-001 5.11780428e-003 5.52995410e-003 4.01818186e-001
      2.29090914e-001 7.41834044e-002 9.80608165e-001 7.74193585e-001
      9.19327557e-001 0. 0. 1.22343851e-002 3.62609863e-001
      1.17903389e-001 1.42765641e-001 8.68071690e-002 3.16613466e-002
      2.28833511e-001 2.13855151e-002 4.87977006e-002 8.51292908e-001
      1.25498459e-001 2.32086182e-002 1.34056695e-002 2.30190839e-004
      1.74395502e-001 5.22424281e-002 3.82978737e-001 2.23404258e-001
      2.76676536e-001 6.61945522e-001 1.53527722e-001 1.07635140e-001
      8.98718238e-002</_>
    <_>
      1. 0. 4.42966491e-001 6.14754111e-002 7.53792992e-004
      5.52995410e-003 1. 0. 5.54833412e-001 6.66666701e-002
      5.48013079e-004 2.76497705e-003 1. 0. 5.04866533e-004
      5.99232852e-001 8.66935492e-001 9.44726646e-001 0. 0.
      8.37089494e-003 5.10933343e-003 3.25333327e-004 2.57872622e-002
      5.54712296e-001 4.62329149e-001 2.04959996e-002 2.66665393e-005 0.
      0. 1. 0. 6.82662055e-002 6.40582340e-003 9.96859193e-001 0. 1. 0.
      5.07578731e-001 5.39046014e-003 4.85618293e-001 5.08975148e-001
      1.87885653e-005</_>
    <_>
      0. 1. 7.42601156e-001 8.64754081e-001 9.52844620e-002
      1.25345618e-001 1. 0. 7.58397102e-001 2.82352954e-001
      5.87241631e-003 2.02764980e-002 0. 1. 6.94250464e-002
      9.57170844e-001 2.82258034e-001 6.17931247e-001 0. 0.
      1.13972954e-001 8.25889558e-002 1.78374231e-001 1.10351510e-001
      4.57970291e-001 2.02134550e-001 4.17177891e-003 9.91815235e-004
      1.33191771e-003 4.34723943e-002 5.77736199e-001 3.78791422e-001
      1.10003976e-002 1.83054246e-004 1.56370029e-001 2.88733491e-003
      6.00000024e-001 0. 7.36704707e-001 5.07188857e-001 2.62217164e-001
      2.27686986e-001 3.39770806e-003</_>
    <_>
      3.33333343e-001 0. 6.13922775e-001 3.15573782e-001 4.00437191e-002
      4.60829493e-003 1. 0. 2.89112031e-001 8.23529437e-002
      3.81156290e-003 2.76497705e-003 3.84615391e-001 2.30769232e-001
      1.62939858e-002 8.72906327e-001 9.55645144e-001 9.76105392e-001
      6.59918964e-001 0. 1.93174498e-003 4.74021345e-001 2.05408007e-001
      4.74269949e-002 2.48369630e-002 1.70799438e-002 1.62944004e-001
      8.31196010e-002 4.49643582e-002 9.86074686e-001 1.26933334e-002
      1.23199995e-003 1.62437677e-001 3.00791599e-002 3.54654193e-001
      2.16860930e-003 2.72727281e-001 3.63636374e-001 5.23692667e-002
      4.56040472e-001 1.00855395e-001 2.98289210e-001 1.69261336e-001</_>
    <_>
      6.87500000e-001 0. 8.91592085e-001 8.97540987e-001 7.99866766e-002
      8.29493068e-003 1. 0. 7.60644257e-001 5.49019612e-002
      1.36615172e-005 9.21658997e-004 5.58139563e-001 6.97674453e-002
      5.73874861e-002 9.45400417e-001 6.37096763e-001 1. 0.
      8.05980384e-001 6.43914985e-003 4.34138656e-001 6.86400011e-003
      4.66097683e-001 7.96345696e-002 8.63302592e-003 7.23733334e-003
      7.46663078e-004 1.63465482e-003 1.44426664e-002 3.67733352e-002
      9.48783994e-001 9.84129384e-002 4.08509448e-002 7.20872998e-001
      5.88507671e-003 5.00000000e-001 5.40540554e-002 9.47102547e-001
      5.00503838e-001 4.76207763e-001 2.11840551e-002 2.45956215e-003</_>
    <_>
      5.00000000e-001 0. 8.86148572e-001 4.54918027e-001 1.01612374e-001
      1.84331797e-002 1. 0. 5.01330614e-001 6.27451017e-002
      7.24805519e-003 0. 0. 1. 3.09907272e-002 9.41894531e-001
      9.43548381e-001 9.81485605e-001 9.35999215e-001 0. 1.28783006e-003
      1.84016004e-001 7.30613321e-002 7.22646475e-001 2.06378475e-002
      1.80104849e-004 5.86666691e-004 1.68888073e-004 9.08141519e-005
      9.53434646e-001 4.65546660e-002 1.06666666e-005 1.17144585e-001
      2.49133166e-002 1.38246557e-002 3.58105488e-002 5.00000000e-001
      2.50000000e-001 1.64547443e-001 6.53446257e-001 3.05352330e-001
      3.50404307e-002 7.20099546e-003</_>
    <_>
      1.43678159e-001 3.82183909e-001 9.92826104e-001 1. 2.79112488e-001
      8.75576064e-002 1.34831458e-001 4.38202262e-001 9.93683934e-001
      9.25490201e-001 1.88909605e-001 5.62211983e-002 1.99873894e-001
      3.65699887e-001 2.58732259e-001 9.98726606e-001 3.42741907e-001
      7.82349229e-001 0. 0. 3.47714089e-002 6.15641288e-002
      1.45397186e-001 7.37563133e-001 4.13697995e-002 1.64461508e-003
      1.11885071e-002 3.44592659e-003 2.75518931e-003 6.28334045e-001
      3.01607758e-001 7.00581893e-002 6.28000533e-004 6.47930335e-007
      6.07597589e-001 3.42901126e-002 2.15417862e-001 3.71037453e-001
      2.97210097e-001 2.05227196e-001 7.84423232e-001 7.76743796e-003
      3.01805791e-003</_>
    <_>
      7.24137902e-001 0. 6.27342701e-001 9.63114738e-001 1.66580185e-001
      5.25345616e-002 0. 0. 4.61539656e-001 2.03921571e-001
      2.41299644e-002 7.37327198e-003 6.55737698e-001 1.31147534e-001
      7.67367333e-002 8.09014797e-001 6.93548322e-001 9.03246105e-001 0.
      0. 1.93174500e-002 2.45866668e-003 2.56746672e-002 6.76804841e-001
      3.03992718e-001 4.44258621e-004 5.76000020e-004 2.66665393e-005
      1.13517686e-004 7.77114689e-001 2.04842672e-001 1.80426668e-002
      1.26133904e-001 2.18695961e-002 2.92743444e-001 1.36284027e-002
      7.69230783e-001 6.15384616e-002 2.70987839e-001 1.17401302e-001
      8.78402531e-001 3.92249878e-003 3.19860148e-004</_>
    <_>
      1. 0. 7.04952121e-001 5.08196712e-001 6.50401926e-003
      3.77880186e-002 1. 0. 7.37567246e-001 4.58823532e-001
      5.49596548e-003 2.94930879e-002 1. 0. 9.73304920e-003
      9.33521271e-001 6.20967686e-001 8.42195511e-001 0. 0.
      3.34835798e-002 1.06666666e-005 0. 5.33787261e-006 1.31928131e-001
      8.94352674e-001 7.76159987e-002 0. 0. 6.39999984e-004
      9.99360025e-001 0. 1.00056008e-002 1.83122669e-004 9.96859193e-001
      0. 1. 0. 4.52829897e-001 1.07166206e-005 6.36031432e-003
      9.93628979e-001 0.</_>
    <_>
      0. 1. 9.90058959e-001 9.18032765e-001 2.19018891e-001
      1.10599082e-002 0. 1. 9.85242248e-001 6.27451003e-001
      8.69421363e-002 1.84331799e-003 0. 1. 8.47777352e-002
      9.96504664e-001 8.83064508e-001 9.78288829e-001 7.71153688e-001 0.
      1.28783006e-003 3.59285295e-001 4.15375382e-002 4.66102034e-001
      1.15355037e-001 3.27217509e-003 1.59519520e-002 3.01299850e-003
      2.16041552e-003 9.50060070e-001 4.04504500e-002 9.48948972e-003
      2.26837257e-003 5.98381121e-006 3.15637976e-001 7.22288936e-002 0.
      1. 9.31781158e-002 2.54863858e-001 7.03957796e-001 3.45662087e-002
      7.72837875e-003</_>
    <_>
      1. 0. 9.27702010e-001 6.84426248e-001 1.03611313e-001
      1.15207374e-001 1. 0. 9.25275028e-001 5.56862772e-001
      6.85441792e-002 2.76497705e-003 7.24137902e-001 1.03448279e-001
      1.23980083e-001 9.87931490e-001 3.79032224e-001 6.87092543e-001 0.
      0. 7.98454583e-002 6.05674684e-001 2.56522655e-001 5.77878058e-002
      1.81723125e-002 2.58150301e-003 4.85973321e-002 1.16088325e-002
      9.78522468e-003 2.57221341e-001 7.06165314e-001 3.66133340e-002
      2.36065872e-003 6.72893520e-006 6.58481538e-001 5.00689493e-003
      7.14285731e-001 4.76190485e-002 3.66039842e-001 8.46325457e-001
      5.93526922e-002 7.70279020e-002 2.02133860e-002</_>
    <_>
      5.00000000e-001 2.14285716e-001 9.43389118e-001 5.73770463e-001
      2.85135210e-001 5.62211983e-002 5.00000000e-001 1.92307696e-001
      9.29724574e-001 5.52941203e-001 2.34763592e-001 5.25345616e-002
      5.47945201e-001 2.32876718e-001 1.98908523e-001 9.78556097e-001
      5.88709652e-001 7.90337026e-001 0. 0. 6.69671595e-002
      8.22474480e-001 1.72414407e-001 4.18373803e-003 1.85926565e-005 0.
      1.20120123e-004 3.90388508e-004 1.18886773e-003 4.33033053e-003
      9.77213204e-001 1.84564572e-002 1.23402886e-002 1.08476408e-004
      1.01012059e-001 8.08035731e-002 5.16129017e-001 2.74193555e-001
      5.80782652e-001 9.94345248e-001 1.78571427e-004 0. 6.40063453e-003</_>
    <_>
      4.28571433e-001 1.19047619e-001 9.18912470e-001 9.67213094e-001
      6.22674748e-002 5.25345616e-002 1. 0. 8.95911515e-001
      5.56862772e-001 4.53947159e-003 3.13364044e-002 3.59550565e-001
      3.90449435e-001 5.15471436e-002 9.87299562e-001 2.74193525e-001
      6.58855975e-001 0. 0. 7.53380582e-002 1.54790524e-002
      2.00785547e-002 6.61308765e-002 8.87330696e-002 1.91950545e-001
      6.41521633e-001 1.27882580e-004 5.43626258e-004 8.86970907e-002
      5.74633539e-001 3.36669385e-001 3.28181149e-003 4.82345749e-005
      4.44536805e-001 4.16948739e-003 5.05882382e-001 2.15686277e-001
      4.89765793e-001 4.83693145e-002 1.69123366e-001 7.81988740e-001
      6.06121554e-004</_>
    <_>
      0. 1. 9.79495466e-001 9.30327892e-001 1.38254642e-001
      1.47465438e-001 0. 1. 9.42168236e-001 5.21568656e-001
      4.95770201e-002 6.63594455e-002 3.50649357e-001 4.28571433e-001
      9.68551710e-002 9.83523190e-001 1.77419350e-001 6.80182219e-001 0.
      0. 1.08177722e-001 3.88677329e-001 3.40757340e-001 1.38357654e-002
      1.22065982e-002 1.72780585e-002 1.91754669e-001 3.92975882e-002
      3.02865189e-002 9.15519968e-002 7.79461324e-001 1.28986672e-001
      5.94391190e-002 4.99124592e-003 1.95737511e-001 2.01353263e-002
      3.88888896e-001 2.40740746e-001 5.63072264e-001 4.97899145e-001
      2.48553958e-002 4.39512163e-001 4.41030897e-002</_>
    <_>
      1. 0. 7.01341212e-001 6.55737698e-001 2.21572779e-002
      8.29493068e-003 1. 0. 7.33444810e-001 6.58823550e-001
      1.64118279e-002 7.37327198e-003 1. 0. 1.88585743e-002
      9.11931336e-001 3.79032224e-001 6.10815644e-001 0. 0.
      5.79523481e-003 0. 5.81333356e-004 1.00026929e+000 0. 0. 0. 0. 0.
      0. 9.83456016e-001 1.65439993e-002 1.00898473e-002 1.16798481e-004
      9.96859193e-001 0. 1. 0. 6.41557276e-001 1.95487231e-001
      8.04512739e-001 0. 0.</_>
    <_>
      0. 1. 8.87084544e-001 6.84426248e-001 1.43839434e-001
      5.52995391e-002 1. 0. 8.31654131e-001 4.98039216e-001
      6.03140481e-002 2.67281104e-002 5.90909064e-001 2.27272734e-001
      1.09676920e-001 9.63082433e-001 3.91129017e-001 7.05903828e-001 0.
      0. 4.95814569e-002 2.59880233e-003 4.19161661e-005 3.59587211e-005
      6.17899650e-006 2.02213523e-005 9.84389246e-001 1.68462265e-002
      5.96477697e-003 0. 7.55796432e-001 2.44203597e-001 2.96799634e-002
      1.77866395e-003 3.06812137e-001 6.90413360e-003 6.00000024e-001
      2.00000003e-001 6.93091094e-001 6.66471198e-003 1.36812276e-004
      9.05794978e-001 1.02158219e-001</_>
    <_>
      1. 0. 5.00923634e-001 7.54098356e-001 7.09463134e-002
      4.42396328e-002 1. 0. 5.46905994e-001 5.64705908e-001
      8.90792068e-003 3.31797227e-002 3.87096778e-002 3.74193549e-001
      8.37189779e-002 8.66116107e-001 5.72580636e-001 8.84891748e-001 0.
      0. 5.15131988e-002 1.35682961e-002 9.07527581e-002 5.14153242e-002
      8.74027163e-002 5.46836019e-001 2.71200478e-001 2.02893117e-003
      2.96845357e-003 1.11572053e-002 9.17638779e-001 7.12040067e-002
      3.58321778e-002 1.71595439e-002 9.67387974e-001 8.92015826e-003
      2.50000000e-001 2.50000000e-001 4.29226905e-001 1.14836343e-001
      1.02318749e-001 7.81180799e-001 1.94503972e-003</_>
    <_>
      6.25000000e-001 2.50000000e-001 7.61218965e-001 6.68032765e-001
      1.20603375e-001 6.82027638e-002 0. 1. 8.56088817e-001
      3.92156869e-001 6.79697692e-002 1.84331797e-002 4.47368413e-001
      3.50877196e-001 1.23815060e-001 9.52444196e-001 2.21774176e-001
      7.55855441e-001 0. 0. 3.99227291e-002 4.21920009e-002
      2.60800007e-003 5.03895152e-003 3.40111740e-002 4.48431075e-001
      5.17903984e-001 5.59997279e-004 1.26004638e-003 1.44965336e-001
      7.56133318e-001 9.89013314e-002 4.04754393e-002 2.17141979e-003
      7.26054549e-001 1.13937324e-002 4.19354826e-001 3.87096763e-001
      4.09191877e-001 5.62789664e-002 2.06797607e-002 9.21606719e-001
      1.67673256e-003</_>
    <_>
      7.27272749e-001 1.81818187e-001 8.48657072e-001 7.82786906e-001
      7.55476952e-002 3.22580636e-002 0. 1. 8.47073197e-001
      2.11764708e-001 1.59452129e-002 4.60829493e-003 0. 1.
      4.60507683e-002 9.80216980e-001 6.37096763e-001 9.21666503e-001 0.
      0. 1.28782997e-002 7.80951798e-001 4.97650616e-002 4.06309366e-002
      1.32498726e-001 6.78105607e-006 7.22891564e-005 1.80722025e-004
      2.05152450e-004 7.54674673e-001 1.64620489e-001 8.07048157e-002
      3.38736773e-002 1.31847325e-003 3.37609857e-001 1.06275575e-002
      4.28571433e-001 3.46938789e-001 2.92205691e-001 7.91237056e-001
      2.08441287e-001 1.78689497e-005 3.55052383e-004</_>
    <_>
      5.29411793e-001 2.35294119e-001 8.69973242e-001 4.54918027e-001
      9.32413116e-002 4.70046066e-002 1. 0. 8.81036580e-001
      2.35294119e-001 1.79178622e-002 3.13364044e-002 5.71428597e-001
      2.44897962e-001 7.28015229e-002 9.78262246e-001 2.05645144e-001
      7.19342113e-001 0. 0. 8.37089494e-002 5.72669022e-002
      5.23131676e-002 2.33330086e-001 1.48115113e-001 7.86837041e-002
      4.23750877e-001 2.50413977e-002 1.08013488e-002 8.91530216e-002
      7.46284723e-001 1.64562285e-001 1.81516055e-002 4.02576668e-004
      4.36009020e-002 6.12444878e-002 5.55555582e-001 2.77777791e-001
      4.34879154e-001 2.24236488e-001 3.66487026e-001 3.74163002e-001
      4.10410687e-002</_>
    <_>
      1.06382981e-001 4.68085110e-001 9.69578683e-001 1. 1.69319510e-001
      4.05529961e-002 3.22580636e-002 4.51612890e-001 9.32847857e-001
      7.45098054e-001 1.92025036e-001 5.06912433e-002 0. 1.
      2.83020198e-001 9.95149195e-001 1.04838707e-001 5.40402770e-001 0.
      0. 5.21571152e-002 7.46149361e-001 2.17946663e-001 2.79010572e-002
      2.88379542e-003 1.57291570e-003 1.34933332e-003 9.33328876e-004
      4.09798836e-003 2.13333333e-005 8.00378680e-001 1.99599996e-001
      1.21445460e-002 2.02747760e-004 8.14609766e-001 3.00230160e-002 0.
      1. 5.99795520e-001 9.66703415e-001 2.68903933e-002 3.31130181e-003
      3.61737795e-003</_>
    <_>
      0. 0. 3.93382728e-001 2.13114753e-001 4.68343049e-002
      1.38248848e-002 1. 0. 3.52876157e-001 1.45098045e-001
      1.60709117e-002 6.45161280e-003 4.14141417e-001 4.04040404e-002
      7.86642060e-002 8.45412314e-001 7.33870924e-001 9.26199675e-001 0.
      0. 1.54539598e-002 1.55253336e-002 3.31519991e-002 1.88587040e-001
      6.80008829e-001 8.14794376e-002 3.08640003e-002 6.48885733e-004
      5.67588431e-004 8.07258666e-001 1.68954670e-001 2.37866659e-002
      9.65900570e-002 2.10020971e-002 1.88745171e-001 2.84992792e-002
      3.78048778e-001 7.31707290e-002 3.28345001e-001 1.20080352e-001
      6.85652018e-001 1.92739725e-001 1.78580848e-003</_>
    <_>
      1. 0. 9.26013172e-001 9.42622960e-001 1.39794633e-001
      1.61290318e-001 0. 1. 9.07267451e-001 8.03921580e-001
      8.52197781e-002 8.94009247e-002 6.83333337e-001 1.25000000e-001
      2.05781966e-001 9.89302337e-001 2.13709667e-001 6.65504634e-001 0.
      0. 1.29426911e-001 2.24881664e-001 1.80615380e-001 8.85012895e-002
      4.15199291e-004 1.53195695e-004 2.66520709e-001 2.78095305e-001
      1.53588921e-001 1.46745564e-003 7.68609464e-001 2.29923069e-001
      8.33698083e-003 5.68323558e-005 6.37167633e-001 1.61342081e-002
      7.28155315e-001 8.73786435e-002 5.58147788e-001 5.48084080e-001
      7.67113119e-002 6.13281243e-002 3.66862446e-001</_>
    <_>
      0. 1. 9.39720690e-001 9.59016383e-001 1.09757192e-001
      2.23041475e-001 1. 0. 9.39658880e-001 6.15686297e-001
      6.01687357e-002 2.35023037e-001 3.29192549e-001 2.01863348e-001
      1.92490637e-001 9.89213645e-001 2.25806445e-001 7.28170514e-001 0.
      0. 2.63361245e-001 2.27088004e-001 2.59317338e-001 2.40882158e-001
      1.62439123e-001 2.62652915e-002 6.13440014e-002 2.80620884e-002
      2.97643393e-002 1.20613337e-001 7.38794684e-001 1.40591994e-001
      4.67072753e-003 1.40930479e-005 3.07764411e-001 5.54456450e-002
      3.40277791e-001 2.04861104e-001 5.59602678e-001 6.17069304e-001
      2.09791064e-001 1.29546717e-001 5.09519428e-002</_>
    <_>
      0. 1. 6.72447860e-001 8.36065590e-001 9.30140167e-002
      1.30875573e-001 1. 0. 7.31361091e-001 7.37254918e-001
      5.27651235e-002 1.11520737e-001 5.00000000e-001 2.88461536e-001
      8.24717581e-002 9.72241700e-001 3.22580636e-001 6.77827537e-001 0.
      0. 1.38441727e-001 4.92132120e-002 6.49429411e-002 2.27238283e-001
      2.94699818e-001 5.14353514e-002 3.19243252e-001 7.25722266e-003
      8.33485741e-003 6.24624605e-004 4.22510505e-001 5.76864839e-001
      1.99378580e-001 2.53712907e-002 3.64104599e-001 1.31079024e-002
      4.68085110e-001 2.97872335e-001 6.60131633e-001 4.05543819e-002
      4.98926252e-001 4.58900481e-001 1.89215573e-003</_>
    <_>
      1. 0. 5.36169648e-001 2.99180329e-001 9.37900972e-003
      1.29032256e-002 1. 0. 6.57383800e-001 1.88235298e-001
      6.72392687e-003 9.21658985e-003 1. 0. 6.61232099e-002
      8.79103959e-001 6.65322602e-001 8.64464283e-001 0. 0.
      1.48100452e-002 1.13155998e-001 2.51999998e-004 2.42233977e-001
      6.61133409e-001 1.53089131e-004 3.68799991e-003 6.66663473e-005 0.
      2.38859996e-001 7.61139989e-001 0. 2.21358445e-002 8.31442594e-004
      8.81182551e-001 6.31134631e-003 0. 1. 2.55886614e-001
      9.22436267e-003 9.89889145e-001 8.77428276e-004 1.06274438e-005</_>
    <_>
      1. 0. 8.46751034e-001 7.04918027e-001 4.08405773e-002
      7.55760372e-002 0. 1. 8.64647508e-001 4.35294122e-001
      3.53463776e-002 2.11981572e-002 0. 1. 6.51333630e-002
      9.80713665e-001 3.50806445e-001 5.84250033e-001 0. 0.
      7.66258836e-002 1.17904000e-001 1.43472001e-001 1.37012511e-001
      1.44299835e-001 3.52585241e-002 4.07312006e-001 3.05509642e-002
      1.04776826e-002 1.60000000e-005 5.51349342e-001 4.48634654e-001
      4.61416021e-002 2.80193379e-003 2.41051480e-001 8.85676313e-003 0.
      1. 6.60349846e-001 2.89841592e-001 8.75817016e-002 5.13570428e-001
      1.27407834e-001</_>
    <_>
      6.00000024e-001 2.00000003e-001 9.16745126e-001 5.90163946e-001
      9.02773738e-002 5.43778799e-002 0. 3.33333343e-001 7.38710880e-001
      4.82352942e-001 4.64562662e-002 3.41013819e-002 3.52941185e-001
      4.70588237e-001 7.05010220e-002 9.78225648e-001 5.44354856e-001
      8.16302121e-001 0. 0. 5.21571152e-002 2.29849622e-001
      3.50927301e-002 2.59368424e-003 4.91377315e-004 2.25695294e-005
      6.65563881e-001 6.33079708e-002 6.04929775e-002 8.22055154e-004
      7.89824545e-001 2.09353387e-001 1.67645127e-001 5.75387739e-002
      5.49930155e-001 3.21092107e-003 4.61538464e-001 3.84615391e-001
      6.53533280e-001 4.07748193e-001 2.69288337e-003 4.24708813e-001
      1.92678720e-001</_>
    <_>
      1. 0. 3.58407944e-001 4.05737698e-001 7.64138848e-002
      2.85714287e-002 1. 0. 4.70991701e-001 3.21568638e-001
      9.81501862e-002 2.85714287e-002 1. 0. 1.08136192e-001
      6.61297262e-001 3.95161271e-001 7.79084086e-001 0. 0.
      6.05280101e-002 1.02647573e-001 8.05713385e-002 4.28394586e-001
      2.97324583e-002 5.92941092e-003 2.65131801e-001 1.04905978e-001
      5.66043146e-002 5.08305728e-002 7.56056666e-001 1.93112776e-001
      4.86374535e-002 3.83006013e-003 7.81212226e-002 2.38877647e-002 1.
      0. 2.03917027e-001 1.91607684e-001 1.68099087e-002 3.57178956e-001
      5.07735789e-001</_>
    <_>
      1. 0. 7.45606184e-001 9.71311450e-001 4.49334970e-003
      3.96313369e-002 1. 0. 7.50972509e-001 1.88235298e-001
      1.65680307e-004 9.21658997e-004 3.62637371e-001 2.85714298e-001
      1.78594030e-002 9.61732447e-001 7.25806430e-002 2.27636844e-001 0.
      2.57618695e-001 1.22343851e-002 8.30713958e-002 2.44434968e-001
      2.52524167e-001 4.32672143e-001 4.41969787e-005 1.74503693e-005
      6.18030972e-005 1.68301305e-003 2.13031933e-001 2.61982411e-001
      5.24985671e-001 7.89024383e-002 1.47437053e-002 2.66895980e-001
      5.88651747e-003 3.48837197e-001 3.25581402e-001 3.17213207e-001
      6.72589302e-001 3.22508305e-001 0. 5.72993699e-003</_>
    <_>
      0. 1. 9.59176838e-001 8.77049208e-001 2.25482047e-001
      2.11981572e-002 0. 1. 8.71055245e-001 1.41176477e-001
      4.05256487e-002 9.21658997e-004 1.64179102e-001 4.17910457e-001
      7.14004412e-002 9.69950318e-001 9.03225839e-001 9.70936537e-001
      7.54094839e-001 0. 1.28783006e-003 8.71599972e-001 5.11999987e-003
      1.03928372e-002 2.25255229e-002 3.36796069e-003 7.84906670e-002
      9.56439879e-003 8.18462577e-003 9.63397324e-001 2.84640007e-002
      8.13866686e-003 3.82246412e-002 1.09852012e-003 7.81391710e-002
      4.86267656e-002 9.80392173e-002 4.31372553e-001 2.17281356e-001
      6.79510832e-001 4.25633676e-002 1.72644675e-001 1.23053804e-001</_>
    <_>
      0. 1. 9.49459553e-001 6.10655725e-001 7.29815811e-002
      2.11981572e-002 1. 0. 2.31285140e-001 2.74509806e-002
      4.18991921e-003 0. 0. 1. 3.40656452e-002 9.64118421e-001
      6.81451619e-001 9.44750190e-001 1.51753634e-001 0. 7.72697991e-003
      5.16402423e-001 2.16948956e-001 3.56639624e-002 5.42905554e-003
      2.70427699e-005 1.76222220e-001 6.64861649e-002 2.04664227e-002
      8.28072071e-001 1.71753749e-001 1.74174173e-004 2.26378545e-001
      7.82667771e-002 4.78258589e-003 2.02677459e-001 0. 1.
      4.50706989e-001 9.46450830e-001 4.73225415e-002 3.73599003e-003
      2.91111227e-003</_>
    <_>
      4.20289844e-001 2.02898547e-001 9.86769676e-001 9.87704933e-001
      1.69734538e-001 5.89861758e-002 8.57142866e-001 0. 9.65120614e-001
      4.74509805e-001 4.03672047e-002 8.29493068e-003 4.11552340e-001
      2.20216602e-001 1.32392630e-001 9.97940063e-001 2.62096763e-001
      7.57240951e-001 0. 0. 3.09079196e-002 4.07206230e-002
      1.39746353e-001 1.71233505e-001 5.68651378e-001 7.99506232e-002
      2.28513088e-002 2.77199992e-003 3.89190763e-003 6.69296265e-001
      2.68480927e-001 6.22227974e-002 2.66483985e-003 2.12400446e-005
      1.66615263e-001 2.59622633e-002 4.20408159e-001 2.32653067e-001
      3.22809666e-001 3.22933137e-001 3.84875774e-001 2.91923612e-001
      3.12604825e-004</_>
    <_>
      4.49999988e-001 2.50000000e-001 8.41954350e-001 4.87704933e-001
      7.97737315e-002 1.84331799e-003 0. 1. 7.13728487e-001
      1.09803922e-001 2.94076540e-002 9.21658997e-004 0. 1.
      6.26930743e-002 9.64948654e-001 9.55645144e-001 9.84406948e-001
      9.59584713e-001 0. 1.28783006e-003 6.47199988e-001 6.67200014e-002
      2.59975731e-001 1.33513119e-002 9.84573155e-004 1.06239999e-002
      2.53332127e-003 7.83272088e-004 9.66773331e-001 3.03733330e-002
      2.85333325e-003 7.91916102e-002 6.73486991e-003 5.40028512e-001
      1.07709803e-002 0. 1. 3.56480479e-002 6.69600904e-001
      3.04752499e-001 2.19672620e-002 4.30045882e-003</_>
    <_>
      7.50000000e-001 6.25000000e-002 8.33331048e-001 1. 1.67775154e-001
      4.05529961e-002 7.50000000e-001 6.25000000e-002 8.61510813e-001 1.
      1.68818146e-001 4.05529961e-002 8.50000024e-001 5.00000007e-002
      1.98212489e-001 9.61339772e-001 4.03225794e-003 4.70547378e-001 0.
      0. 4.12105620e-002 1.58346668e-002 9.06666683e-005 3.25610192e-004
      3.73209327e-001 6.99551225e-001 5.81333356e-004 3.55553857e-005
      2.27035380e-005 1.34570673e-001 5.38879991e-001 3.26549321e-001
      1.95489898e-002 4.23782127e-004 6.29849792e-001 6.69733761e-003
      8.09523821e-001 4.76190485e-002 6.85466170e-001 8.27679783e-003
      2.33972184e-002 9.68207240e-001 1.38766642e-004</_>
    <_>
      0. 1. 8.93210709e-001 8.77049208e-001 9.50123519e-002
      3.59447002e-002 0. 1. 9.14537072e-001 4.11764711e-001
      2.36845408e-002 1.01382490e-002 1.90476194e-001 3.80952388e-001
      2.72834767e-002 9.69125569e-001 9.07258093e-001 9.35240567e-001 0.
      0. 5.15132025e-003 9.43993986e-001 5.93993999e-003 1.60496833e-003
      9.91608322e-005 8.78889987e-005 5.82582608e-004 6.24621613e-003
      9.35626030e-002 4.23327327e-001 5.65015018e-001 1.16576580e-002
      5.51766716e-003 3.23853164e-005 1.86121520e-002 7.27756247e-002 0.
      1. 6.20636284e-001 9.27788496e-001 6.35074154e-002 6.12508040e-003
      3.01434309e-003</_>
    <_>
      0. 4.39999998e-001 8.86973202e-001 9.50819671e-001 5.47004826e-002
      9.21658997e-004 0. 1. 5.21977484e-001 9.01960805e-002
      2.25326736e-002 9.21658997e-004 6.96517378e-002 3.88059705e-001
      7.32299387e-002 9.74691868e-001 9.71774220e-001 9.94358480e-001
      9.46142435e-001 0. 6.43915031e-004 4.36915666e-001 9.28313285e-002
      4.42128956e-001 1.96308196e-002 1.99363055e-003 5.61445765e-003
      2.12850375e-003 1.73097372e-003 9.51572299e-001 3.17349397e-002
      1.66927706e-002 7.03425333e-002 1.26074972e-002 5.34395397e-001
      2.51473263e-002 4.34782617e-002 3.97515535e-001 5.50057851e-002
      5.45823991e-001 4.36857909e-001 1.33667504e-002 4.61834855e-003</_>
    <_>
      3.00000012e-001 1.00000001e-001 4.27282929e-001 9.09836054e-001
      7.58526996e-002 3.31797227e-002 1. 0. 3.87962162e-001
      2.98039228e-001 1.75600164e-002 1.84331797e-002 7.96296299e-001
      3.70370373e-002 8.86054486e-002 7.87147880e-001 3.83064479e-001
      8.39249909e-001 0. 0. 1.99613646e-002 9.18400008e-003
      4.15946655e-002 1.08214691e-001 7.60821164e-001 1.09053485e-001
      6.78399997e-003 1.06666157e-004 1.36221221e-004 6.97983980e-001
      2.32218668e-001 6.97973371e-002 1.16105460e-001 1.40750948e-002
      8.07526648e-001 4.38544247e-003 6.86274529e-001 1.96078438e-002
      2.33788937e-001 8.24436769e-002 7.78512001e-001 1.38898805e-001
      1.70085419e-004</_>
    <_>
      1. 0. 6.61070406e-001 5.36885262e-001 2.05617007e-002
      5.25345616e-002 1. 0. 6.81498230e-001 3.84313732e-001
      1.16797704e-002 2.94930879e-002 7.72727251e-001 2.27272734e-002
      3.76376919e-002 9.35394883e-001 2.78225780e-001 6.86548650e-001 0.
      0. 9.01480988e-002 4.23564374e-001 1.27085507e-001 1.19254597e-001
      1.20320156e-001 6.32080138e-002 1.53740659e-001 4.51006368e-003
      2.12114723e-003 3.56117427e-001 5.58668077e-001 8.52145255e-002
      2.49089804e-002 7.07473373e-004 7.13794708e-001 1.14018261e-003
      7.50000000e-001 0. 2.99974054e-001 6.65685177e-001 1.56252667e-001
      1.71407834e-001 7.77762895e-003</_>
    <_>
      2.50000000e-001 3.62676054e-001 9.79146838e-001 9.71311450e-001
      2.27007300e-001 6.72811046e-002 2.99319714e-001 3.36734682e-001
      9.86456275e-001 9.41176474e-001 2.78364956e-001 1.54838711e-001
      3.10008138e-001 2.95362085e-001 3.59389752e-001 9.97108221e-001
      1.24999993e-001 6.64515018e-001 0. 0. 8.43528658e-002
      2.86680847e-001 1.37915298e-001 1.79963872e-001 9.48176533e-002
      5.25131747e-002 2.30771378e-001 2.10655034e-002 2.90404521e-002
      3.46252441e-001 5.00872314e-001 1.52875260e-001 1.04574254e-003
      1.95600978e-006 7.92768180e-001 3.96412127e-002 3.02358478e-001
      3.16981137e-001 3.84103537e-001 4.18193936e-001 2.42506608e-001
      2.91551203e-001 5.58087006e-002</_>
    <_>
      1. 0. 9.30935681e-001 6.10655725e-001 5.15660755e-002
      9.76958498e-002 0. 1. 9.65469241e-001 3.25490206e-001
      1.47585675e-001 3.87096778e-002 0. 1. 1.42670646e-001
      9.94452715e-001 6.00806475e-001 8.40945005e-001 0. 0.
      1.12041213e-001 4.15429324e-001 3.11360005e-002 1.27628529e-002
      1.19149173e-002 6.72871694e-002 4.30799991e-001 3.55553851e-002
      3.66662145e-002 0. 8.20378661e-001 1.79621339e-001 7.43269175e-003
      7.40059040e-005 4.22555348e-003 2.94375002e-001 0. 1.
      5.24018288e-001 7.03750014e-001 1.19999997e-001 9.00000036e-002
      1.00809999e-001</_>
    <_>
      0. 1. 9.91259813e-001 9.83606577e-001 2.88881600e-001
      6.35944679e-002 0. 1. 9.96527255e-001 8.35294127e-001
      4.16074306e-001 2.00921655e-001 0. 1. 1.84513584e-001
      9.97962654e-001 1.29032254e-001 7.38467634e-001 0. 0.
      3.54153253e-002 6.23997986e-001 4.69729118e-002 5.52990995e-002
      2.96145235e-003 7.51456013e-004 1.03417717e-001 1.33119583e-001
      1.85068607e-001 4.23840851e-001 4.12466675e-001 1.63692474e-001
      2.70802993e-003 1.12757343e-005 2.98410594e-001 1.29944563e-001 0.
      1. 6.75378323e-001 8.05921137e-001 5.47817759e-002 5.57717588e-003
      1.56293407e-001</_>
    <_>
      1. 0. 7.83539355e-001 8.15573752e-001 9.88204405e-002
      9.40092131e-002 9.65517223e-001 3.44827585e-002 8.48149717e-001
      6.50980413e-001 1.86045215e-001 4.88479249e-002 8.48066270e-001
      6.90607727e-002 2.01384842e-001 9.75589037e-001 3.70967716e-001
      7.23221421e-001 0. 0. 1.06889889e-001 7.06461370e-002
      7.19902694e-001 1.13523833e-001 1.86647512e-002 1.69339590e-002
      6.19301014e-002 5.82307170e-004 1.30444043e-003 5.96547946e-002
      7.65510440e-001 1.74834758e-001 1.51535552e-002 3.87133012e-004
      4.26820248e-001 1.46451099e-002 8.52517962e-001 5.75539581e-002
      5.76066315e-001 9.93072212e-001 5.71155967e-003 1.10871450e-003
      1.25660925e-004</_>
    <_>
      0. 1. 9.95071232e-001 7.95081973e-001 3.26197982e-001
      1.49308756e-001 0. 1. 9.97959793e-001 6.35294139e-001
      4.16370690e-001 1.63133636e-001 2.98935294e-001 4.65192467e-001
      3.86306316e-001 9.98907208e-001 3.95161271e-001 7.73075640e-001 0.
      0. 1.97037995e-001 1.26809433e-001 9.65156555e-002 1.42667651e-001
      4.10021454e-001 9.76506323e-002 1.29432678e-001 1.67676322e-002
      2.24258322e-002 3.71894836e-002 7.72660553e-001 1.90149948e-001
      1.18861871e-003 6.08279038e-007 7.39824653e-001 2.68928669e-002 0.
      1. 5.35544634e-001 2.42414072e-001 5.18939853e-001 2.07951203e-001
      3.58765200e-002</_>
    <_>
      8.84615362e-001 0. 6.88891351e-001 8.40163946e-001 1.85473353e-001
      9.30875540e-002 1. 0. 7.89367259e-001 6.47058845e-001
      1.28507987e-001 4.33179736e-002 9.37500000e-001 0. 1.05851561e-001
      8.65609407e-001 4.99999970e-001 7.81792998e-001 0. 0.
      5.15131988e-002 1.85941339e-001 2.34106660e-001 3.92515093e-001
      1.34613797e-001 9.70164780e-003 4.31573316e-002 6.33774744e-003
      3.70067661e-003 1.83626674e-002 8.78202677e-001 1.03434667e-001
      1.50065515e-002 3.62391787e-004 1.75182506e-001 1.03569683e-002
      8.63636374e-001 0. 5.27085483e-001 3.50719422e-001 4.69028175e-001
      1.59889042e-001 2.38009430e-002</_>
    <_>
      5.41666687e-001 6.94444478e-002 8.18400145e-001 9.83606577e-001
      1.56925753e-001 7.18894005e-002 5.55555582e-001 7.40740746e-002
      8.22067380e-001 5.76470613e-001 1.44922391e-001 4.51612920e-002
      4.82243001e-001 1.42056078e-001 1.42906621e-001 9.79954123e-001
      4.99999970e-001 8.59196663e-001 0. 0. 3.41274962e-002
      3.84204909e-002 2.88015120e-002 4.53480743e-002 8.96771625e-002
      5.69874048e-002 7.20037818e-001 3.75204682e-002 1.57223959e-002
      6.52937531e-001 3.08033377e-001 3.90290804e-002 1.02766249e-002
      2.47636286e-004 5.52706242e-001 1.25033967e-002 5.04255295e-001
      1.21276595e-001 2.46543840e-001 6.07949235e-002 1.29750192e-001
      7.05993414e-001 1.20926939e-001</_>
    <_>
      4.13793117e-001 1.72413796e-001 6.69496119e-001 9.59016383e-001
      1.26641691e-001 1.75115205e-002 3.33333343e-001 0. 6.90984666e-001
      4.62745100e-001 3.16888243e-002 2.58064512e-002 5.82089543e-001
      9.70149264e-002 1.40929699e-001 9.01606560e-001 3.34677398e-001
      7.93773055e-001 0. 0. 3.41274962e-002 7.23259032e-001
      2.01746989e-002 2.48705465e-002 3.45932618e-002 1.38333545e-003
      1.22295178e-001 5.61342686e-002 8.72410834e-002 6.23668671e-001
      3.10795188e-001 6.55361414e-002 5.37538156e-002 2.42175069e-003
      7.56117702e-001 9.50321555e-003 5.04424751e-001 4.42477874e-002
      2.20797703e-001 7.37029850e-001 5.43462634e-002 1.12714045e-001
      1.12100556e-001</_>
    <_>
      5.55555582e-001 2.22222224e-001 8.45631182e-001 9.34426248e-001
      1.63422838e-001 1.56682022e-002 6.66666687e-001 0. 5.90830505e-001
      3.64705890e-001 6.16344325e-002 4.60829493e-003 4.47368413e-001
      2.76315778e-001 7.63523430e-002 9.31642354e-001 6.57258093e-001
      9.23964441e-001 0. 0. 9.01481044e-003 9.15887824e-004
      1.61993768e-004 1.06009145e-004 2.50740210e-004 8.41611472e-005
      9.88498449e-001 1.57320108e-002 1.19352713e-003 7.34348893e-001
      2.42772579e-001 2.28785053e-002 9.51940268e-002 1.32365394e-002
      2.23687321e-001 3.05204578e-002 3.89830500e-001 3.05084735e-001
      2.12628350e-001 2.23133340e-003 8.08858371e-004 7.46520519e-001
      2.92716354e-001</_>
    <_>
      0. 1. 9.92643416e-001 8.15573752e-001 2.95954764e-001
      2.55299538e-001 0. 1. 9.94921148e-001 6.50980413e-001
      3.71183932e-001 2.45161295e-001 3.57993186e-001 4.21768695e-001
      4.33919132e-001 9.98974979e-001 1.41129017e-001 6.59774005e-001 0.
      0. 2.20218927e-001 1.07439674e-001 2.05701198e-002 6.12716340e-002
      4.88497972e-001 2.30029985e-001 1.08626045e-001 1.76111013e-002
      2.94274762e-002 7.07041398e-002 6.95716858e-001 2.33578995e-001
      5.80612337e-004 3.36213503e-007 8.27441096e-001 2.58668847e-002
      3.63026828e-001 4.24329489e-001 5.47249079e-001 1.27200112e-001
      4.47403580e-001 3.89388055e-001 4.20868583e-002</_>
    <_>
      3.49999994e-001 3.24999988e-001 7.66020715e-001 1. 7.68398941e-002
      2.21198164e-002 2.77777791e-001 3.88888896e-001 8.64324033e-001
      9.88235295e-001 8.72524381e-002 3.68663594e-002 4.19087142e-001
      2.46887967e-001 1.36292636e-001 9.64766562e-001 2.01612897e-002
      4.23400372e-001 0. 0. 1.53895691e-001 6.76919147e-002
      3.49354628e-003 2.97297654e-003 8.09495803e-003 9.19317007e-002
      1.31098852e-001 5.87811351e-001 7.50371337e-001 7.73743242e-002
      4.59013253e-001 4.63612437e-001 7.60317547e-003 2.67299794e-004
      4.94099140e-001 2.23815460e-002 4.05727923e-001 2.62529820e-001
      7.64595449e-001 4.50987294e-002 1.17178895e-002 2.56330550e-001
      8.02801490e-001</_>
    <_>
      3.40314150e-001 2.35602096e-001 9.49877203e-001 1. 2.24846542e-001
      2.48847920e-002 3.01204830e-001 3.01204830e-001 9.28821623e-001
      9.52941179e-001 1.84113234e-001 1.51152074e-001 3.38616729e-001
      1.65706053e-001 1.39153868e-001 9.92062986e-001 1.00806445e-001
      5.60785472e-001 0. 0. 1.54539598e-002 2.57792443e-001
      5.39658181e-002 1.98045447e-001 3.54130864e-001 2.21563112e-002
      1.00863725e-001 2.46358905e-002 2.52232458e-002 5.75531840e-001
      2.20572814e-001 2.03895360e-001 2.01627589e-003 1.53327692e-005
      6.68847203e-001 1.34064108e-002 3.94833952e-001 1.75276756e-001
      4.39523876e-001 2.56522298e-001 5.50508142e-001 1.35278732e-001
      6.74296990e-002</_>
    <_>
      1. 0. 5.30165315e-001 4.79508191e-001 7.25374520e-002
      3.04147471e-002 1. 0. 5.64394176e-001 1.25490203e-001
      7.43357651e-003 6.45161280e-003 9.84126985e-001 0. 6.19913526e-002
      8.87073219e-001 4.91935462e-001 7.63137460e-001 0. 0.
      2.57565994e-002 3.66783977e-001 2.36375593e-002 3.36488076e-002
      8.14598501e-002 4.48239930e-002 4.51592326e-001 6.09500939e-003
      4.14270768e-003 2.12012395e-001 7.86468506e-001 1.51909725e-003
      1.75849404e-002 5.20794245e-004 6.42215684e-002 6.55913167e-003
      9.62962985e-001 0. 1.73766896e-001 4.26389784e-001 3.71485949e-002
      5.23594379e-001 1.50394011e-002</_>
    <_>
      1. 0. 9.72543001e-001 8.11475396e-001 1.81864634e-001
      1.19815664e-002 1. 0. 9.34192121e-001 5.13725519e-001
      5.41573577e-002 7.37327198e-003 5.97701132e-001 5.74712642e-002
      1.09340951e-001 9.84654963e-001 1.73387080e-001 6.23937905e-001 0.
      4.78464484e-001 9.65872500e-003 1. 0. 0. 0. 0. 0. 0. 0.
      5.42613342e-002 1.41941339e-001 8.03797305e-001 1.90884136e-002
      6.72653841e-004 3.14943731e-001 1.79334562e-002 6.49999976e-001
      2.50000004e-002 6.44491851e-001 1. 0. 0. 0.</_>
    <_>
      1. 0. 8.49984705e-001 9.01639342e-001 1.02463856e-001
      5.52995391e-002 1. 0. 8.31398726e-001 1.05882354e-001
      1.71691105e-002 4.60829493e-003 1. 0. 7.46144801e-002
      9.73685920e-001 2.25806445e-001 6.69981539e-001 0. 0.
      4.89375405e-002 4.62480009e-001 5.22202671e-001 1.52609767e-002
      7.15445422e-005 0. 0. 0. 0. 4.68581319e-001 2.29120001e-001
      3.02298665e-001 3.13189114e-003 1.34910406e-005 1.20672230e-002
      5.45634888e-002 1. 0. 5.75003922e-001 1. 0. 0. 0.</_>
    <_>
      2.60869563e-001 3.47826093e-001 8.52151811e-001 8.56557369e-001
      2.36262560e-001 4.42396328e-002 0. 1. 7.93233931e-001
      3.21568638e-001 3.61751169e-002 2.11981572e-002 1.09510086e-001
      4.95677233e-001 1.85971245e-001 9.90338266e-001 1.33064508e-001
      8.37578654e-001 0. 0. 3.54153253e-002 3.48270476e-001
      1.62825629e-001 1.95618302e-001 1.54269755e-001 3.11097484e-002
      6.72811419e-002 3.67851146e-002 5.73850088e-002 3.26576501e-001
      5.78704655e-001 9.47188586e-002 2.18801908e-002 9.52986476e-004
      8.23026419e-001 2.98220161e-002 1.33105800e-001 4.64163810e-001
      3.06460500e-001 5.64654410e-001 2.68829018e-001 1.04062013e-001
      7.29975700e-002</_>
    <_>
      1. 0. 9.42361474e-001 4.50819671e-001 9.30607915e-002
      2.58064512e-002 1. 0. 9.57179487e-001 3.17647070e-001
      9.95943174e-002 1.56682022e-002 0. 1. 1.37540892e-001
      9.94468570e-001 7.49999940e-001 9.15920317e-001 0. 0.
      1.54539598e-002 1.47679999e-001 3.49173322e-002 7.40576461e-002
      7.33056366e-002 9.45550390e-003 5.10698676e-001 1.67190313e-001
      1.12711713e-001 8.66138637e-001 1.33498669e-001 3.62666673e-004
      3.10257589e-003 9.08999391e-006 2.83630461e-001 5.07004838e-003 0.
      1. 1.41316801e-001 2.64282763e-001 7.04063550e-002 2.83451974e-001
      4.46321130e-001</_>
    <_>
      1.58536583e-001 4.39024389e-001 7.77280986e-001 1. 9.32580605e-002
      1.65898614e-002 2.97101438e-001 3.26086968e-001 8.82773042e-001
      9.80392158e-001 1.79790318e-001 5.25345616e-002 3.24396789e-001
      3.21715832e-001 7.47337863e-002 9.36463356e-001 7.66128972e-002
      8.22399616e-001 1.65777981e-001 0. 3.21957492e-003 6.73997998e-002
      2.77972147e-002 2.17627306e-002 6.34741783e-001 1.65106937e-001
      1.13279551e-001 7.78415613e-003 7.04183709e-003 8.13697338e-001
      1.01272076e-001 8.50305706e-002 3.92269790e-002 2.11305427e-003
      4.21852320e-001 1.37254857e-002 2.98780501e-001 3.50609750e-001
      2.90004343e-001 1.01470016e-001 2.55209178e-001 6.05461597e-001
      4.42503132e-002</_>
    <_>
      2.80000001e-001 4.60000008e-001 9.22797501e-001 8.68852437e-001
      2.76886553e-001 8.47926289e-002 1. 0. 8.65946949e-001
      2.19607845e-001 9.09118056e-002 9.21658985e-003 3.64197522e-001
      3.20987642e-001 1.90137744e-001 9.81695116e-001 2.94354826e-001
      7.96602905e-001 0. 0. 2.12491956e-002 6.18720017e-002
      4.12799977e-003 2.62089558e-002 8.76305044e-001 3.77980061e-002
      2.41173338e-002 4.62220021e-004 1.31680514e-003 6.52912021e-001
      2.70671993e-001 7.64160007e-002 9.42705199e-003 1.02828861e-004
      3.01001787e-001 2.98493542e-002 3.46938789e-001 3.40136051e-001
      4.40372616e-001 5.73299266e-002 7.56662786e-001 1.83203802e-001
      3.27677047e-003</_>
    <_>
      4.42477882e-001 2.12389380e-001 9.54625010e-001 9.63114738e-001
      2.27808967e-001 1.37327194e-001 4.23423409e-001 2.52252251e-001
      9.64454949e-001 8.31372559e-001 2.55443633e-001 1.15207374e-001
      5.86987257e-001 1.55586988e-001 2.61739761e-001 9.94306803e-001
      8.46774131e-002 6.38685524e-001 0. 0. 1.34578243e-001
      1.94332540e-001 4.59827006e-001 6.44401088e-002 7.46245757e-002
      7.35940188e-002 1.21146306e-001 2.37725135e-002 1.77688934e-002
      2.54031718e-001 5.47592163e-001 1.98376119e-001 1.06153870e-003
      3.23547488e-006 8.41445267e-001 1.63348150e-002 5.99369109e-001
      1.41955838e-001 4.52656478e-001 6.90512776e-001 9.85123664e-002
      1.62287712e-001 5.69060668e-002</_>
    <_>
      1. 0. 7.05275536e-001 7.74590135e-001 4.19164300e-002
      2.67281104e-002 1. 0. 6.05961263e-001 5.45098066e-001
      1.72973424e-003 3.68663599e-003 1. 0. 3.79407480e-002
      8.96213651e-001 4.35483843e-001 6.88895464e-001 0. 0.
      2.12491956e-002 0. 5.33333332e-006 9.71946478e-001 2.97625288e-002
      3.60209706e-005 0. 0. 0. 0. 9.47258651e-001 5.27413338e-002
      3.73134501e-002 3.22961621e-003 9.96859193e-001 0. 1. 0.
      5.70265830e-001 5.35831032e-006 9.99919653e-001 7.50163454e-005 0.</_>
    <_>
      6.47058845e-001 2.94117648e-002 9.82488334e-001 8.03278685e-001
      1.06033333e-001 4.70046066e-002 6.66666687e-001 0. 9.86651659e-001
      3.88235301e-001 8.23390856e-002 2.11981572e-002 7.47252762e-001
      9.89011005e-002 1.24058276e-001 9.97958779e-001 3.34677398e-001
      6.83790445e-001 0. 0. 5.15131988e-002 2.05469772e-001
      5.89955628e-001 6.52422979e-002 1.74380618e-003 1.02856429e-002
      1.05295815e-001 2.02538259e-002 2.36518644e-002 1.30489349e-001
      6.67897522e-001 2.01613113e-001 3.05817608e-004 1.66810921e-007
      4.09105420e-001 5.05423872e-003 7.23684192e-001 1.18421055e-001
      4.15080607e-001 7.24912465e-001 1.10625187e-002 2.02032596e-001
      7.24574775e-002</_>
    <_>
      1. 0. 7.60787845e-001 6.68032765e-001 9.14303772e-003
      4.97695841e-002 1. 0. 6.09053075e-001 2.98039228e-001
      5.52422041e-003 2.11981572e-002 1. 0. 1.01151541e-002
      9.41649139e-001 4.19354826e-001 7.23229051e-001 0. 0.
      4.50740494e-002 3.12047988e-001 4.26133350e-003 2.27393373e-003
      1.29880849e-003 2.28132805e-004 1.09290667e-001 6.89952254e-001
      3.33514988e-001 2.72650659e-001 7.26485312e-001 8.64000001e-004
      4.40388061e-002 5.68219274e-003 9.96859193e-001 0. 1. 0.
      3.16463172e-001 2.88298517e-001 3.19355284e-003 5.71356602e-002
      7.61331379e-001</_>
    <_>
      1. 0. 3.94514531e-001 4.91803288e-002 6.56882999e-003
      2.76497705e-003 1. 0. 4.74758506e-001 7.05882385e-002
      8.09817389e-003 2.76497705e-003 1. 0. 7.44637474e-003
      8.31024349e-001 9.47580636e-001 9.55412924e-001 2.53514111e-001 0.
      1.93174498e-003 4.40405339e-001 4.89600003e-003 5.09681463e-001
      4.12867032e-002 2.82164256e-004 5.17333345e-003 2.66665393e-005 0.
      1. 0. 0. 5.26947677e-002 2.80412403e-003 9.96859193e-001 0. 1. 0.
      2.71183327e-002 4.47429627e-001 5.39715767e-001 1.28331529e-002
      2.50514186e-005</_>
    <_>
      1. 0. 8.80123138e-001 5.61475396e-001 8.01090077e-002
      4.70046066e-002 1. 0. 8.05214882e-001 3.41176480e-001
      3.15950215e-002 1.65898614e-002 4.00000006e-001 3.00000012e-001
      5.83838336e-002 9.68632281e-001 5.60483873e-001 8.56800675e-001 0.
      0. 2.18931101e-002 1.26680717e-001 4.50855434e-001 4.16975051e-001
      1.39864942e-003 1.75629358e-003 2.89759040e-003 1.00401121e-005
      5.12881124e-005 3.18072294e-003 9.65463877e-001 3.13554220e-002
      2.95153856e-002 1.49560673e-003 7.21660443e-003 5.79318926e-002 0.
      1. 9.51846242e-001 4.59302336e-001 5.33222616e-001 5.81395347e-003
      1.94154738e-003</_>
    <_>
      1. 0. 8.69207442e-001 7.70491779e-001 1.15817122e-001
      7.55760372e-002 1. 0. 8.91049802e-001 4.78431374e-001
      5.24843186e-002 3.13364044e-002 8.52941155e-001 0. 1.16343044e-001
      9.80862319e-001 4.59677398e-001 7.47686386e-001 0. 0.
      5.21571152e-002 1.30597860e-001 2.98064053e-001 1.60057798e-001
      2.34037608e-001 6.23156391e-002 1.28405690e-001 1.06761046e-003
      4.39325580e-004 4.73096073e-001 4.63088959e-001 6.38149455e-002
      5.00714080e-003 4.43887766e-005 5.47190368e-001 8.06020945e-003
      8.57142866e-001 5.71428575e-002 2.49515697e-001 3.84623408e-001
      4.45887506e-001 1.68121308e-001 1.59869238e-003</_>
    <_>
      1. 0. 3.06697994e-001 9.50819671e-001 4.62709554e-002
      1.52995393e-001 1. 0. 2.47485533e-001 1.96078435e-001
      8.93090444e-004 1.10599082e-002 1. 0. 3.31307054e-002
      6.79982245e-001 4.63709652e-001 8.28409791e-001 0. 0.
      7.01867342e-002 6.24710657e-002 1.38287038e-001 4.64086771e-001
      9.56530795e-002 1.25854518e-002 2.25914359e-001 7.41701666e-003
      2.78374553e-003 0. 3.67314816e-001 6.32685184e-001 8.88743848e-002
      8.37025046e-003 5.18111110e-001 2.13933364e-003 1. 0.
      7.05071270e-001 2.10364997e-001 4.98025656e-001 2.89159596e-001
      2.86329212e-003</_>
    <_>
      1. 0. 8.57368469e-001 1. 1.51612386e-001 5.89861758e-002 1. 0.
      8.19658637e-001 9.76470590e-001 1.12896591e-001 5.99078350e-002
      9.49044585e-001 6.36942685e-003 1.40014857e-001 9.78608549e-001
      2.01612890e-001 6.41102374e-001 0. 0. 9.14359316e-002
      2.04693340e-002 2.56314665e-001 5.83771050e-001 1.38994530e-001
      3.34394677e-003 1.83466671e-003 4.17775766e-004 3.97311931e-004
      1.17493331e-001 7.67717361e-001 1.14789337e-001 8.00860766e-003
      2.35641957e-004 2.78245956e-001 1.99095942e-002 9.44000006e-001 0.
      6.15853548e-001 2.12349802e-001 7.48589218e-001 3.67576480e-002
      2.69218395e-003</_>
    <_>
      0. 1. 9.85826373e-001 1. 1.64195761e-001 8.29493068e-003 0. 1.
      9.47597682e-001 2.03921571e-001 2.98778955e-002 4.60829493e-003 0.
      1. 6.73620924e-002 9.95797634e-001 9.19354856e-001 9.66679931e-001
      7.11333096e-001 0. 2.57566012e-003 3.13885897e-001 2.84864865e-002
      1.58212617e-001 1.00951925e-001 6.29420485e-003 3.93813819e-001
      2.21220148e-003 2.09649792e-003 9.60438430e-001 2.40120124e-002
      1.55495498e-002 4.86148987e-003 3.59072037e-005 1.66713014e-001
      5.11867851e-002 0. 1. 1.76822558e-001 2.35625133e-001
      4.07762796e-001 3.38431567e-001 2.12495849e-002</_>
    <_>
      1.63822532e-001 4.50511932e-001 9.01682854e-001 9.75409865e-001
      2.78991520e-001 4.42396328e-002 3.91891897e-001 3.24324310e-001
      8.21204066e-001 4.90196079e-001 1.17651269e-001 2.39631329e-002
      3.12157720e-001 2.86966056e-001 1.55820161e-001 9.66989756e-001
      6.04838669e-001 9.07158017e-001 0. 0. 1.54539598e-002
      2.05674917e-001 2.99484253e-001 2.47260243e-001 1.05476873e-002
      4.79023380e-004 2.10813731e-001 3.24021652e-002 1.46618644e-002
      8.34855795e-001 1.39399216e-001 2.57449672e-002 2.36396734e-002
      5.30126330e-004 7.77863622e-001 1.80759393e-002 2.38471672e-001
      2.95125157e-001 1.45062178e-001 6.12085760e-001 1.57624066e-001
      1.80321708e-001 5.84037118e-002</_>
    <_>
      0. 0. 8.12042356e-001 9.01639342e-001 3.64652574e-002
      7.83410147e-002 4.09090906e-001 3.18181813e-001 9.09188330e-001
      5.05882382e-001 1.78755969e-001 7.18894005e-002 4.00000006e-001
      3.03703696e-001 1.24534279e-001 9.75664377e-001 1.97580636e-001
      7.09933341e-001 0. 0. 1.04314230e-001 3.00405324e-001
      1.88703999e-001 2.07408369e-001 1.90545112e-001 9.22677144e-002
      3.06986663e-002 4.28442378e-003 8.01434927e-003 4.38095987e-001
      4.21253324e-001 1.40650660e-001 1.07742008e-002 1.21480363e-004
      6.55703783e-001 1.57930106e-002 4.15841579e-001 2.87128717e-001
      3.54919642e-001 5.61176300e-001 2.83203006e-001 1.48134574e-001
      8.74990132e-003</_>
    <_>
      1. 0. 9.48512793e-001 8.07377040e-001 1.26445130e-001
      1.32718891e-001 0. 1. 9.82371449e-001 4.35294122e-001
      1.33077458e-001 5.43778799e-002 0. 1. 2.33202666e-001
      9.97770905e-001 5.04032254e-001 7.88096726e-001 0. 0.
      1.31358653e-001 7.72600591e-001 5.93273267e-002 1.27856471e-002
      1.65598579e-002 4.03004885e-002 8.36096108e-002 1.77977122e-002
      1.94948725e-002 3.10570579e-002 9.25975978e-001 4.29669656e-002
      5.90922451e-003 6.84904153e-005 8.40481758e-001 6.98857754e-003 0.
      1. 5.00189185e-001 9.06418204e-001 1.09426882e-002 6.54056445e-002
      2.01426912e-002</_>
    <_>
      3.80952388e-001 1.90476194e-001 9.29696023e-001 7.90983617e-001
      1.68612450e-001 6.82027638e-002 1. 0. 9.25588608e-001
      6.11764729e-001 4.37305123e-002 1.93548389e-002 5.38461566e-001
      1.28205135e-001 1.04095720e-001 9.87504065e-001 4.43548352e-001
      6.01550579e-001 0. 0. 3.99227291e-002 2.86666658e-002
      3.35093327e-002 8.83022904e-001 1.42758870e-002 3.90227186e-004
      3.85599993e-002 3.82220396e-003 1.10112154e-003 2.42677331e-001
      7.47503996e-001 9.81866661e-003 6.54078275e-003 7.46206642e-005
      1.56983212e-001 2.31146030e-002 5.35714269e-001 1.42857149e-001
      2.51502037e-001 2.61659354e-001 6.28057301e-001 9.30367038e-002
      2.01580934e-002</_>
    <_>
      1. 0. 8.80166233e-001 4.18032795e-001 1.02224991e-001
      2.94930879e-002 1. 0. 8.84184539e-001 3.09803933e-001
      3.31810266e-002 1.19815664e-002 4.09090906e-001 2.72727281e-001
      8.39677453e-002 9.84124780e-001 6.65322602e-001 8.29892039e-001 0.
      0. 2.89761759e-002 5.37813343e-002 7.68314660e-001 1.47597507e-001
      3.04724704e-002 3.06178263e-004 4.32000001e-004 6.22219231e-005
      3.40553059e-004 9.60053355e-002 8.86373341e-001 1.76213328e-002
      5.71212964e-003 5.92759570e-005 6.96514666e-001 3.04831285e-003
      4.37500000e-001 1.87500000e-001 3.31448108e-001 8.86104286e-001
      1.12906441e-001 7.28527608e-004 3.04751477e-004</_>
    <_>
      8.82352948e-001 0. 9.16922808e-001 9.79508221e-001 2.19876245e-001
      6.45161271e-002 9.08396959e-001 3.05343512e-002 9.63004768e-001
      7.72549033e-001 6.80849016e-001 7.18894005e-002 9.43478286e-001
      1.44927539e-002 5.34618735e-001 9.87385273e-001 4.43548374e-002
      4.86463904e-001 0. 0. 5.53766899e-002 8.18133354e-003
      1.60000000e-005 1.70811923e-004 6.72656238e-001 2.20064104e-001
      1.44154668e-001 1.86665769e-004 0. 2.86383986e-001 3.91914666e-001
      3.21701348e-001 8.71879049e-003 1.39708878e-004 6.50447547e-001
      5.14571853e-002 9.46117282e-001 2.21870039e-002 6.51000738e-001
      2.46353957e-005 3.47227693e-001 6.52747691e-001 0.</_>
    <_>
      1. 0. 9.10401464e-001 8.56557369e-001 1.38796896e-001
      1.01382487e-001 1. 0. 9.37776923e-001 6.94117665e-001
      1.17087573e-001 8.84792656e-002 1. 0. 1.06808752e-001
      9.84797537e-001 3.34677398e-001 7.48262584e-001 0. 0.
      7.40502253e-002 1.64586663e-001 3.45439985e-002 5.76169938e-002
      8.86161700e-002 1.04334742e-001 4.53226656e-001 1.16417222e-001
      8.86686668e-002 2.19199993e-002 5.61189353e-001 4.16890681e-001
      1.69430650e-003 2.93505013e-006 5.71603537e-001 1.95531501e-003 1.
      0. 6.20493889e-001 2.51579195e-001 1.15823805e-001 4.78844285e-001
      1.79707944e-001</_>
    <_>
      7.89473712e-001 3.15789469e-002 9.70975757e-001 7.70491779e-001
      1.86557904e-001 5.62211983e-002 8.57142866e-001 7.14285746e-002
      9.76287663e-001 6.31372571e-001 1.59647599e-001 4.97695841e-002
      6.87022924e-001 1.34351149e-001 2.22484961e-001 9.96859848e-001
      3.62903208e-001 7.48804510e-001 0. 0. 7.79137164e-002
      2.50113159e-001 6.07261658e-002 3.87228578e-002 1.38465300e-001
      2.85036564e-001 2.12816879e-001 3.18356156e-002 6.62977546e-002
      4.83551025e-002 8.10993195e-001 1.40651703e-001 1.83070765e-003
      2.50478024e-006 8.08006406e-001 1.48089770e-002 6.77477479e-001
      1.36936933e-001 5.40678501e-001 3.30681831e-001 1.00395598e-001
      5.02435088e-001 7.77113810e-002</_>
    <_>
      3.65853667e-001 3.17073166e-001 7.44188011e-001 1. 1.44838154e-001
      2.11981572e-002 3.15789461e-001 2.63157904e-001 9.29442346e-001
      9.88235295e-001 4.83642481e-002 2.76497705e-003 5.94594598e-001
      1.89189196e-001 7.20418394e-002 9.28717375e-001 8.06451589e-003
      7.47905076e-001 0. 0. 7.08306488e-003 2.66010672e-001
      1.26037329e-001 2.67085761e-001 3.50017892e-003 3.96230666e-004
      7.49386698e-002 2.36629978e-001 2.56334275e-001 7.26336002e-001
      4.17440012e-002 2.31920004e-001 7.13542700e-002 3.69280064e-003
      5.58964908e-001 1.25059718e-002 5.14563084e-001 2.42718443e-001
      3.90752912e-001 4.79025334e-001 3.22637349e-001 1.11610126e-002
      2.18773827e-001</_>
    <_>
      1. 0. 2.43285730e-001 5.53278685e-001 4.95147100e-003
      2.76497696e-002 1. 0. 3.25234592e-001 1.33333340e-001
      3.85356368e-004 7.37327198e-003 1. 0. 6.02396810e-003
      1.99054286e-001 5.92741966e-001 9.10224199e-001 0. 0.
      2.38248557e-002 5.57603598e-001 3.42462473e-002 5.93297323e-003
      3.34915705e-002 5.00291237e-004 3.08072060e-001 7.93089271e-002
      2.90825162e-002 7.94234201e-002 9.20576572e-001 0. 1.42151117e-001
      2.69254632e-002 9.96522963e-001 0. 1. 0. 3.31442654e-001
      5.92009306e-001 1.11246593e-002 2.83736140e-001 1.32227510e-001</_>
    <_>
      5.71428597e-001 2.85714298e-001 8.29318106e-001 5.65573752e-001
      1.98187083e-002 3.41013819e-002 1. 0. 8.59336376e-001
      2.78431386e-001 1.49889486e-002 1.65898614e-002 4.44444448e-001
      3.33333343e-001 1.88830383e-002 9.67467666e-001 6.45161271e-001
      8.93137515e-001 0. 0. 1.93174500e-002 2.11319536e-001
      3.02981194e-002 1.32055553e-002 5.46027906e-002 2.15407327e-001
      4.77855116e-001 2.79794522e-002 1.33416839e-002 5.19939058e-004
      8.23905945e-001 1.75574139e-001 6.93959789e-003 5.80813248e-005
      9.04528145e-003 8.24468024e-003 7.14285731e-001 1.42857149e-001
      5.38586438e-001 2.88179666e-001 0. 6.41193867e-001 8.25490355e-002</_>
    <_>
      1. 0. 8.71970296e-001 3.44262302e-001 1.03594530e-002
      1.10599082e-002 1. 0. 9.31315541e-001 2.35294119e-001
      1.45354336e-002 1.19815664e-002 1. 0. 2.12364364e-002
      9.87875760e-001 7.90322602e-001 8.87704790e-001 0. 0.
      1.80296209e-002 8.18341598e-002 2.40867615e-001 2.57788837e-001
      2.21622139e-001 2.30171695e-001 4.78108734e-004 0. 0.
      7.10119903e-001 2.89880127e-001 0. 5.64745115e-003 7.17496878e-005
      1.02196191e-003 5.35714291e-002 1. 0. 3.05781692e-001 0.
      1.38095245e-001 8.61904740e-001 0.</_>
    <_>
      4.51612890e-001 3.54838699e-001 9.09305632e-001 5.24590135e-001
      1.04708314e-001 4.79262657e-002 0. 1. 7.78845191e-001
      2.62745112e-001 1.73351681e-003 1.65898614e-002 4.28571433e-001
      3.68421048e-001 6.38246611e-002 9.74896550e-001 3.79032224e-001
      6.75690055e-001 0. 0. 6.05280101e-002 1.39790192e-001
      1.95475742e-001 1.06838301e-001 3.21505927e-002 4.48703133e-002
      4.81115967e-001 3.63703351e-003 7.81140383e-003 2.75986306e-002
      5.49817562e-001 4.22583789e-001 3.83357815e-002 3.70098301e-003
      6.70941114e-001 2.26510060e-003 4.15384620e-001 3.84615391e-001
      6.51529312e-001 2.44487673e-001 9.78369564e-002 6.50955439e-001
      7.85436574e-003</_>
    <_>
      4.21052635e-001 5.26315793e-002 7.41277695e-001 8.36065590e-001
      9.30320844e-002 1.30875573e-001 7.50000000e-001 0. 7.19016075e-001
      6.94117665e-001 7.68736601e-002 8.47926289e-002 7.96875000e-001
      1.56250000e-002 7.91432932e-002 8.72906327e-001 2.98387080e-001
      7.10568428e-001 0. 0. 7.21184835e-002 1.10186664e-002
      7.96639994e-002 7.23196268e-001 1.59241632e-001 1.72000136e-002
      1.69173330e-002 2.04443451e-004 2.04331853e-004 3.05578679e-001
      5.97477317e-001 9.69439968e-002 7.82930106e-002 8.15732311e-003
      3.45455706e-001 2.44202223e-002 7.28155315e-001 0. 3.63528192e-001
      2.01716140e-001 7.35729754e-001 6.22448996e-002 3.61413608e-004</_>
    <_>
      5.00000000e-001 1.25000000e-001 3.94352853e-001 7.21311450e-001
      2.96098590e-002 6.45161280e-003 0. 1. 2.58641422e-001
      1.56862751e-001 4.94329538e-003 2.76497705e-003 1.52380958e-001
      4.38095242e-001 5.43123595e-002 9.16751087e-001 6.53225780e-001
      9.14075494e-001 0. 0. 7.08306488e-003 1.23920001e-001
      6.34666649e-004 9.17046424e-003 9.24575608e-004 1.39881426e-003
      8.63605320e-001 7.37774244e-004 2.04331853e-004 7.68922687e-001
      1.95680007e-001 3.53973322e-002 1.98805004e-001 8.10429826e-002
      7.36086249e-001 8.15808866e-003 2.35294119e-001 2.58823544e-001
      1.31678969e-001 1.36095151e-001 1.22053875e-002 8.50269914e-001
      1.67084544e-003</_>
    <_>
      7.50000000e-001 0. 7.93556273e-001 2.90983617e-001 1.28908053e-001
      2.76497696e-002 1. 0. 8.77373457e-001 2.58823544e-001
      1.34745076e-001 2.11981572e-002 7.50000000e-001 1.07142858e-001
      1.15877606e-001 9.54897583e-001 7.90322602e-001 9.01700616e-001 0.
      0. 2.12491956e-002 8.18746686e-001 1.49632007e-001 4.71867947e-003
      5.88866591e-004 1.08663260e-003 2.16586664e-002 2.00887909e-003
      5.33533143e-003 4.11200011e-003 9.95151997e-001 7.36000016e-004
      1.80436671e-002 5.56765590e-004 1.21407248e-001 2.40796944e-003
      6.66666687e-001 1.66666672e-001 5.44927478e-001 9.72907603e-001
      7.47680012e-003 6.11338345e-003 1.57815516e-002</_>
    <_>
      6.00000024e-001 6.66666701e-002 8.88755322e-001 9.87704933e-001
      1.48436591e-001 2.45161295e-001 8.09523821e-001 4.76190485e-002
      9.15555716e-001 9.21568632e-001 2.09575772e-001 4.07373279e-001
      7.86206901e-001 7.58620724e-002 2.21607268e-001 9.75398839e-001
      8.06451589e-002 5.17230928e-001 0. 0. 4.03090805e-001
      2.11337343e-001 1.07620485e-001 1.47318050e-001 5.34476697e-001
      1.53658735e-002 1.00602407e-003 9.93971131e-004 1.35913503e-003
      8.34999979e-002 4.61451799e-001 4.55048203e-001 1.11533776e-002
      2.78761756e-004 7.48599827e-001 1.64954048e-002 7.79661000e-001
      5.93220331e-002 6.19819343e-001 3.98291439e-001 5.23871720e-001
      7.53062516e-002 2.95782415e-003</_>
    <_>
      8.19672123e-002 3.60655725e-001 9.12988544e-001 9.95901644e-001
      1.95655987e-001 5.71428575e-002 1. 0. 5.12801945e-001
      1.45098045e-001 1.49401100e-002 8.29493068e-003 9.72222239e-002
      2.91666657e-001 9.40889046e-002 9.65439260e-001 7.54032254e-001
      9.28214967e-001 0. 0. 1.67417899e-002 4.07664001e-001
      9.11040008e-002 4.48274501e-002 2.98450775e-002 1.85447950e-002
      2.35210672e-001 1.58932582e-001 1.71286836e-001 8.71967971e-001
      1.04223996e-001 2.38080006e-002 7.15740621e-002 1.25651713e-002
      2.12307587e-001 3.20345089e-002 1.79104477e-001 2.76119411e-001
      2.43188396e-001 5.94908714e-001 1.00895509e-001 1.03184588e-001
      2.34944239e-001</_>
    <_>
      1. 0. 9.75913167e-001 9.50819671e-001 8.40519816e-002
      2.48847920e-002 1. 0. 9.85334873e-001 6.70588255e-001
      1.25587225e-001 1.75115205e-002 1. 0. 1.51262432e-001
      9.97234225e-001 2.49999985e-001 5.56304395e-001 0. 0.
      2.31809393e-002 5.97480014e-002 9.21796024e-001 1.84717067e-002 0.
      0. 0. 0. 0. 0. 7.19044030e-001 2.80956000e-001 8.91553005e-004
      1.04901824e-006 9.97525513e-001 0. 1. 0. 6.32585883e-001
      9.99979913e-001 2.00802406e-005 0. 0.</_>
    <_>
      1. 0. 7.44332194e-001 5.77868879e-001 2.10339483e-002
      4.60829511e-002 1. 0. 7.36570239e-001 4.66666669e-001
      5.24193458e-002 1.29032256e-002 6.92307711e-001 2.50000000e-001
      8.67161974e-002 9.70515013e-001 3.79032224e-001 6.56949222e-001 0.
      0. 6.76110759e-002 2.74734855e-001 3.77912313e-001 2.12238938e-001
      2.51919609e-002 1.48285702e-002 8.83924812e-002 1.07654314e-002
      6.07876526e-003 2.36885175e-001 7.12029219e-001 5.10855950e-002
      3.34424153e-002 1.56617432e-003 6.94489479e-001 5.61777456e-003
      7.55555570e-001 8.88888910e-002 3.64211172e-001 7.30515420e-001
      1.11253612e-001 1.36651009e-001 2.52229087e-002</_>
    <_>
      4.61538464e-001 1.53846160e-001 5.88641882e-001 9.09836054e-001
      4.47791331e-002 2.48847920e-002 9.44444418e-001 5.55555560e-002
      6.16167068e-001 6.00000024e-001 5.20769395e-002 1.38248848e-002
      6.25000000e-001 9.86842141e-002 8.58766660e-002 8.80137980e-001
      1.97580636e-001 5.11484802e-001 0. 0. 5.73084354e-002
      1.42449271e-002 4.30331752e-002 8.11949465e-003 8.75620637e-003
      2.86994167e-002 8.96099508e-001 3.40212835e-003 5.29386057e-003
      1.71827525e-001 6.06667399e-001 2.21505061e-001 4.15869989e-002
      1.62212143e-003 4.92966145e-001 5.72185824e-003 6.23188376e-001
      8.69565234e-002 4.81643856e-001 1.12990558e-001 1.37634585e-002
      8.63994598e-001 1.08131589e-002</_>
    <_>
      1. 0. 4.23449159e-001 3.36065561e-001 1.53376795e-002
      1.65898614e-002 1. 0. 3.62925500e-001 2.31372550e-001
      5.01319999e-003 1.19815664e-002 2.95774639e-001 0. 6.41889498e-002
      7.53467500e-001 5.40322542e-001 7.84830153e-001 0. 0.
      1.73857044e-002 2.10375994e-001 8.34000017e-003 1.01830594e-001
      6.98417783e-001 1.03560291e-004 2.55200011e-003 1.06666157e-004 0.
      5.65204024e-001 4.34291989e-001 5.03999996e-004 7.80508071e-002
      1.31308567e-002 8.81182551e-001 4.13596025e-003 0. 1.
      2.25380436e-001 1.20480448e-001 8.75932574e-001 3.53244436e-003
      6.37646590e-005</_>
    <_>
      1. 0. 8.33599448e-001 4.54918027e-001 7.61979865e-003
      2.30414756e-002 1. 0. 8.90167058e-001 3.29411775e-001
      1.05186943e-002 1.47465440e-002 1. 0. 2.22583264e-002
      9.86811936e-001 3.42741907e-001 7.57931948e-001 0. 0.
      4.37862203e-002 8.21770541e-003 4.70369130e-001 2.78618246e-001
      1.53150540e-002 8.68120119e-002 1.50543213e-001 5.39706380e-004
      4.29426989e-004 8.78228107e-004 7.71041870e-001 2.28079900e-001
      2.11126590e-003 4.21312652e-005 7.76678557e-003 3.06388512e-002 1.
      0. 5.60817719e-001 0. 3.25945253e-003 9.96523261e-001
      2.53979058e-004</_>
    <_>
      4.21052635e-001 5.26315793e-002 8.55910957e-001 6.43442631e-001
      1.32726192e-001 4.42396328e-002 1. 0. 8.66393268e-001
      2.94117659e-001 7.68209100e-002 2.02764980e-002 3.45679015e-001
      2.34567896e-001 1.56345189e-001 9.66330111e-001 4.51612890e-001
      8.56249750e-001 0. 0. 1.60978753e-002 1.70533806e-002
      1.51601422e-003 1.06852427e-002 1.29702631e-002 1.49131313e-001
      8.25444818e-001 1.77935086e-004 3.18132341e-004 0. 8.94932389e-001
      1.05067618e-001 4.11693985e-003 1.27967442e-005 4.80993629e-001
      9.95850563e-003 3.70967746e-001 2.90322572e-001 6.43114150e-001
      3.89596932e-002 3.09128631e-002 9.29519832e-001 7.10155233e-004</_>
    <_>
      5.41666687e-001 8.33333358e-002 7.61777699e-001 4.54918027e-001
      8.93864632e-002 9.21658997e-004 2.72727281e-001 2.72727281e-001
      7.35991418e-001 2.70588249e-001 4.90998626e-002 9.21658997e-004
      4.84848499e-001 1.81818187e-001 8.02060217e-002 9.05150175e-001
      9.47580636e-001 9.92381513e-001 9.25736725e-001 0. 6.43915031e-004
      8.51879895e-001 8.14114138e-002 2.12192442e-002 2.15984695e-002
      7.97761721e-004 2.12132130e-002 3.15313810e-003 1.62350747e-003
      9.44042027e-001 5.03183194e-002 5.63963968e-003 6.60534054e-002
      2.53094663e-003 5.62603116e-001 1.36233885e-002 4.55696195e-001
      1.51898727e-001 3.14898118e-002 9.14501667e-001 4.39626239e-002
      3.50995362e-002 7.52266077e-003</_>
    <_>
      6.15384638e-001 2.30769232e-001 5.38564444e-001 9.46721315e-001
      1.14641577e-001 5.43778799e-002 1. 0. 4.74238694e-001
      3.09803933e-001 1.17969448e-002 4.60829493e-003 4.56521749e-001
      4.56521749e-001 8.36613476e-002 9.41697001e-001 5.56451559e-001
      8.04714203e-001 0. 0. 3.15518342e-002 1.69525519e-001
      1.83183188e-003 2.52466911e-004 8.67657291e-005 5.40855399e-005
      6.52678668e-001 1.35624975e-001 2.00509563e-001 4.59513515e-001
      5.00156164e-001 4.03303318e-002 1.10056914e-001 1.35860024e-002
      1.85565487e-001 1.15698734e-002 4.83870953e-001 1.61290318e-001
      1.93691045e-001 3.80088151e-001 1.06948405e-003 3.36855054e-001
      3.29590023e-001</_>
    <_>
      2.28571430e-001 4.19047624e-001 9.87707496e-001 9.42622960e-001
      3.73914212e-001 5.51152050e-001 5.23809552e-001 1.42857149e-001
      8.90944660e-001 5.45098066e-001 1.48235276e-001 9.58525315e-002
      2.02985078e-001 4.59701478e-001 2.58605212e-001 9.94961023e-001
      2.45967731e-001 7.14552701e-001 0. 0. 1.81584030e-001
      1.92499995e-001 9.26844254e-002 1.35036960e-001 8.43614265e-002
      1.06563576e-001 3.57385248e-001 4.67142574e-002 3.84343415e-002
      2.00319678e-001 6.78577840e-001 1.21102460e-001 8.33506044e-003
      8.10192796e-005 6.92537665e-001 2.51148306e-002 2.49134943e-001
      3.91003460e-001 4.08011764e-001 3.29109490e-001 1.91655055e-001
      3.88750941e-001 1.05759345e-001</_>
    <_>
      0. 1. 5.17072678e-001 7.29508221e-001 2.69226953e-002
      1.10599082e-002 1. 0. 2.73787111e-001 4.31372561e-002
      6.46997010e-003 0. 0. 1. 1.13150785e-002 8.30763042e-001
      9.71774220e-001 9.94382858e-001 7.23303437e-001 0. 4.50740522e-003
      8.82949352e-001 8.19146633e-002 1.80686992e-002 1.02583859e-002
      3.42199201e-004 4.70399996e-003 3.03109665e-003 6.69754343e-004
      9.16831970e-001 7.43466690e-002 8.82133376e-003 3.97994101e-001
      1.15893483e-001 1.62643955e-005 8.74999940e-001 0. 0.
      8.54523420e-001 2.50000000e-001 3.33333343e-001 3.33333343e-001
      9.74009633e-002</_>
    <_>
      2.81990528e-001 1.94312796e-001 9.83402014e-001 9.67213094e-001
      3.29633772e-001 1.20737329e-001 3.18991095e-001 2.83382803e-001
      9.91339862e-001 7.68627465e-001 4.91465598e-001 1.54838711e-001
      3.98943841e-001 2.49159873e-001 3.19005549e-001 9.96265113e-001
      2.74193525e-001 5.42231500e-001 0. 0. 2.70444304e-002
      5.22663116e-001 1.21368408e-001 1.23024330e-001 4.75105196e-002
      8.35189689e-003 1.17594399e-001 5.95174655e-002 5.59400804e-002
      4.83150482e-001 4.17746216e-001 9.91032943e-002 3.61274648e-003
      1.09259718e-005 3.94687325e-001 9.20464620e-002 3.53638828e-001
      2.65768200e-001 5.31423271e-001 4.92611557e-001 2.50074208e-001
      9.74756703e-002 1.86821163e-001</_>
    <_>
      6.66666687e-001 1.66666672e-001 5.25049210e-001 6.27049208e-001
      1.28720418e-001 6.17511533e-002 7.50000000e-001 0. 5.50890207e-001
      3.68627459e-001 1.02052458e-001 2.02764980e-002 8.09523821e-001
      4.76190485e-002 1.22681454e-001 7.93297350e-001 5.12096763e-001
      7.71738470e-001 0. 0. 4.57179658e-002 3.85173336e-002
      5.85706681e-002 1.87076405e-001 5.08109331e-001 1.84067145e-001
      5.78400008e-002 2.47998815e-003 1.57789595e-003 2.90357322e-001
      6.78458691e-001 3.11840009e-002 2.47525852e-002 3.43979569e-004
      5.31075716e-001 9.35340766e-003 8.33333313e-001 5.55555560e-002
      3.66084069e-001 1.81395769e-001 5.47385573e-001 2.68070698e-001
      3.67938960e-003</_>
    <_>
      1. 0. 8.66261184e-001 6.80327892e-001 9.22108516e-002
      1.64055303e-001 1. 0. 8.80510092e-001 4.90196079e-001
      4.83055711e-002 6.17511533e-002 1. 0. 6.54739588e-002
      9.73844171e-001 3.38709652e-001 7.33621061e-001 0. 0.
      5.53766899e-002 5.61946690e-001 1.24485336e-001 1.74649850e-001
      2.97625288e-002 5.53522259e-003 8.41120034e-002 2.07465664e-002
      1.86169017e-002 4.41504002e-001 5.03482640e-001 5.50133325e-002
      7.32987467e-003 3.60208142e-005 4.06211213e-004 2.47058809e-001 0.
      0. 7.49513209e-001 4.11764711e-001 0. 3.17647070e-001
      3.16266686e-001</_>
    <_>
      0. 1. 9.77695346e-001 9.95901644e-001 1.22155175e-001
      7.37327198e-003 1. 0. 6.42227173e-001 1.17647059e-001
      4.19079438e-002 2.76497705e-003 0. 1. 7.18405321e-002
      9.84401941e-001 9.27419364e-001 9.67620850e-001 6.98413372e-001 0.
      1.93174498e-003 5.69369383e-002 7.30810836e-002 2.70109564e-001
      6.13446057e-001 1.27777096e-003 4.06606589e-003 3.00298852e-004
      4.98557405e-004 9.72624600e-001 2.26186179e-002 4.75675659e-003
      4.58900034e-002 4.20747418e-003 2.21652299e-001 1.58933662e-002 0.
      1. 8.34361836e-002 2.24067286e-001 7.49504805e-001 2.42029577e-002
      2.60053016e-003</_>
    <_>
      3.83838385e-001 3.43434334e-001 9.50665653e-001 8.72950792e-001
      1.56474680e-001 1.44700468e-001 4.52380955e-001 2.61904776e-001
      9.48060691e-001 6.70588255e-001 8.28312710e-002 7.83410147e-002
      4.93303567e-001 2.36607149e-001 1.30142137e-001 9.92874026e-001
      3.70967716e-001 7.32354641e-001 0. 0. 1.09465547e-001
      3.60361743e-003 4.50146981e-002 3.61201674e-001 4.97483373e-001
      1.01256184e-001 1.82952881e-002 1.01724771e-004 1.48855994e-004
      1.27550764e-002 5.04488647e-001 4.82756287e-001 6.49033487e-003
      5.62475288e-005 4.70841676e-001 1.41018005e-002 4.69849259e-001
      2.66331673e-001 6.13856852e-001 1.61686584e-001 6.04962945e-001
      2.33034030e-001 3.69857065e-004</_>
    <_>
      1. 0. 9.33892846e-001 5.04098356e-001 1.96350310e-002
      2.76497696e-002 1. 0. 8.66603017e-001 2.54901975e-001
      7.57012656e-003 3.68663599e-003 1. 0. 3.14113759e-002
      9.91357327e-001 5.56451559e-001 7.47217119e-001 0. 0.
      2.51126848e-002 5.18798828e-003 2.05270126e-001 6.29029155e-001
      1.66183814e-001 0. 0. 0. 0. 4.51503754e-001 5.48496246e-001 0.
      4.89557255e-003 1.48197956e-004 9.99246895e-001 0. 1. 0.
      2.21804708e-001 4.30909157e-001 5.69089532e-001 1.27446822e-006 0.</_>
    <_>
      0. 1.66666672e-001 4.13054556e-001 3.15573782e-001 3.06702778e-002
