<?xml version="1.0"?>
<opencv_storage>
<my_svm type_id="opencv-ml-svm">
  <svm_type>C_SVC</svm_type>
  <kernel><type>RBF</type>
    <gamma>4.</gamma></kernel>
  <C>1.</C>
  <term_criteria><epsilon>9.9999997473787516e-006</epsilon>
    <iterations>10000</iterations></term_criteria>
  <var_all>43</var_all>
  <var_count>43</var_count>
  <class_count>2</class_count>
  <class_labels type_id="opencv-matrix">
    <rows>1</rows>
    <cols>2</cols>
    <dt>i</dt>
    <data>
      -1 1</data></class_labels>
  <class_weights type_id="opencv-matrix">
    <rows>1</rows>
    <cols>2</cols>
    <dt>d</dt>
    <data>
      3. 1.</data></class_weights>
  <sv_total>5151</sv_total>
  <support_vectors>
    <_>
      8.00000038e-003 9.44000006e-001 9.97298956e-001 6.72131121e-001
      2.41807193e-001 2.76497705e-003 0. 9.80000019e-001 9.92282689e-001
      5.60784340e-001 1.13110311e-001 0. 5.57103055e-003 9.19220030e-001
      9.09097642e-002 9.98194039e-001 8.50806534e-001 9.89558935e-001
      8.40511620e-001 0. 0. 8.56276274e-001 9.76576563e-003
      6.37178449e-003 2.38978975e-002 3.75218480e-003 8.65705684e-002
      1.20798647e-002 1.06358919e-002 9.34648633e-001 5.95855862e-002
      5.76576591e-003 1.09961478e-003 7.67892232e-007 2.46635020e-001
      6.69551417e-002 0. 9.42952991e-001 1.08764105e-001 5.74358582e-001
      7.52121732e-002 2.71997839e-001 7.94028044e-002</_>
    <_>
      2.30627313e-001 2.36162364e-001 9.83780563e-001 9.09835994e-001
      4.06209737e-001 1.34562209e-001 3.11926603e-001 2.63761461e-001
      9.82812226e-001 8.66666675e-001 3.22606921e-001 4.70046028e-002
      2.66253859e-001 2.69349843e-001 3.27631563e-001 9.95359778e-001
      1.77419350e-001 7.53558218e-001 0. 0. 8.22299644e-002
      1.18487012e-002 4.97931091e-004 1.63542794e-003 2.60288012e-003
      9.97456070e-003 9.10576999e-001 5.24387658e-002 5.49328811e-002
      1.09593727e-001 7.58688688e-001 1.31717563e-001 2.75954744e-003
      6.69838937e-006 5.98052979e-001 6.24418296e-002 2.70004272e-001
      2.58451015e-001 4.71546561e-001 5.40602254e-003 4.84150369e-003
      8.42329025e-001 1.49249405e-001</_>
    <_>
      8.66666675e-001 1.33333340e-001 7.68225372e-001 9.34426248e-001
      1.12182893e-001 7.83410147e-002 3.33333343e-001 3.33333343e-001
      7.59525716e-001 5.68627477e-001 9.48997140e-002 2.76497677e-002
      8.47222209e-001 5.55555560e-002 1.28305718e-001 9.36093390e-001
      2.17741922e-001 7.45325387e-001 0. 0. 7.17770085e-002
      6.16800010e-001 3.06421340e-001 5.57754263e-002 1.44000002e-003
      6.00349485e-005 7.11466651e-003 1.10932756e-002 9.29709896e-003
      3.87706667e-001 4.83045340e-001 1.29247993e-001 1.40022263e-002
      1.76326197e-004 5.74619353e-001 1.01826452e-002 8.23529422e-001
      3.92156877e-002 3.44176829e-001 9.67502654e-001 2.46611759e-002
      1.74756919e-003 6.16401806e-003</_>
    <_>
      1. 0. 9.20533836e-001 1. 8.05357248e-002 5.52995354e-002
      3.33333343e-001 0. 9.43783581e-001 5.49019635e-001 1.34133741e-001
      3.31797190e-002 5.65217376e-001 2.46376812e-001 1.36043355e-001
      9.84186947e-001 3.58870953e-001 7.70544827e-001 0. 0.
      1.95121951e-002 3.70719999e-001 1.36879995e-001 3.28594089e-001
      1.40384004e-001 3.57207959e-003 1.50133334e-002 4.76996228e-003
      4.34772763e-003 6.79589331e-001 2.72405326e-001 4.80053350e-002
      4.78172442e-003 4.49188665e-005 4.82349247e-001 1.70566719e-002
      6.66666687e-001 1.66666672e-001 2.78826118e-001 3.69961470e-001
      5.88578582e-001 2.88470052e-002 1.27691729e-002</_>
    <_>
      1.66666672e-001 8.33333358e-002 8.46697152e-001 9.59016323e-001
      1.45555303e-001 1.10599082e-002 1. 0. 6.09771550e-001
      1.45098045e-001 1.32345930e-002 0. 3.43283594e-001 1.71641797e-001
      8.37727636e-002 9.32254434e-001 4.51612890e-001 7.86767840e-001
      3.42458561e-002 0. 6.27177721e-003 1.91226661e-001 2.07440004e-001
      3.39899689e-001 1.01216003e-001 4.13640821e-003 1.53173327e-001
      4.82857926e-003 3.06497765e-004 7.29717314e-001 2.36106664e-001
      3.41759995e-002 3.45530622e-002 1.73232681e-003 5.68305671e-001
      1.13269584e-002 3.18181813e-001 2.27272734e-001 1.67235032e-001
      4.55891192e-001 4.17966843e-001 1.18293919e-001 7.94524327e-003</_>
    <_>
      6.00000024e-001 2.00000003e-001 9.46403563e-001 9.83606458e-001
      1.50221050e-001 1.70506909e-001 1.17647059e-001 6.47058845e-001
      9.26038861e-001 7.84313679e-001 1.08497582e-001 7.46543780e-002
      4.56043959e-001 2.80219793e-001 2.59658843e-001 9.95195389e-001
      1.37096763e-001 5.78226984e-001 0. 0. 2.17421591e-001
      2.54437327e-001 9.41333324e-002 1.05204128e-001 1.18453331e-001
      3.59441280e-001 8.40586647e-002 1.74239185e-002 2.51214672e-002
      1.49034664e-001 5.85957348e-001 2.65008003e-001 2.97926576e-003
      3.82526268e-005 8.27595890e-001 1.46989673e-002 4.35897440e-001
      2.69230783e-001 5.03579974e-001 3.57594639e-001 1.80704534e-001
      4.30410862e-001 3.16774845e-002</_>
    <_>
      8.00000012e-001 2.00000003e-001 7.81160235e-001 8.60655665e-001
      5.69360368e-002 3.13364044e-002 1. 0. 7.59212077e-001
      1.96078420e-001 4.13819728e-003 5.52995410e-003 6.89655185e-001
      3.44827585e-002 5.25453463e-002 9.28686500e-001 4.03225794e-002
      5.55372775e-001 0. 8.69007315e-004 3.69338021e-002 3.88117343e-001
      1.44533336e-003 4.14752634e-003 4.04266687e-003 1.05061161e-003
      4.28266684e-003 3.12568098e-001 7.86507368e-001 1.53162673e-001
      1.96063995e-001 6.50773346e-001 1.28249377e-001 6.53606951e-002
      2.18769819e-001 2.12826077e-002 5.66037714e-001 1.13207549e-001
      5.00747740e-001 6.28457725e-001 1.27444519e-002 7.47088529e-003
      3.55678380e-001</_>
    <_>
      4.15730327e-001 5.39325833e-001 9.82373416e-001 7.74590075e-001
      5.93353212e-002 7.55760372e-002 2.01005023e-002 8.89447212e-001
      9.91576612e-001 3.76470566e-001 7.17187151e-002 5.89861721e-002
      2.33644858e-001 6.89719617e-001 5.11946455e-002 9.96958673e-001
      3.83064508e-001 7.06650376e-001 0. 0. 1.15679443e-001
      6.60571232e-002 3.96806337e-002 1.33241311e-001 2.54082233e-001
      2.69163996e-001 2.36283049e-001 2.63599884e-002 2.65295692e-002
      4.92530912e-002 8.00830603e-001 1.49916291e-001 2.00674846e-003
      4.46804188e-006 1.17484182e-001 5.86471939e-003 2.27571115e-001
      7.00218797e-001 6.79805458e-001 1.75579175e-001 2.92188823e-001
      3.56433302e-001 1.77976131e-001</_>
    <_>
      1. 0. 5.51511824e-001 3.64754081e-001 9.26994234e-002
      1.38248848e-002 1. 0. 4.52892423e-001 1.99999988e-001
      2.84227859e-002 6.45161280e-003 7.50000000e-001 2.50000000e-001
      5.10548055e-002 8.02329302e-001 7.82258153e-001 9.28183138e-001 0.
      0. 7.66550517e-003 5.89274645e-001 2.77343988e-001 1.17369130e-001
      7.86133297e-003 1.05061161e-003 6.33599982e-003 1.05510687e-003
      4.54070774e-004 7.62309313e-001 2.37690672e-001 0. 5.40378839e-002
      4.45704814e-003 9.96859312e-001 0. 7.50000000e-001 2.50000000e-001
      1.04040854e-001 8.71143341e-001 1.16961196e-001 1.07434122e-002
      1.16630550e-003</_>
    <_>
      3.82352948e-001 1.47058830e-001 9.38427091e-001 9.95901585e-001
      2.46478543e-001 8.66359472e-002 1. 0. 9.50684249e-001
      6.11764729e-001 6.95427060e-002 3.31797190e-002 6.15942001e-001
      1.23188406e-001 1.73047692e-001 9.91754830e-001 4.83870991e-002
      5.91740966e-001 0. 0. 7.94425085e-002 1.31040001e-002
      1.54666661e-004 3.04792495e-003 2.64533330e-003 7.30625400e-003
      9.56575990e-001 2.19813921e-002 4.22285823e-003 9.97333322e-003
      7.30410695e-001 2.59615988e-001 8.29866447e-004 5.85652970e-007
      4.13891792e-001 1.58844870e-002 6.33802831e-001 9.85915512e-002
      6.67696774e-001 3.20307650e-002 1.11759240e-002 9.41629648e-001
      1.53514519e-002</_>
    <_>
      1. 0. 2.66135573e-001 1.88524574e-001 1.32384263e-002
      2.76497705e-003 1. 0. 1.57192707e-001 5.88235259e-002
      1.31647335e-003 9.21658939e-004 5.00000000e-001 4.16666657e-001
      3.43636386e-002 9.24449146e-001 7.13709772e-001 8.86666775e-001 0.
      0. 6.96864165e-003 1. 0. 0. 0. 0. 0. 0. 0. 8.37621331e-001
      1.62351996e-001 2.66666666e-005 1.08555809e-001 5.01240231e-002
      5.98966241e-001 1.82686327e-003 5.00000000e-001 0. 7.23769441e-002
      1. 0. 0. 0.</_>
    <_>
      1. 0. 8.30528498e-001 6.10655725e-001 1.73951313e-002
      3.41013819e-002 1. 0. 8.33058596e-001 3.68627429e-001
      3.48415226e-002 2.85714287e-002 3.79746825e-001 3.79746825e-001
      1.08908013e-001 9.39703465e-001 2.45967746e-001 4.38315988e-001 0.
      0. 4.45993021e-002 2.17199996e-001 7.09920004e-002 4.67538893e-001
      8.36960003e-002 2.28613112e-002 1.40154660e-001 4.83590615e-004
      3.29201284e-004 2.65066675e-003 6.75381362e-001 3.21967989e-001
      3.56660560e-002 3.39725264e-003 3.77228633e-002 6.06612153e-002
      3.15789461e-001 3.15789461e-001 3.67819935e-001 3.73673029e-002
      7.34890282e-001 2.27176219e-001 5.73183701e-004</_>
    <_>
      1. 0. 7.94023275e-001 8.52459013e-001 8.10178276e-003
      2.94930879e-002 1. 0. 3.49012166e-001 5.60784340e-001
      1.09809311e-003 1.10599082e-002 8.12500000e-001 6.25000000e-002
      3.05631552e-002 9.61744666e-001 2.50000000e-001 7.13220477e-001 0.
      0. 3.48432064e-002 8.02189112e-001 1.97068565e-002 3.21266130e-002
      1.23404257e-003 1.11234968e-003 7.71300271e-002 6.52621314e-002
      4.07576859e-002 3.19541365e-001 5.73432624e-001 1.07026003e-001
      1.50005082e-002 7.06145074e-003 7.50360727e-001 1.61735271e-003
      8.23529422e-001 5.88235296e-002 4.19434667e-001 8.09491336e-001
      3.61479223e-002 3.43746059e-002 1.21472232e-001</_>
    <_>
      0. 9.56521749e-001 9.80249941e-001 5.94262242e-001 5.57194985e-002
      9.21658939e-004 2.22222224e-001 6.66666687e-001 8.40631485e-001
      1.41176477e-001 3.56062576e-002 1.84331799e-003 1.14942528e-002
      9.11877394e-001 5.54364249e-002 9.94542956e-001 9.59677458e-001
      9.81181383e-001 7.96638012e-001 0. 1.39372819e-003 6.27754688e-001
      1.08341336e-001 1.90135032e-001 3.59839983e-002 4.04035207e-003
      2.94293333e-002 4.93115932e-003 2.84929387e-003 9.84570682e-001
      1.21600004e-002 3.26933339e-003 2.16002930e-002 1.85686350e-003
      6.08709276e-001 1.26059279e-002 0. 8.94495428e-001 2.30686944e-002
      7.76491761e-001 1.56704113e-001 5.94945587e-002 7.40011735e-003</_>
    <_>
      6.97674394e-001 1.16279073e-001 7.07000136e-001 1. 2.94821382e-001
      1.55760378e-001 6.00000024e-001 2.00000003e-001 6.42975509e-001
      7.56862700e-001 7.23920614e-002 1.84331797e-002 5.00000000e-001
      1.39175251e-001 1.73433289e-001 8.24244797e-001 4.03225794e-003
      4.84137237e-001 0. 0. 1.31707326e-001 4.51336894e-003
      3.20855615e-005 2.83235498e-002 9.46288764e-001 2.20134854e-002
      9.03743319e-004 0. 8.65041220e-004 1.45454546e-002 6.63101614e-001
      3.22352946e-001 8.44440833e-002 1.00148981e-002 7.42401361e-001
      2.10485961e-002 5.24096370e-001 7.22891539e-002 6.55339837e-001
      6.13917364e-003 9.64723170e-001 2.85821464e-002 5.62363479e-004</_>
    <_>
      5.18518507e-001 1.11111112e-001 8.84100497e-001 8.93442631e-001
      1.71244740e-001 3.68663557e-002 0. 1. 6.56015158e-001
      9.80392098e-002 1.03979660e-002 9.21658939e-004 3.92638028e-001
      2.14723930e-001 1.46131441e-001 9.46309745e-001 8.06451589e-002
      4.52454239e-001 0. 0. 4.39024381e-002 2.39776596e-001
      4.59840409e-002 5.04258573e-002 5.23936190e-003 6.80183200e-003
      6.12819135e-001 3.44628505e-002 3.12249120e-002 1.25170216e-001
      6.66569173e-001 2.08260641e-001 4.06803675e-002 3.80367204e-003
      6.42591834e-001 1.69120580e-002 3.52112681e-001 2.95774639e-001
      4.95012611e-001 3.23393345e-001 5.58429509e-002 5.51183820e-001
      7.04416558e-002</_>
    <_>
      2.66666681e-001 3.33333343e-001 9.40151870e-001 9.22131062e-001
      2.42839068e-001 3.07834089e-001 0. 1. 9.09548879e-001
      4.82352912e-001 8.08187276e-002 8.01843330e-002 1.90789476e-001
      4.67105269e-001 2.71810323e-001 9.92602408e-001 2.05645144e-001
      6.86980605e-001 0. 0. 2.08362356e-001 1.41525328e-001
      6.23999983e-002 1.01841271e-001 3.28213334e-001 1.17416359e-001
      2.51258671e-001 8.05984437e-003 9.94415116e-003 3.16639990e-002
      7.72671998e-001 1.95664003e-001 9.00385436e-003 9.16157442e-005
      6.74597442e-001 3.45585458e-002 2.32472330e-001 4.46494460e-001
      5.53068578e-001 2.35044941e-001 4.26952779e-001 3.15673620e-001
      2.26052329e-002</_>
    <_>
      3.30769241e-001 2.76923090e-001 9.49503899e-001 9.26229477e-001
      1.65695429e-001 1.03225812e-001 2.52747267e-001 4.17582422e-001
      9.64265525e-001 5.96078455e-001 1.12110071e-001 2.76497677e-002
      2.30515912e-001 4.24807906e-001 1.48097664e-001 9.94676650e-001
      4.71774191e-001 7.87668109e-001 0. 0. 4.25087139e-002
      1.75415039e-001 8.39182511e-002 1.97003350e-001 2.07997635e-001
      6.86759204e-002 2.43305206e-001 2.65969187e-002 2.58792900e-002
      5.70824921e-001 3.99041504e-001 3.01335659e-002 5.33260498e-003
      1.86522630e-005 7.58446991e-001 1.40827838e-002 1.92452833e-001
      4.30188686e-001 2.27255821e-001 2.74168849e-001 3.76032650e-001
      3.24778348e-001 2.53300425e-002</_>
    <_>
      1.77777782e-001 3.55555564e-001 9.64081228e-001 9.79508162e-001
      2.03705430e-001 1.91705063e-001 1.25000000e-001 3.75000000e-001
      9.52700734e-001 5.64705908e-001 9.04603526e-002 6.35944679e-002
      1.92546591e-001 3.72670799e-001 1.62263274e-001 9.91449833e-001
      4.19354826e-001 7.74381578e-001 0. 0. 5.36585413e-002
      6.97221339e-001 8.71626660e-002 2.62196288e-002 1.19306669e-002
      5.82339056e-003 9.37173367e-002 5.60525544e-002 8.04499909e-002
      4.87658679e-001 4.48224008e-001 6.41173348e-002 4.21079621e-003
      2.96032158e-005 4.04127419e-001 2.91152149e-002 2.01388896e-001
      4.23611104e-001 3.69032502e-001 8.28760266e-001 1.92572027e-002
      7.63679594e-002 7.65511468e-002</_>
    <_>
      1.37254909e-001 6.66666687e-001 9.48423624e-001 7.62295067e-001
      1.10705994e-001 1.84331799e-003 0. 9.33333337e-001 8.85025442e-001
      1.13725483e-001 3.21892798e-002 9.21658939e-004 2.82685515e-002
      8.55123699e-001 7.23249316e-002 9.93566632e-001 9.79838789e-001
      9.86207604e-001 9.51110482e-001 0. 1.39372819e-003 7.33672261e-001
      1.70200676e-001 2.96238530e-002 3.23745832e-002 1.98777951e-003
      2.17993315e-002 8.29816051e-003 9.68127605e-003 9.68287647e-001
      2.52441466e-002 6.46822760e-003 1.61911212e-002 3.22172942e-004
      7.31968701e-001 1.52502283e-002 1.33333337e-002 8.31111133e-001
      2.57067215e-002 8.98648202e-001 5.82630895e-002 2.68984009e-002
      1.63908210e-002</_>
    <_>
      3.72340411e-001 2.87234038e-001 9.20102715e-001 9.67212975e-001
      3.10680389e-001 3.77880186e-002 8.21428597e-001 1.07142858e-001
      8.04783642e-001 5.45098066e-001 2.61597544e-001 2.11981572e-002
      3.59897166e-001 3.59897166e-001 2.89029509e-001 9.82449710e-001
      4.87903208e-001 8.26818407e-001 0. 0. 2.50871107e-002
      6.90666679e-003 2.68266676e-003 9.90047216e-001 1.10933336e-003
      6.00349540e-006 5.86666683e-005 2.93085250e-005 2.27035398e-005
      6.56656027e-001 3.06682676e-001 3.66613343e-002 3.65665741e-002
      2.10976461e-003 6.67466521e-001 4.25484739e-002 3.36182326e-001
      3.50427359e-001 2.30131999e-001 2.25112028e-002 9.77384746e-001
      5.60179251e-005 4.86100726e-005</_>
    <_>
      1. 0. 4.57410455e-001 5.57377040e-001 5.62403128e-002
      4.42396291e-002 1. 0. 4.43079114e-001 3.84313703e-001
      2.96290331e-002 1.47465440e-002 6.53846145e-001 3.84615399e-002
      8.34210366e-002 7.99854934e-001 6.00806475e-001 8.37034166e-001 0.
      0. 2.78745666e-002 3.57333338e-004 1.36058673e-001 2.63109088e-001
      6.00474656e-001 1.56090886e-004 7.46666701e-005 0. 2.27035398e-005
      5.77354670e-001 4.15728003e-001 6.91733323e-003 1.04329869e-001
      1.05112586e-002 3.61448318e-001 5.64926397e-003 6.84210539e-001
      5.26315793e-002 2.99255967e-001 2.17319340e-001 7.81705320e-001
      9.60543810e-004 1.49606285e-005</_>
    <_>
      1.42857149e-001 1.42857149e-001 6.13414347e-001 9.95901585e-001
      5.29760979e-002 7.37327198e-003 1. 0. 1.78962797e-001
      1.68627441e-001 2.64219334e-003 2.76497705e-003 1.53846160e-001
      3.97435904e-001 5.51534183e-002 7.45662570e-001 7.62096763e-001
      9.05628502e-001 0. 0. 9.05923359e-003 1.29341322e-003
      2.16467064e-002 4.39895056e-002 3.11377255e-004 7.41449592e-004
      9.31628764e-001 4.36008180e-004 4.07848012e-004 7.45077848e-001
      1.90425143e-001 6.44970089e-002 1.78984225e-001 6.95503503e-002
      3.82208377e-001 8.29801150e-003 1.89655170e-001 2.93103456e-001
      2.73889542e-001 9.57588702e-002 7.68832490e-002 8.25867295e-001
      1.50905573e-003</_>
    <_>
      1. 0. 5.44128180e-001 5.32786846e-001 1.62326649e-001
      7.28110671e-002 1. 0. 4.71264452e-001 4.27450985e-001
      4.71406132e-002 2.02764980e-002 7.04225361e-001 4.22535203e-002
      1.65155426e-001 8.62279058e-001 5.84677458e-001 7.96164513e-001 0.
      0. 7.59581849e-002 1.79354668e-001 3.19999992e-003 1.66915264e-002
      1.12314664e-001 5.41215122e-001 1.95930660e-001 7.70814158e-003
      1.30091282e-002 4.38346677e-002 9.32373345e-001 2.37920005e-002
      1.06516480e-001 1.14843054e-002 4.85511482e-001 9.92028601e-003
      7.54098356e-001 6.55737668e-002 3.83435130e-001 1.61789298e-001
      1.46640122e-001 6.71118617e-001 2.07052585e-002</_>
    <_>
      1. 0. 6.27905428e-001 6.88524544e-001 5.60943596e-002
      4.33179699e-002 1. 0. 7.05942214e-001 6.47058785e-001
      1.29444242e-001 8.84792656e-002 1. 0. 1.09579161e-001
      6.93930745e-001 3.58870953e-001 6.75961733e-001 0. 0.
      7.87456557e-002 4.87939596e-001 5.03026843e-001 5.24607114e-003
      2.01342282e-005 7.55473411e-006 1.52348995e-003 1.29085360e-003
      2.77127908e-003 0. 4.61114109e-001 5.38885891e-001 1.32309824e-001
      1.70008726e-002 2.55815148e-001 1.63726453e-002 1. 0.
      7.72818148e-001 9.79374647e-001 5.99054107e-003 4.01996868e-003
      1.07462909e-002</_>
    <_>
      3.33333343e-001 0. 9.33199286e-001 6.88524544e-001 1.75176620e-001
      6.45161197e-002 1. 0. 9.47547555e-001 5.17647088e-001
      2.08248064e-001 6.82027638e-002 7.22222209e-001 1.66666672e-001
      1.84996322e-001 9.80941176e-001 3.75000000e-001 4.48835015e-001 0.
      6.54605627e-002 2.92682964e-002 4.35365319e-001 6.22560009e-002
      1.24222964e-001 1.54821336e-001 4.80519794e-002 1.48186669e-001
      2.79017147e-002 2.60863677e-002 0. 5.11589348e-001 4.88410681e-001
      1.94027126e-002 7.85066106e-004 6.13409817e-001 9.37453378e-003
      5.62500000e-001 2.03125000e-001 6.47595167e-001 4.06713694e-001
      3.06243479e-001 2.29223266e-001 5.85357137e-002</_>
    <_>
      3.42105269e-001 3.15789461e-001 9.63257194e-001 6.39344275e-001
      1.23534642e-001 5.52995354e-002 0. 1. 9.47976053e-001
      3.68627429e-001 5.05791157e-002 4.05529924e-002 3.57142866e-001
      4.28571433e-001 1.62299916e-001 9.96340632e-001 4.39516097e-001
      7.65228450e-001 0. 0. 7.94425085e-002 1.10126071e-001
      3.88980433e-002 1.79872662e-001 1.63820058e-001 1.18305413e-002
      4.77196574e-001 1.97402444e-002 1.14104887e-002 1.17696123e-002
      7.84411967e-001 2.03818426e-001 2.74354476e-003 3.91768081e-005
      6.35023534e-001 6.82764174e-003 3.25842708e-001 4.21348304e-001
      5.98641813e-001 1.54231191e-001 2.88453519e-001 4.99037385e-001
      5.89997135e-002</_>
    <_>
      1. 0. 9.44614232e-001 3.77049178e-001 6.53578565e-002
      2.85714287e-002 1. 0. 9.42923188e-001 1.37254909e-001
      4.05175276e-002 9.21658985e-003 1. 0. 4.98076454e-002
      9.86185253e-001 5.00000000e-001 7.89120436e-001 0. 0.
      5.01742177e-002 1.91594195e-002 1.31936237e-001 1.83425531e-001
      2.56579697e-001 3.43230247e-001 1.03855073e-001 2.78749561e-004
      1.72744316e-004 8.89855102e-002 8.79223168e-001 3.17913033e-002
      7.76321162e-003 9.38466328e-005 9.96627510e-001 0. 1. 0.
      3.69610220e-001 1.81793824e-001 3.75664115e-001 4.42180872e-001
      3.65661079e-004</_>
    <_>
      1.66666672e-001 4.72222209e-001 9.76046026e-001 9.83606458e-001
      2.38285542e-001 9.49308723e-002 1. 0. 8.55508327e-001
      1.45098045e-001 3.46027575e-002 5.52995410e-003 2.77419358e-001
      3.87096763e-001 1.18547112e-001 9.85034525e-001 6.57258093e-001
      9.14455950e-001 0. 0. 6.27177721e-003 1.78405330e-001
      2.16378674e-001 3.96102160e-001 1.63834661e-001 2.41940864e-003
      3.79146673e-002 4.65272833e-003 4.60881833e-003 8.69216025e-001
      1.03519998e-001 2.72640008e-002 3.02641485e-002 9.36735130e-004
      3.55038464e-001 3.00973579e-002 2.23140493e-001 4.54545468e-001
      2.09243640e-001 5.11584163e-001 3.72980297e-001 9.64194387e-002
      1.92516278e-002</_>
    <_>
      1. 0. 4.60644156e-001 6.92622960e-001 8.54067877e-003
      7.00460821e-002 1. 0. 6.02019429e-001 4.39215660e-001
      4.88492334e-003 3.77880186e-002 1. 0. 6.86979527e-003
      7.46396720e-001 5.28225899e-001 8.11075091e-001 0. 0.
      1.28223017e-001 2.33263999e-001 7.27946684e-002 8.80482048e-002
      5.89061320e-001 1.61854234e-002 5.38666674e-004 4.98244946e-004
      3.46228946e-003 0. 8.74805331e-001 1.25194669e-001 2.59525180e-002
      1.89002883e-003 9.96859312e-001 0. 1. 0. 4.78955060e-001
      3.18417579e-001 6.39546454e-001 3.94318029e-002 2.63639307e-003</_>
    <_>
      1.23772100e-001 3.96856576e-001 9.79329467e-001 1. 3.98081213e-001
      8.94009247e-002 3.84615391e-001 4.15384620e-001 9.58752453e-001
      7.76470542e-001 1.88869655e-001 1.22580647e-001 1.74529970e-001
      4.24973398e-001 4.12597775e-001 9.96677756e-001 8.06451589e-003
      4.23983574e-001 0. 0. 1.37282237e-001 9.07783508e-002
      3.86695862e-002 8.78508911e-002 6.42946899e-001 8.78859982e-002
      5.94266243e-002 6.37627323e-004 3.96498246e-003 1.94110870e-001
      5.87724030e-001 2.18165085e-001 1.50057999e-003 5.15851980e-006
      8.02521229e-001 4.82769273e-002 1.76470593e-001 4.20651704e-001
      5.02900720e-001 1.63730934e-001 6.40464127e-001 1.91874236e-001
      3.97938211e-003</_>
    <_>
      1. 0. 8.68633091e-001 5.90163946e-001 3.64077240e-002
      1.45622134e-001 1. 0. 8.88063788e-001 3.56862724e-001
      2.06258018e-002 4.88479212e-002 1. 0. 2.92196833e-002
      9.73370016e-001 3.18548381e-001 7.31720150e-001 0. 0.
      1.26132399e-001 4.44601238e-001 4.91178371e-002 4.17827629e-002
      1.56420901e-001 1.50053486e-001 1.60170898e-001 1.03339646e-002
      1.51475864e-002 1.67642415e-001 6.71276033e-001 1.61081538e-001
      6.07529329e-003 5.23202725e-005 9.99702930e-001 0. 1. 0.
      4.78564799e-001 5.00541747e-001 1.51875854e-001 3.27077895e-001
      2.07584463e-002</_>
    <_>
      1. 0. 1.76561415e-001 7.09016383e-001 8.22410956e-002
      9.21658939e-004 1. 0. 4.48097847e-003 3.92156886e-003
      4.05809085e-004 0. 1. 0. 6.80266321e-002 1.88137338e-001
      9.47580636e-001 9.95053053e-001 9.54891384e-001 0. 1.39372819e-003
      8.13525319e-001 6.12426661e-002 4.97756600e-002 7.45119974e-002 0.
      7.57333357e-004 3.00412357e-004 2.27035398e-005 9.46053326e-001
      5.02133332e-002 3.73333343e-003 4.64147896e-001 4.56002206e-001
      7.61247007e-003 1.31452590e-001 1. 0. 5.98011792e-001
      1.05042020e-002 9.89495814e-001 0. 0.</_>
    <_>
      8.18181813e-001 0. 8.84748876e-001 9.38524544e-001 1.07425235e-001
      5.71428537e-002 1. 0. 8.93703401e-001 9.33333278e-001
      5.18858768e-002 7.09677413e-002 7.37500012e-001 5.62499985e-002
      1.75898194e-001 9.80302870e-001 1.16935484e-001 4.23788190e-001 0.
      0. 8.85017440e-002 3.11664581e-001 2.52605438e-001 1.20303407e-001
      1.37112932e-002 6.05172571e-003 2.65380859e-001 2.09823065e-002
      3.36035676e-002 2.19130203e-001 2.68964142e-001 5.11905670e-001
      4.59223893e-003 1.50586066e-005 7.85328627e-001 1.10918684e-002
      7.17444718e-001 6.63390681e-002 5.93898356e-001 6.64409399e-001
      7.12976828e-002 2.08061710e-001 5.69276996e-002</_>
    <_>
      2.91666657e-001 4.16666679e-002 6.86816335e-001 9.63114619e-001
      6.94206879e-002 2.67281085e-002 7.77777791e-001 5.55555560e-002
      7.44023860e-001 8.82352889e-001 8.08237419e-002 8.57142881e-002
      5.17948747e-001 7.69230798e-002 4.87213172e-002 8.53094697e-001
      1.53225809e-001 8.17465007e-001 0. 0. 3.06620225e-002
      6.80706510e-003 6.20832205e-001 2.78210372e-001 4.37737778e-002
      2.99365427e-002 1.88654885e-002 3.70058697e-003 5.23438398e-003
      3.22732687e-001 6.07527196e-001 6.97401464e-002 2.89491583e-002
      3.69929447e-004 4.23148602e-001 7.02183554e-003 5.44502616e-001
      6.28272220e-002 3.61864805e-001 6.91882253e-001 1.84041798e-001
      1.09219171e-001 1.50408112e-002</_>
    <_>
      3.33333343e-001 3.02083343e-001 9.61969256e-001 9.26229477e-001
      1.07249290e-001 3.50230373e-002 1. 0. 9.62583363e-001
      1.60784304e-001 2.47418154e-002 1.47465440e-002 2.92452842e-001
      2.35849053e-001 4.61634807e-002 9.92841005e-001 8.42742026e-001
      9.24789011e-001 0. 0. 1.53310103e-002 1.92738846e-001
      7.66131058e-002 3.50628495e-001 3.03487152e-001 2.98005976e-002
      4.76188660e-002 1.21061841e-003 3.95145034e-003 9.32364166e-001
      6.09130859e-002 6.72276830e-003 3.19144432e-003 4.80545023e-005
      1.21639751e-001 1.36208246e-002 2.45283023e-001 2.83018857e-001
      2.07250684e-001 4.31474149e-001 5.58235466e-001 7.57908821e-003
      2.74488516e-003</_>
    <_>
      1.61290318e-001 5.32258093e-001 9.76024628e-001 8.48360598e-001
      1.61583886e-001 1.01382490e-002 1.25000000e-001 2.50000000e-001
      9.63296771e-001 5.49019635e-001 7.68647715e-002 1.84331799e-003
      9.27835032e-002 6.64948463e-001 1.19352981e-001 9.94971752e-001
      8.99193525e-001 9.76847768e-001 7.20698178e-001 0. 1.39372819e-003
      1. 0. 0. 0. 0. 0. 0. 0. 9.58868265e-001 3.31676640e-002
      7.96407182e-003 3.52210784e-003 1.89639104e-005 5.40428221e-001
      2.23143436e-002 5.78034669e-002 6.24277472e-001 7.37727433e-002 1.
      0. 0. 0.</_>
    <_>
      6.36363626e-001 1.47727266e-001 9.67843056e-001 8.23770463e-001
      1.63447440e-001 1.66820273e-001 1. 0. 9.52751160e-001
      4.90196049e-001 2.33521312e-002 2.94930879e-002 6.23229444e-001
      1.21813029e-001 9.71447080e-002 9.93925214e-001 2.98387110e-001
      6.30281925e-001 0. 0. 5.15679494e-002 2.08567306e-001
      1.23073578e-001 2.11666804e-002 3.00598145e-003 2.10407699e-004
      5.58545411e-001 8.60202909e-002 4.86542620e-002 1.45661667e-001
      4.90225464e-001 3.64112854e-001 2.66415556e-003 1.46283446e-005
      3.94740194e-001 1.45921959e-002 5.71428597e-001 1.56462580e-001
      4.45803434e-001 5.15433729e-001 2.19601896e-002 2.81646609e-001
      1.83200762e-001</_>
    <_>
      1. 0. 4.14779127e-001 9.09835994e-001 8.07116181e-002
      1.10599078e-001 1. 0. 4.85200286e-001 5.96078455e-001
      3.49051692e-002 6.54377863e-002 9.75609779e-001 0. 1.62284434e-001
      7.32227147e-001 3.87096792e-001 7.04836845e-001 0. 0.
      9.82578471e-002 4.82293330e-002 1.30032003e-001 6.10076070e-001
      1.51349336e-001 4.07397225e-002 2.44053341e-002 2.71103840e-004
      7.94623847e-005 2.93567985e-001 6.79909348e-001 2.65226662e-002
      2.29489859e-002 4.24993364e-003 2.31958151e-001 1.31251728e-002 1.
      0. 3.77087474e-001 3.61080408e-001 5.57681680e-001 8.07313249e-002
      5.12860075e-004</_>
    <_>
      1. 0. 8.75962257e-001 6.18852437e-001 3.57961729e-002
      1.01382490e-002 1. 0. 9.12999332e-001 4.07843113e-001
      2.80933548e-002 6.45161280e-003 5.00000000e-001 0. 4.71651591e-002
      9.79517579e-001 3.02419364e-001 6.85144842e-001 0. 0.
      1.04529615e-002 1. 0. 0. 0. 0. 0. 0. 0. 3.26090664e-001
      5.97429335e-001 7.64800012e-002 5.62000414e-003 7.27482329e-005
      1.80084922e-003 1.71428576e-001 3.33333343e-001 0. 7.06075072e-001
      1. 0. 0. 0.</_>
    <_>
      5.00000000e-001 0. 3.98826152e-001 6.35245860e-001 5.79110831e-002
      2.48847920e-002 1. 0. 3.57582062e-001 1.84313715e-001
      1.29064051e-002 1.29032256e-002 6.06060624e-001 3.03030312e-002
      5.06103411e-002 7.41752505e-001 7.09677398e-001 8.87728751e-001 0.
      0. 3.06620225e-002 6.47999998e-003 3.22293341e-002 2.23037660e-001
      6.46917343e-001 8.84855092e-002 1.19679999e-002 7.84003059e-004
      8.05975636e-004 6.41285360e-001 3.46751988e-001 1.19626671e-002
      3.39538231e-002 5.66893024e-003 9.43701491e-002 2.30899826e-002
      6.92307711e-001 0. 3.42069238e-001 1.13355972e-001 8.61799657e-001
      2.32597627e-002 1.60423329e-003</_>
    <_>
      1. 0. 7.42118418e-001 2.74590164e-001 6.77616671e-002
      1.19815664e-002 1. 0. 8.16561103e-001 2.15686277e-001
      5.16818501e-002 1.29032256e-002 4.00000006e-001 4.00000006e-001
      6.85313493e-002 9.60996330e-001 8.46774220e-001 9.44602251e-001
      2.63881013e-002 0. 8.36236961e-003 3.47273260e-001 7.07567558e-002
      6.33271262e-002 1.69969965e-002 1.08171080e-003 3.21153164e-001
      1.78590566e-001 1.05553560e-001 9.25993979e-001 7.14414418e-002
      2.56456458e-003 2.35846229e-002 6.15566038e-004 1.57055572e-001
      1.12920171e-002 3.60000014e-001 3.19999993e-001 1.53218821e-001
      7.23154128e-001 9.94178951e-002 2.45481003e-002 1.54773459e-001</_>
    <_>
      1. 0. 5.62991679e-001 9.91803229e-001 1.86726879e-002
      5.34562171e-002 1. 0. 7.06650257e-001 6.54901922e-001
      1.93204861e-002 5.06912395e-002 7.50000000e-001 0. 2.09061932e-002
      8.75270784e-001 4.87903208e-001 7.92828858e-001 0. 0.
      4.39024381e-002 9.33237314e-001 5.22506684e-002 8.48187972e-003
      2.55999999e-004 1.14066403e-004 1.48800004e-003 2.76965555e-003
      4.63152211e-003 2.51669347e-001 6.80719972e-001 6.76106662e-002
      7.02915266e-002 5.58813894e-003 3.79859377e-003 1.05642259e-001 1.
      0. 6.33099139e-001 9.80392158e-001 1.54061625e-002 2.80112051e-003
      1.41790719e-003</_>
    <_>
      1.04166664e-001 2.91666657e-001 9.40636873e-001 9.42622900e-001
      1.30347013e-001 9.21658985e-003 1. 0. 3.72503698e-001
      4.31372523e-002 6.58671325e-003 0. 9.09090936e-002 3.50649357e-001
      3.93361226e-002 9.66246247e-001 9.47580636e-001 9.82655346e-001
      9.33977962e-001 0. 6.96864096e-004 1.38832003e-001 1.09333335e-003
      2.52161101e-002 2.72320006e-002 6.03351230e-003 7.94623971e-001
      8.77057575e-003 2.72442470e-003 9.50735986e-001 4.34453338e-002
      5.81866689e-003 7.04773813e-002 9.69106704e-003 2.52961189e-001
      1.83337349e-002 7.14285746e-002 4.28571433e-001 7.78492764e-002
      1.08826011e-001 3.02998312e-002 8.44700158e-001 1.63743142e-002</_>
    <_>
      6.00000024e-001 2.00000003e-001 7.18467951e-001 8.03278685e-001
      8.26716498e-002 4.33179699e-002 1. 0. 6.34305716e-001
      2.31372535e-001 5.93095012e-002 1.56682022e-002 7.27272749e-001
      9.09090936e-002 7.05463663e-002 8.44687045e-001 1.65322572e-001
      6.10038877e-001 0. 0. 3.13588902e-002 2.17642635e-001
      1.55485899e-003 1.76952966e-002 1.13605019e-002 4.41228673e-002
      6.98344827e-001 1.40570663e-002 8.48713890e-003 2.43749216e-001
      6.05868340e-001 1.50382444e-001 7.90182203e-002 3.09691229e-003
      1.82968855e-001 6.38275966e-003 8.33333313e-001 0. 3.74988705e-001
      5.68957813e-002 1.67461652e-002 9.17882025e-001 8.58101249e-003</_>
    <_>
      1. 0. 7.31266022e-001 7.09016383e-001 6.67021871e-002
      3.13364044e-002 1. 0. 6.61047280e-001 1.52941182e-001
      1.22502010e-004 4.60829493e-003 4.58823532e-001 3.35294127e-001
      9.60307643e-002 9.05622959e-001 2.54032254e-001 7.48385489e-001 0.
      0. 2.85714287e-002 7.73601979e-002 2.85138539e-003 4.17533889e-002
      5.96085668e-001 1.01683252e-001 5.62972277e-002 1.08398162e-001
      1.20158620e-001 4.57531475e-002 8.20957199e-002 8.72151136e-001
      5.32815121e-002 7.86978751e-003 7.64921486e-001 8.09052121e-003
      5.47169805e-001 4.52830195e-001 7.26406336e-001 3.35738692e-003
      6.21123195e-001 3.75486463e-001 3.33887074e-005</_>
    <_>
      9.09090936e-001 0. 4.87753540e-001 7.90983617e-001 6.69466481e-002
      2.39631329e-002 1. 0. 4.21704829e-001 2.90196091e-001
      3.11498102e-002 1.65898595e-002 9.25000012e-001 0. 5.64595163e-002
      7.65600145e-001 6.97580695e-001 8.93067122e-001 0. 0.
      2.43902449e-002 5.93850672e-001 6.06826656e-002 6.25278354e-002
      1.09594665e-001 9.20395777e-002 8.21226686e-002 8.22104141e-003
      7.50351930e-003 4.94714677e-001 4.91610676e-001 1.36746671e-002
      7.87921622e-002 1.37917288e-002 1.52283370e-001 1.34980762e-002
      9.47368443e-001 0. 4.18419242e-001 9.74326611e-001 2.34638043e-002
      1.47306395e-003 7.45654455e-004</_>
    <_>
      1. 0. 8.18779230e-001 7.82786906e-001 9.50982273e-002
      5.89861721e-002 1. 0. 8.26650798e-001 6.19607866e-001
      5.41138873e-002 5.80645166e-002 1. 0. 5.97071983e-002
      9.54991698e-001 2.94354856e-001 7.06015944e-001 0. 0.
      7.52613321e-002 1.41973337e-002 1.73322663e-001 1.15602300e-001
      1.45135999e-001 1.34280175e-001 4.31663990e-001 9.37872799e-004
      4.31367254e-004 2.20794663e-001 6.86016023e-001 9.31893364e-002
      1.19806239e-002 4.28692874e-004 3.11847907e-002 1.80497468e-002 1.
      0. 7.12315559e-001 8.20578694e-001 9.29635316e-002 8.64577964e-002
      0.</_>
    <_>
      1. 0. 3.46928418e-001 5.61475337e-001 3.09504010e-002
      3.96313369e-002 1. 0. 8.29433441e-001 3.88235271e-001
      8.87786224e-002 1.10599082e-002 1. 0. 7.31527060e-002
      9.04358625e-001 5.24193525e-001 7.82495201e-001 0. 0.
      4.32055742e-002 9.82648671e-001 1.08288284e-002 3.60667073e-005
      1.20120121e-005 0. 1.26726727e-003 1.77402375e-003 8.33485834e-003
      2.00042039e-001 7.99579561e-001 3.78378376e-004 1.40028760e-001
      3.85166071e-002 1.03069274e-002 3.99600379e-002 1. 0.
      5.03831685e-001 9.17249441e-001 0. 0. 8.37755054e-002</_>
    <_>
      1.63461536e-001 3.36538464e-001 8.91066551e-001 9.63114619e-001
      1.10397726e-001 1.64055303e-001 1. 0. 6.90311909e-001
      3.37254882e-001 1.62265804e-002 4.05529924e-002 3.49999994e-001
      2.70833343e-001 7.13694915e-002 9.50675189e-001 1.97580650e-001
      7.46480465e-001 0. 0. 1.40766546e-001 2.09548235e-001
      2.07758158e-001 4.20092307e-002 7.97418505e-002 5.30480370e-002
      4.01591361e-001 8.68681259e-003 1.26377111e-002 2.17489809e-001
      6.96273804e-001 8.62364098e-002 4.16942425e-002 2.90285447e-003
      6.17104053e-001 7.17750890e-003 3.25471699e-001 2.78301895e-001
      4.00136232e-001 5.05509913e-001 8.11411217e-002 3.88530880e-001
      2.51254719e-002</_>
    <_>
      3.33333343e-001 6.66666687e-001 7.77818799e-001 7.70491779e-001
      4.66477238e-002 5.99078350e-002 1.66666672e-001 8.33333313e-001
      9.17749107e-001 2.82352954e-001 4.59849760e-002 1.84331797e-002
      8.48484874e-001 1.51515156e-001 4.97983843e-002 9.27330554e-001
      3.14516097e-001 6.85264587e-001 0. 0. 8.91986042e-002
      1.86959997e-001 2.89274663e-001 1.50111660e-001 2.87733339e-002
      6.61585201e-003 3.34991992e-001 3.86139774e-003 2.82659032e-003
      1.43386662e-001 7.62362659e-001 9.42506641e-002 6.65128678e-002
      2.76682409e-003 2.22546294e-001 1.08001735e-002 9.04761910e-001
      9.52380970e-002 5.68750739e-001 7.38323808e-001 1.13305815e-001
      1.41362265e-001 7.09491270e-003</_>
    <_>
      9.39560413e-001 2.19780225e-002 9.81483221e-001 9.91803229e-001
      3.56671423e-001 2.72811055e-001 6.69354856e-001 1.20967738e-001
      9.82269645e-001 8.15686226e-001 2.28744507e-001 1.47465438e-001
      8.03304493e-001 7.86782056e-002 3.35438013e-001 9.97266114e-001
      8.06451589e-002 4.93769258e-001 0. 0. 2.77351916e-001
      6.40819550e-001 9.82284546e-002 7.19109699e-002 1.09802246e-001
      5.72681008e-003 6.30187988e-002 6.60861423e-003 1.35864941e-002
      1.29391983e-001 4.27759796e-001 4.42848206e-001 1.72853679e-003
      2.97792917e-006 7.40757704e-001 4.22905460e-002 7.78288841e-001
      9.75160971e-002 6.12778008e-001 8.12259555e-001 1.01045266e-001
      7.04557598e-002 1.64405871e-002</_>
    <_>
      1. 0. 8.93047214e-001 9.54918027e-001 7.06582516e-002
      7.09677413e-002 1. 0. 8.82618129e-001 5.56862772e-001
      2.19391529e-002 4.51612882e-002 9.04761910e-001 9.52380970e-002
      7.42184147e-002 9.83534515e-001 5.64516112e-002 6.66004419e-001 0.
      0. 8.29268321e-002 5.06399982e-002 1.99040007e-002 1.94843024e-001
      4.18901324e-001 1.50963888e-001 1.81088001e-001 6.66768930e-004
      4.08663705e-004 1.33861333e-001 7.43061304e-001 1.23077333e-001
      7.00883986e-003 7.95999586e-005 2.12856710e-001 8.96889996e-003
      8.82352948e-001 5.88235296e-002 7.11029291e-001 1.98760420e-001
      1.60318181e-001 6.40193701e-001 7.36705435e-004</_>
    <_>
      1. 0. 5.92418492e-001 7.33606517e-001 1.69437900e-001
      5.62211983e-002 1. 0. 6.20705128e-001 5.60784340e-001
      9.97650772e-002 2.48847920e-002 1. 0. 1.48752868e-001
      7.46532321e-001 4.31451589e-001 7.66775966e-001 0. 0.
      5.64459935e-002 1.84533338e-003 0. 0. 0. 0. 9.95274663e-001
      2.33735470e-003 2.50874134e-003 3.73333351e-005 7.77530670e-001
      2.22432002e-001 4.30942625e-002 1.40437076e-003 1.93135649e-001
      4.10556272e-002 1. 0. 8.10496509e-001 0. 0. 1. 0.</_>
    <_>
      1. 0. 7.82940567e-001 8.85245860e-001 5.12337647e-002
      3.96313369e-002 1. 0. 8.28785181e-001 7.37254858e-001
      6.78658187e-002 3.87096740e-002 1. 0. 5.29555380e-002
      9.14923787e-001 2.09677413e-001 6.19475067e-001 0. 0.
      3.13588902e-002 5.48104930e-004 1.05539360e-003 7.09378779e-001
      2.04256568e-002 2.15942040e-003 2.67259479e-001 2.40321351e-005 0.
      3.27008754e-001 5.03451884e-001 1.69539362e-001 2.81591378e-002
      6.76610623e-004 9.96610641e-001 0. 1. 0. 3.45244527e-001
      2.03330629e-003 7.24589527e-001 2.73353726e-001 2.37289951e-005</_>
    <_>
      5.33333361e-001 3.33333343e-001 8.99999678e-001 7.86885202e-001
      2.37436756e-001 2.34101370e-001 0. 1. 8.94716859e-001
      5.84313750e-001 1.49884537e-001 2.06451610e-001 6.89655185e-001
      2.24137932e-001 1.44043624e-001 9.38178062e-001 2.70161271e-001
      4.44553047e-001 0. 3.39475907e-002 4.80836257e-002 3.87728006e-001
      2.57226676e-002 2.60114521e-002 1.53173329e-002 1.95353739e-002
      4.48677331e-001 6.75781295e-002 6.38991073e-002 3.43466667e-003
      5.96885324e-001 3.99679989e-001 7.02561662e-002 2.67895567e-003
      4.16733503e-001 1.02830781e-002 7.34375000e-001 2.03125000e-001
      6.93648160e-001 4.07972306e-001 4.29761596e-002 4.12176371e-001
      1.38570473e-001</_>
    <_>
      1. 0. 9.60847616e-001 9.09835994e-001 2.07945332e-001
      1.38248848e-002 1. 0. 9.51446116e-001 6.98039174e-001
      1.16125368e-001 1.10599082e-002 9.60784316e-001 0. 2.15928167e-001
      9.93610680e-001 2.90322572e-001 6.46278560e-001 0. 0.
      1.04529615e-002 1. 0. 0. 0. 0. 0. 0. 0. 2.78384000e-001
      6.05279982e-001 1.16336003e-001 2.12628138e-003 1.53076053e-005
      6.73358202e-001 5.28307259e-003 9.55555558e-001 0. 3.59583080e-001
      1. 0. 0. 0.</_>
    <_>
      2.25868732e-001 4.01544392e-001 9.94758010e-001 9.46721256e-001
      4.82665449e-001 3.45622122e-001 2.00000003e-001 4.63888884e-001
      9.97289240e-001 8.07843089e-001 5.24193645e-001 4.81105953e-001
      2.32068211e-001 4.09296095e-001 6.89070225e-001 9.99359846e-001
      2.21774176e-001 6.45808160e-001 0. 0. 4.17421639e-001
      7.16654435e-002 2.69254055e-002 3.83970626e-002 5.49702942e-001
      2.70723104e-001 5.69864921e-002 1.03208283e-002 1.77517552e-002
      7.82597885e-002 6.01107299e-001 3.20632935e-001 4.01239842e-004
      1.39748366e-007 8.46033871e-001 1.40754879e-001 2.13225365e-001
      4.26065177e-001 5.65874815e-001 1.12756364e-001 4.04636204e-001
      4.58365142e-001 2.45425459e-002</_>
    <_>
      1. 0. 7.90292025e-001 2.49999970e-001 9.16156173e-002
      1.19815664e-002 1. 0. 7.17703283e-001 1.64705873e-001
      4.16692384e-002 2.76497705e-003 2.85714298e-001 5.71428597e-001
      3.70134823e-002 8.85781825e-001 9.55645144e-001 9.94796693e-001
      9.24011528e-001 0. 2.09059240e-003 9.08042014e-001 6.68828860e-002
      1.11626452e-002 5.06306300e-003 1.82538701e-004 7.24324305e-003
      1.24594232e-003 1.16330059e-003 9.58624601e-001 4.13753763e-002 0.
      1.05816409e-001 8.64899065e-003 2.10209424e-003 2.09415585e-001
      3.33333343e-001 3.33333343e-001 1.87731475e-001 8.52272749e-001
      6.81818202e-002 6.25000000e-002 1.72565766e-002</_>
    <_>
      1. 0. 4.81717288e-001 3.97540957e-001 9.49337557e-002
      1.75115205e-002 1. 0. 4.18164849e-001 2.78431386e-001
      3.17760669e-002 4.60829493e-003 1. 0. 7.65757635e-002
      7.77456343e-001 7.01612890e-001 8.83471191e-001 0. 0.
      1.18466895e-002 5.33573329e-001 4.16725338e-001 4.89536300e-002
      7.09333341e-004 1.80104871e-005 4.80000017e-005 2.19813919e-005 0.
      6.87797308e-001 3.10309321e-001 1.89333328e-003 6.27398565e-002
      2.68935435e-003 3.37678343e-001 6.07402716e-003 1. 0.
      2.08963439e-001 9.91664052e-001 8.27269815e-003 3.16355581e-005
      3.20273866e-005</_>
    <_>
      1. 0. 3.73333603e-001 6.27049148e-001 1.95080750e-002
      1.19815664e-002 1. 0. 3.98896664e-001 3.76470566e-001
      9.68570355e-003 8.29492975e-003 6.53061211e-001 1.22448981e-001
      5.16720526e-002 8.51202667e-001 5.76612949e-001 7.71562040e-001 0.
      0. 2.71777026e-002 7.09333341e-004 2.34666673e-004 2.25898735e-002
      1.59680005e-002 4.76677530e-003 9.55962658e-001 1.90505394e-004
      3.85960157e-004 1.32373329e-002 9.71669316e-001 1.50933331e-002
      3.34263593e-002 2.03916850e-003 2.22193763e-001 1.29807694e-002
      6.85714304e-001 1.71428576e-001 3.32734317e-001 4.47115395e-003
      1.06394231e-001 8.87716353e-001 1.43583550e-003</_>
    <_>
      1. 0. 8.85684669e-001 6.84426188e-001 1.73378587e-002
      3.41013819e-002 1. 0. 8.90219152e-001 2.35294104e-001
      2.96908454e-003 1.10599082e-002 1. 0. 1.67941041e-002
      9.79444265e-001 3.02419364e-001 6.64083064e-001 0. 0.
      3.06620225e-002 7.48840999e-003 1.13544166e-002 2.22255029e-002
      6.86807856e-002 3.48751575e-001 5.79524398e-001 7.74758868e-004
      7.67472375e-004 1.49359867e-001 5.81157684e-001 2.69482434e-001
      3.67344660e-003 4.58507384e-005 1. 0. 1. 0. 5.31203270e-001
      2.01973636e-002 7.67595470e-002 9.01789904e-001 1.26872130e-003</_>
    <_>
      1. 0. 3.76190066e-001 5.81967175e-001 2.10695323e-002
      1.75115205e-002 1. 0. 7.93133080e-002 1.96078420e-002
      9.38297773e-004 0. 0. 1.42857149e-001 2.59893872e-002
      5.80361247e-001 5.96774220e-001 8.75781059e-001 0. 0.
      9.05923359e-003 2.86293328e-002 2.69770652e-001 2.08144993e-001
      4.93039995e-001 1.92111853e-004 2.82666675e-004 1.75851135e-004
      2.27035398e-005 7.40970671e-001 2.57653326e-001 1.37600000e-003
      1.11792788e-001 4.44422774e-002 1.61923608e-003 1.87675074e-001 0.
      0. 8.48855972e-001 3.43137264e-001 6.56862736e-001 0. 0.</_>
    <_>
      9.17431153e-003 8.71559620e-001 9.92430329e-001 8.07376981e-001
      1.50905028e-001 1.01382490e-002 1. 0. 1.82689473e-001
      5.88235259e-002 1.69464876e-003 9.21658939e-004 0. 9.19708014e-001
      2.77505778e-002 9.91348088e-001 9.83870983e-001 9.73875046e-001 0.
      0. 2.09059240e-003 7.56623983e-001 1.61727995e-001 7.54935294e-002
      1.71733333e-003 6.00349540e-006 3.01866676e-003 1.48740748e-003
      8.40030960e-004 9.75978673e-001 1.98613331e-002 4.16000001e-003
      1.88919604e-001 7.50028417e-002 7.07497448e-002 1.15424432e-001
      9.09090880e-003 9.54545438e-001 2.07614586e-001 9.45274770e-001
      2.64190827e-002 1.10205309e-002 1.74997244e-002</_>
    <_>
      7.33333349e-001 1.33333340e-001 7.98868537e-001 8.44262302e-001
      1.68681622e-001 9.86175090e-002 1. 0. 7.86834300e-001
      6.70588195e-001 5.82003593e-002 3.96313369e-002 8.54166687e-001
      4.16666679e-002 1.29283160e-001 9.09526706e-001 2.01612890e-001
      4.44804132e-001 0. 2.64928192e-001 8.50174278e-002 9.10870880e-002
      4.42084074e-001 4.42165792e-001 1.38198202e-002 9.26214852e-004
      8.12012050e-003 2.02981336e-003 1.70020864e-003 3.35735735e-003
      3.06288302e-001 6.90354347e-001 3.97656336e-002 6.61654444e-003
      8.39951575e-001 6.13213889e-003 8.69565189e-001 4.34782617e-002
      7.96738446e-001 7.78715134e-001 2.06682950e-001 9.27391369e-003
      5.39401593e-003</_>
    <_>
      1. 0. 1.61847934e-001 9.95901585e-001 1.48230826e-003
      2.94930879e-002 1. 0. 3.19762588e-001 7.45097995e-001
      1.94800796e-003 3.87096740e-002 1. 0. 4.44360683e-003
      3.76613617e-001 1.57258049e-001 5.48025548e-001 0. 0.
      5.78397214e-002 4.28042680e-001 1.21599995e-003 8.32708087e-004
      1.44000002e-003 6.05494499e-001 2.49493327e-002 3.49504128e-003
      6.53861929e-003 0. 6.56170666e-001 3.43829334e-001 1.99428320e-001
      3.36810090e-002 9.96859312e-001 0. 1. 0. 6.11572266e-001
      4.29281026e-001 1.40923553e-003 5.61234772e-001 8.17498844e-003</_>
    <_>
      1. 0. 4.42966521e-001 6.14754036e-002 7.97029585e-004
      5.52995410e-003 1. 0. 5.54834723e-001 6.66666701e-002
      5.48013020e-004 2.76497705e-003 1. 0. 5.04865835e-004
      5.70852637e-001 8.66935551e-001 9.44726646e-001 0. 0.
      9.05923359e-003 5.10933343e-003 3.25333327e-004 2.57872622e-002
      5.37567973e-001 4.62329179e-001 2.04959996e-002 2.19813919e-005 0.
      0. 1. 0. 6.82662204e-002 6.40582340e-003 9.96859312e-001 0. 1. 0.
      5.07578731e-001 5.39046014e-003 4.85618293e-001 5.08975148e-001
      1.62740307e-005</_>
    <_>
      1. 0. 7.42601097e-001 8.64754021e-001 1.00749865e-001
      1.25345618e-001 1. 0. 7.58398831e-001 2.82352954e-001
      5.87241631e-003 2.02764980e-002 2.66666681e-001 4.66666669e-001
      6.94250390e-002 9.54137921e-001 2.82258034e-001 6.17931247e-001 0.
      0. 1.23344958e-001 8.25889558e-002 1.78374231e-001 1.10351510e-001
      4.43815947e-001 2.02134550e-001 4.17177891e-003 8.17559485e-004
      1.33191783e-003 4.34723943e-002 5.77736199e-001 3.78791422e-001
      1.10004172e-002 1.83054202e-004 1.56397507e-001 3.29981139e-003
      6.00000024e-001 0. 7.36704707e-001 5.07188857e-001 2.62217164e-001
      2.27686986e-001 2.94298190e-003</_>
    <_>
      6.87500000e-001 0. 8.91592026e-001 8.97540927e-001 8.45746323e-002
      8.29492975e-003 1. 0. 7.60645986e-001 5.49019575e-002
      1.36615163e-005 9.21658939e-004 5.58139563e-001 6.97674453e-002
      5.73874786e-002 9.41533983e-001 6.37096763e-001 1. 0.
      8.05980384e-001 6.96864165e-003 4.34138656e-001 6.86400011e-003
      4.66097683e-001 7.71733299e-002 8.63302592e-003 7.23733334e-003
      6.15479017e-004 1.63465482e-003 1.44426664e-002 3.67733352e-002
      9.48783994e-001 9.84129459e-002 4.08509485e-002 7.20882058e-001
      6.72580255e-003 5.00000000e-001 5.40540554e-002 9.47102547e-001
      5.00503838e-001 4.76207763e-001 2.11840551e-002 2.13039108e-003</_>
    <_>
      5.00000000e-001 0. 8.86148572e-001 4.54917997e-001 1.07440747e-001
      1.84331797e-002 1. 0. 5.01331806e-001 6.27451017e-002
      7.24805519e-003 0. 1. 0. 3.09907235e-002 9.37779784e-001
      9.43548441e-001 9.81485665e-001 9.38422024e-001 0. 1.39372819e-003
      1.84016004e-001 7.30613321e-002 7.22646475e-001 1.99999996e-002
      1.80104864e-004 5.86666691e-004 1.39215481e-004 9.08141592e-005
      9.53434646e-001 4.65546660e-002 1.06666666e-005 1.17144592e-001
      2.49133166e-002 1.38567584e-002 4.09263447e-002 5.00000000e-001
      2.50000000e-001 1.64547458e-001 6.53446257e-001 3.05352330e-001
      3.50404307e-002 6.23726286e-003</_>
    <_>
      1.43678159e-001 3.82183909e-001 9.92826045e-001 1. 2.95122057e-001
      8.75576064e-002 1.34831458e-001 4.38202262e-001 9.93686318e-001
      9.25490141e-001 1.88909590e-001 5.62211983e-002 1.99873894e-001
      3.65699887e-001 2.58732229e-001 9.98636484e-001 3.42741907e-001
      7.82349229e-001 0. 0. 3.76306660e-002 6.15641288e-002
      1.45397186e-001 7.37563133e-001 4.00911979e-002 1.64461520e-003
      1.11885071e-002 2.84049870e-003 2.75518955e-003 6.28334045e-001
      3.01607758e-001 7.00581893e-002 6.27998263e-004 6.47883098e-007
      6.07610345e-001 3.91887054e-002 2.15417862e-001 3.71037453e-001
      2.97210068e-001 2.05227196e-001 7.84423232e-001 7.76743796e-003
      2.61414144e-003</_>
    <_>
      7.24137902e-001 0. 6.27342641e-001 9.63114619e-001 1.76135033e-001
      5.25345579e-002 0. 0. 4.61540729e-001 2.03921556e-001
      2.41299644e-002 7.37327198e-003 6.55737698e-001 1.31147534e-001
      7.67367259e-002 7.95490265e-001 6.93548322e-001 9.03246105e-001 0.
      0. 2.09059231e-002 2.45866668e-003 2.56746672e-002 6.76804900e-001
      2.94597328e-001 4.44258651e-004 5.76000020e-004 2.19813919e-005
      1.13517694e-004 7.77114689e-001 2.04842672e-001 1.80426668e-002
      1.26133919e-001 2.18695961e-002 2.92766482e-001 1.55753186e-002
      7.69230783e-001 6.15384616e-002 2.70987839e-001 1.17401302e-001
      8.78402531e-001 3.92249878e-003 2.77052226e-004</_>
    <_>
      1. 0. 7.04952121e-001 5.08196712e-001 6.87708240e-003
      3.77880186e-002 1. 0. 7.37568915e-001 4.58823502e-001
      5.49596548e-003 2.94930879e-002 1. 0. 9.73304920e-003
      9.28813577e-001 6.20967746e-001 8.42195511e-001 0. 0.
      3.62369381e-002 1.06666666e-005 0. 5.33787261e-006 1.27850667e-001
      8.94352674e-001 7.76159987e-002 0. 0. 6.39999984e-004
      9.99360025e-001 0. 1.00056063e-002 1.83122640e-004 9.96859312e-001
      0. 1. 0. 4.52829897e-001 1.07166206e-005 6.36031432e-003
      9.93628979e-001 0.</_>
    <_>
      6.17283955e-003 8.14814806e-001 9.90058959e-001 9.18032706e-001
      2.31581539e-001 1.10599082e-002 0. 8.28947365e-001 9.85244572e-001
      6.27450943e-001 8.69421363e-002 1.84331799e-003 2.29357788e-003
      8.73853207e-001 8.47777277e-002 9.96257186e-001 8.83064568e-001
      9.78288889e-001 7.73149848e-001 0. 1.39372819e-003 3.59285295e-001
      4.15375382e-002 4.66102034e-001 1.11789793e-001 3.27217509e-003
      1.59519520e-002 2.48363311e-003 2.16041552e-003 9.50060070e-001
      4.04504500e-002 9.48948972e-003 2.26838305e-003 5.98376391e-006
      3.15660268e-001 8.25473070e-002 2.69541773e-003 8.59838247e-001
      9.31781083e-002 2.54863858e-001 7.03957796e-001 3.45662087e-002
      6.69406541e-003</_>
    <_>
      1. 0. 5.03422797e-001 6.14754021e-001 2.40485147e-001
      5.89861721e-002 1. 0. 1.83083802e-001 3.17647040e-001
      1.10838341e-003 3.59447002e-002 7.41935492e-001 1.93548381e-001
      1.07340164e-001 7.91578591e-001 4.55645144e-001 7.83970714e-001 0.
      0. 7.52613321e-002 4.24392998e-001 3.95987667e-002 8.27864464e-003
      1.04938273e-003 2.43197152e-004 4.02345687e-001 9.36103240e-002
      1.19167306e-001 1.01666667e-001 8.30823064e-001 6.75102845e-002
      2.57486850e-001 1.06500261e-001 3.71699423e-001 2.03385819e-002
      7.66666651e-001 3.33333351e-002 3.98611009e-001 5.02037406e-001
      9.72972997e-003 2.70131677e-001 2.20802531e-001</_>
    <_>
      0. 3.00000012e-001 8.75800729e-001 9.54918027e-001 4.53502573e-002
      2.02764980e-002 1. 0. 8.16568613e-001 1.99999988e-001
      1.97595209e-002 1.19815664e-002 5.50000012e-001 1.00000001e-001
      3.09073292e-002 9.46356177e-001 8.06451678e-001 8.64773512e-001 0.
      0. 1.18466895e-002 5.42869329e-001 5.79466671e-002 9.27935690e-002
      7.35360011e-002 1.64615829e-002 1.65680006e-001 5.41474931e-002
      2.81296857e-002 8.77434671e-001 1.11077331e-001 1.14879999e-002
      1.17955394e-001 2.54491791e-002 1.85096607e-001 4.37784754e-003
      2.22222224e-001 3.33333343e-001 1.87110558e-001 5.00447273e-001
      1.99134320e-001 1.19290143e-001 1.83371678e-001</_>
    <_>
      1. 0. 3.51235271e-001 9.91803229e-001 3.46174138e-003
      1.84331797e-002 1. 0. 4.16607469e-001 6.15686297e-001
      6.75384654e-004 2.76497705e-003 1. 0. 5.18070767e-003
      5.99713624e-001 2.50000000e-001 5.85948765e-001 0. 0.
      2.09059231e-002 8.40551972e-001 1.59447998e-001 0. 0. 0. 0. 0. 0.
      0. 7.95956016e-001 2.04043999e-001 3.73511054e-002 1.19206647e-003
      9.97525632e-001 0. 1. 0. 6.10637367e-001 1. 0. 0. 0.</_>
    <_>
      1. 0. 9.27701950e-001 6.84426188e-001 1.09554343e-001
      1.15207374e-001 1. 0. 9.25277174e-001 5.56862772e-001
      6.85441718e-002 2.76497705e-003 7.24137902e-001 1.03448279e-001
      1.23980068e-001 9.87076879e-001 3.79032254e-001 6.87092543e-001 0.
      0. 8.64111483e-002 6.05674684e-001 2.56522655e-001 5.77878021e-002
      1.76106673e-002 2.58150324e-003 4.85973321e-002 9.56923235e-003
      9.78522561e-003 2.57221341e-001 7.06165314e-001 3.66133340e-002
      2.36067921e-003 6.72888791e-006 6.58492625e-001 5.72216604e-003
      7.14285731e-001 4.76190485e-002 3.66039842e-001 8.46325457e-001
      5.93526922e-002 7.70279020e-002 1.75081640e-002</_>
    <_>
      4.28571433e-001 1.19047619e-001 9.18912470e-001 9.67212975e-001
      6.58390597e-002 5.25345579e-002 1. 0. 8.95913601e-001
      5.56862772e-001 4.53947159e-003 3.13364044e-002 3.59550565e-001
      3.90449435e-001 5.15471399e-002 9.86400187e-001 2.74193525e-001
      6.58855975e-001 0. 0. 8.15331042e-002 1.54790524e-002
      2.00785547e-002 6.61308765e-002 8.59906226e-002 1.91950545e-001
      6.41521633e-001 1.05414401e-004 5.43626258e-004 8.86970907e-002
      5.74633539e-001 3.36669385e-001 3.28181824e-003 4.82345240e-005
      4.44554925e-001 4.76512872e-003 5.05882382e-001 2.15686277e-001
      4.89765793e-001 4.83693145e-002 1.69123366e-001 7.81988740e-001
      5.25002368e-004</_>
    <_>
      0. 6.99999988e-001 9.79495347e-001 9.30327833e-001 1.46184772e-001
      1.47465438e-001 0. 7.50000000e-001 9.42170441e-001 5.21568656e-001
      4.95770201e-002 6.63594380e-002 3.50649357e-001 4.28571433e-001
      9.68551561e-002 9.82356369e-001 1.77419350e-001 6.80182219e-001 0.
      0. 1.17073171e-001 3.88677329e-001 3.40757340e-001 1.38357654e-002
      1.18293334e-002 1.72780603e-002 1.91754669e-001 3.23932469e-002
      3.02865189e-002 9.15519968e-002 7.79461324e-001 1.28986672e-001
      5.94391301e-002 4.99124592e-003 1.95763707e-001 2.30118018e-002
      3.88888896e-001 2.40740746e-001 5.63072264e-001 4.97899145e-001
      2.48553958e-002 4.39512163e-001 3.82006317e-002</_>
    <_>
      9.44444418e-001 0. 9.40896928e-001 9.50819612e-001 5.47296330e-002
      5.71428537e-002 1. 0. 9.21901464e-001 1.29411772e-001
      8.62424914e-003 6.45161280e-003 6.21052623e-001 7.36842081e-002
      3.58819515e-002 9.86458361e-001 5.24193533e-002 6.64092779e-001 0.
      0. 1.46341464e-002 3.33089918e-001 5.14006056e-002 1.46724368e-002
      3.99555219e-003 6.89055994e-002 2.19673276e-001 2.95839041e-001
      2.14184806e-001 6.91629529e-001 2.00104564e-001 1.08265921e-001
      8.13207217e-003 8.33777012e-005 2.73036301e-001 7.15040462e-003
      6.78160906e-001 5.74712642e-002 5.20941436e-001 5.87669075e-001
      4.36918847e-002 3.13715130e-001 5.56041971e-002</_>
    <_>
      1. 0. 7.01341152e-001 6.55737638e-001 2.34281961e-002
      8.29492975e-003 1. 0. 7.33446479e-001 6.58823490e-001
      1.64118279e-002 7.37327198e-003 1. 0. 1.88585706e-002
      9.05694723e-001 3.79032254e-001 6.10815585e-001 0. 0.
      6.27177721e-003 0. 5.81333356e-004 1.00026917e+000 0. 0. 0. 0. 0.
      0. 9.83456016e-001 1.65439993e-002 1.00898631e-002 1.16798437e-004
      9.96859312e-001 0. 1. 0. 6.41557276e-001 1.95487231e-001
      8.04512739e-001 0. 0.</_>
    <_>
      1. 0. 3.69984925e-001 6.55737638e-001 2.47885078e-001
      5.06912395e-002 1. 0. 6.50748491e-001 3.25490177e-001
      8.39880034e-002 2.48847920e-002 9.62264180e-001 0. 2.36691743e-001
      8.42203021e-001 4.87903208e-001 7.76411176e-001 0. 0.
      4.32055742e-002 3.26100826e-001 9.40123424e-002 3.66463885e-002
      2.64711939e-002 1.87956654e-002 3.29176962e-001 1.57878190e-001
      1.19211093e-001 6.29835427e-002 8.68991792e-001 6.80246949e-002
      9.59890261e-002 1.18379984e-002 7.51760244e-001 1.89027265e-002 1.
      0. 4.17043447e-001 4.53947365e-001 4.05701771e-002 2.62609661e-001
      2.45880976e-001</_>
    <_>
      1. 0. 8.74442458e-001 4.71311450e-001 2.65701003e-002
      3.96313369e-002 1. 0. 8.70504618e-001 2.98039228e-001
      1.91670787e-002 1.93548389e-002 1. 0. 2.65357457e-002
      9.67547536e-001 4.79838699e-001 5.21827996e-001 0. 1.08788364e-001
      3.20557542e-002 3.50418419e-001 1.44756064e-001 2.21048594e-001
      7.98561797e-002 2.58603115e-002 1.74992263e-001 4.60327324e-003
      5.94312837e-003 0. 4.29909438e-001 5.70090532e-001 3.62927057e-002
      3.23936017e-003 9.99082685e-001 0. 1. 0. 7.73743570e-001
      5.40331542e-001 2.44766831e-001 2.02460870e-001 1.25948237e-002</_>
    <_>
      5.00000000e-001 5.00000000e-001 8.87084544e-001 6.84426188e-001
      1.52089894e-001 5.52995354e-002 1. 0. 8.31656098e-001
      4.98039186e-001 6.03140481e-002 2.67281085e-002 5.90909064e-001
      2.27272734e-001 1.09676920e-001 9.60468173e-001 3.91129047e-001
      7.05903828e-001 0. 0. 5.36585413e-002 2.59880233e-003
      4.19161661e-005 3.59587211e-005 5.98802399e-006 2.02213523e-005
      9.84389246e-001 1.38864480e-002 5.96477743e-003 0. 7.55796432e-001
      2.44203597e-001 2.96799894e-002 1.77866395e-003 3.06834728e-001
      7.89043866e-003 6.00000024e-001 2.00000003e-001 6.93091154e-001
      6.66471198e-003 1.36812276e-004 9.05794978e-001 8.84860530e-002</_>
    <_>
      1. 0. 5.00923574e-001 7.54098296e-001 7.50157163e-002
      4.42396291e-002 1. 0. 5.46907246e-001 5.64705908e-001
      8.90792068e-003 3.31797190e-002 3.87096778e-002 3.74193549e-001
      8.37189704e-002 8.56635153e-001 5.72580636e-001 8.84891748e-001 0.
      0. 5.57491332e-002 1.35682961e-002 9.07527581e-002 5.14153242e-002
      8.47013891e-002 5.46836019e-001 2.71200478e-001 1.67246046e-003
      2.96845357e-003 1.11572053e-002 9.17638779e-001 7.12040067e-002
      3.58322002e-002 1.71595439e-002 9.67388988e-001 1.01944674e-002
      2.50000000e-001 2.50000000e-001 4.29226905e-001 1.14836343e-001
      1.02318749e-001 7.81180799e-001 1.68472878e-003</_>
    <_>
      5.00000000e-001 5.00000000e-001 6.28673971e-001 6.22950733e-001
      9.85669643e-002 2.39631329e-002 1. 0. 3.62324417e-001
      3.05882365e-001 3.43530695e-003 1.65898595e-002 2.66666681e-001
      4.00000006e-001 5.92168607e-002 9.36626375e-001 7.25806415e-001
      9.11735415e-001 0. 0. 2.16027871e-002 7.73339331e-001
      5.23963980e-002 1.27495807e-002 1.77837834e-002 1.73006132e-002
      1.70450453e-002 6.91786781e-002 1.29778326e-001 8.18570554e-001
      1.72408402e-001 9.02102143e-003 1.87879324e-001 4.29513790e-002
      2.00870812e-001 1.02407476e-002 3.00000012e-001 3.00000012e-001
      2.33201668e-001 6.37771010e-001 3.19199897e-002 7.65959993e-002
      2.56855428e-001</_>
    <_>
      9.67741907e-001 0. 6.34020388e-001 9.95901585e-001 1.83648556e-001
      4.14746553e-002 7.50000000e-001 1.25000000e-001 8.45269263e-001
      9.25490141e-001 2.49384359e-001 2.00000003e-001 5.79999983e-001
      1.70000002e-001 2.23325491e-001 9.61410046e-001 2.17741922e-001
      7.16367602e-001 0. 0. 1.26829267e-001 4.27741736e-001
      1.66366366e-003 1.17817905e-003 5.12912907e-002 5.12933768e-002
      2.22030029e-001 1.97956309e-001 2.26549610e-001 1.24276273e-001
      6.81843817e-001 1.93879873e-001 3.37123834e-002 2.06998107e-003
      7.10412621e-001 3.54965590e-002 5.47619045e-001 2.26190478e-001
      4.72665489e-001 2.83944666e-001 1.84583087e-002 2.99812019e-001
      4.02711898e-001</_>
    <_>
      1. 0. 5.81854939e-001 8.36065531e-001 1.50237381e-001
      9.12442431e-002 1. 0. 6.31997108e-001 6.74509764e-001
      6.63307011e-002 6.91244304e-002 9.16666687e-001 5.55555560e-002
      1.48664117e-001 7.50362873e-001 3.62903208e-001 7.09104717e-001 0.
      0. 1.43554017e-001 1.13968000e-001 7.53498673e-001 1.33179929e-002
      2.16160007e-002 2.08141189e-002 7.05493316e-002 8.08915310e-003
      5.70994010e-003 1.74186658e-002 7.44415998e-001 2.38165334e-001
      8.94431919e-002 7.18646729e-003 7.90728450e-001 3.44510819e-003
      8.92857134e-001 3.57142873e-002 5.42613864e-001 8.68403614e-001
      2.06706468e-002 8.82758275e-002 2.29304302e-002</_>
    <_>
      1. 0. 3.97329658e-001 7.21311450e-001 7.52467811e-002
      3.04147471e-002 5.00000000e-001 0. 4.56320405e-001 5.49019635e-001
      6.09972589e-002 3.59447002e-002 7.75862098e-001 1.20689653e-001
      8.81476998e-002 7.63006985e-001 5.04032314e-001 7.74250746e-001 0.
      0. 4.52961661e-002 6.55591607e-001 1.35009006e-001 2.25957893e-002
      9.78978933e-004 7.70718907e-004 1.40222222e-001 3.84839401e-002
      3.60239707e-002 4.85675663e-001 4.94396389e-001 1.99279282e-002
      1.64160967e-001 2.73061562e-002 6.32599056e-001 8.87559541e-003
      8.03921580e-001 9.80392173e-002 2.57176936e-001 8.21266949e-001
      1.39300926e-002 8.55583474e-002 8.02261382e-002</_>
    <_>
      1.70731708e-001 4.87804860e-002 9.17815328e-001 1. 2.27777183e-001
      8.29492975e-003 1. 0. 8.75468314e-001 8.23529363e-002
      5.23612499e-002 1.84331799e-003 1.63934425e-001 2.29508191e-001
      1.26427323e-001 9.79927123e-001 9.51612949e-001 9.72971261e-001
      9.83609974e-001 0. 2.09059240e-003 1.07120804e-001 1.80805363e-002
      6.10048957e-002 2.29456380e-001 6.95866570e-002 4.91610736e-001
      3.16720121e-002 1.68276634e-002 9.65080559e-001 1.49932886e-002
      1.99261736e-002 8.72065034e-003 1.23970502e-004 4.46323425e-001
      1.66518223e-002 1.89189196e-001 1.44144148e-001 7.50626177e-002
      1.42495707e-001 2.66829312e-001 5.29456973e-001 6.19762652e-002</_>
    <_>
      2.32876718e-001 4.65753436e-001 9.40214694e-001 9.87704813e-001
      2.26749852e-001 1.93548389e-002 0. 1. 3.01342785e-001
      2.35294104e-002 4.95728850e-003 0. 1.70454547e-001 4.49999988e-001
      1.60058856e-001 9.92048860e-001 2.90322572e-001 9.04045343e-001
      2.48122006e-003 0. 4.87804879e-003 1.36420457e-002 1.51193179e-002
      9.38974619e-001 2.02045459e-002 3.65837989e-003 5.48863644e-003
      1.22552516e-003 6.86911074e-003 8.22704554e-001 1.13721594e-001
      6.35738671e-002 1.15824558e-001 7.01052696e-002 6.88557088e-001
      3.74798998e-002 1.62849873e-001 4.04580146e-001 1.67229831e-001
      6.95277750e-002 9.13290679e-001 1.08675892e-002 6.39214786e-003</_>
    <_>
      1.06382981e-001 4.68085110e-001 9.69578743e-001 1. 1.79031476e-001
      4.05529924e-002 3.22580636e-002 4.51612890e-001 9.32850063e-001
      7.45097995e-001 1.92025036e-001 5.06912395e-002 7.72727281e-002
      5.31818211e-001 2.83020198e-001 9.94805753e-001 1.04838707e-001
      5.40402770e-001 0. 0. 5.64459935e-002 7.46149361e-001
      2.17946663e-001 2.79010590e-002 2.79466668e-003 1.57291582e-003
      1.34933332e-003 7.69348757e-004 4.09798883e-003 2.13333333e-005
      8.00378680e-001 1.99599996e-001 1.21445702e-002 2.02747717e-004
      8.14615846e-001 3.43120210e-002 8.77659544e-002 5.53191483e-001
      5.99795461e-001 9.66703415e-001 2.68903933e-002 3.31130181e-003
      3.13325273e-003</_>
    <_>
      0. 0. 3.93382698e-001 2.13114738e-001 4.95206676e-002
      1.38248848e-002 1. 0. 3.52877021e-001 1.45098045e-001
      1.60709117e-002 6.45161280e-003 4.14141417e-001 4.04040404e-002
      7.86642060e-002 8.34465206e-001 7.33870924e-001 9.26199675e-001 0.
      0. 1.67247392e-002 1.55253336e-002 3.31519991e-002 1.88587025e-001
      6.58991992e-001 8.14794451e-002 3.08640003e-002 5.34880499e-004
      5.67588490e-004 8.07258666e-001 1.68954670e-001 2.37866659e-002
      9.65900645e-002 2.10020989e-002 1.88771591e-001 3.25706080e-002
      3.78048778e-001 7.31707290e-002 3.28345001e-001 1.20080352e-001
      6.85652018e-001 1.92739725e-001 1.54680794e-003</_>
    <_>
      1. 0. 9.29169059e-001 6.68032765e-001 8.98218602e-002
      1.01382490e-002 1. 0. 9.04691994e-001 3.29411745e-001
      3.17362845e-002 5.52995410e-003 1. 0. 7.21104369e-002
      9.87790406e-001 4.39516097e-001 7.46125877e-001 0. 0.
      7.66550517e-003 1. 0. 0. 0. 0. 0. 0. 0. 1.47129625e-001
      8.33476841e-001 1.93935186e-002 3.08793900e-003 1.36959743e-005
      4.78713095e-001 2.54039606e-003 1. 0. 3.70932132e-001 1. 0. 0. 0.</_>
    <_>
      1. 0. 9.67670679e-001 8.15573692e-001 1.43118843e-001
      6.08294904e-002 4.28571433e-001 1.42857149e-001 9.48525906e-001
      7.17647016e-001 2.05132350e-001 1.43778801e-001 7.32558131e-001
      5.81395365e-002 1.69332519e-001 9.93034780e-001 1.41129017e-001
      6.19248927e-001 0. 0. 1.21254355e-001 1.99222222e-001
      6.37950003e-001 1.56827807e-001 2.50555552e-003 1.73851231e-003
      7.66666664e-004 5.87696908e-004 1.89196167e-003 4.82277796e-002
      6.27516687e-001 3.24255556e-001 8.68337695e-003 1.53721587e-004
      3.50875378e-001 1.78461019e-002 7.27272749e-001 9.09090936e-002
      7.63874590e-001 8.56254876e-001 1.31979138e-001 7.40529317e-003
      4.41472931e-003</_>
    <_>
      2.08333328e-001 4.58333343e-001 9.28565085e-001 8.93442631e-001
      9.98857915e-002 1.56682022e-002 1. 0. 8.16958547e-001
      1.13725483e-001 1.96399912e-002 4.60829493e-003 1.51515156e-001
      4.24242437e-001 7.49610066e-002 9.77000654e-001 8.34677458e-001
      9.25487876e-001 0. 0. 1.04529615e-002 3.55214104e-002
      2.47209072e-001 6.99113429e-001 1.65037792e-002 7.48546619e-004
      1.34005037e-003 2.28396078e-004 1.60840558e-004 8.79017651e-001
      1.16972290e-001 4.01007570e-003 1.24609778e-002 1.46245686e-004
      6.25899881e-002 2.01022401e-002 1.25000000e-001 5.41666687e-001
      1.85528800e-001 5.65361083e-001 4.27304953e-001 4.91618318e-003
      2.44774111e-003</_>
    <_>
      1. 0. 9.26013172e-001 9.42622900e-001 1.47813097e-001
      1.61290318e-001 1. 0. 9.07269597e-001 8.03921521e-001
      8.52197781e-002 8.94009247e-002 6.83333337e-001 1.25000000e-001
      2.05781952e-001 9.88544762e-001 2.13709667e-001 6.65504634e-001 0.
      0. 1.40069693e-001 2.24881664e-001 1.80615380e-001 8.85012895e-002
      4.02366859e-004 1.53195695e-004 2.66520709e-001 2.29235694e-001
      1.53588921e-001 1.46745564e-003 7.68609464e-001 2.29923069e-001
      8.33698548e-003 5.68323048e-005 6.37179434e-001 1.84390955e-002
      7.28155315e-001 8.73786435e-002 5.58147788e-001 5.48084080e-001
      7.67113119e-002 6.13281243e-002 3.17764103e-001</_>
    <_>
      3.00000012e-001 5.00000000e-001 6.72447860e-001 8.36065531e-001
      9.83491987e-002 1.30875573e-001 1. 0. 7.31362820e-001
      7.37254858e-001 5.27651235e-002 1.11520737e-001 5.00000000e-001
      2.88461536e-001 8.24717507e-002 9.70275939e-001 3.22580636e-001
      6.77827537e-001 0. 0. 1.49825782e-001 4.92132120e-002
      6.49429411e-002 2.27238283e-001 2.85591602e-001 5.14353514e-002
      3.19243252e-001 5.98217314e-003 8.33485834e-003 6.24624605e-004
      4.22510505e-001 5.76864839e-001 1.99378580e-001 2.53712907e-002
      3.64125371e-001 1.49804605e-002 4.68085110e-001 2.97872335e-001
      6.60131693e-001 4.05543819e-002 4.98926252e-001 4.58900481e-001
      1.63892237e-003</_>
    <_>
      1. 0. 8.46750975e-001 7.04917967e-001 4.31831479e-002
      7.55760372e-002 0. 1. 8.64649534e-001 4.35294122e-001
      3.53463776e-002 2.11981572e-002 6.34920672e-002 6.98412716e-001
      6.51333556e-002 9.79347944e-001 3.50806445e-001 5.84250033e-001 0.
      0. 8.29268321e-002 1.17904000e-001 1.43472001e-001 1.37012511e-001
      1.39840007e-001 3.52585241e-002 4.07312006e-001 2.51833498e-002
      1.04776835e-002 1.60000000e-005 5.51349342e-001 4.48634654e-001
      4.61416058e-002 2.80193402e-003 2.41076186e-001 1.01220151e-002
      4.68750000e-002 6.87500000e-001 6.60349846e-001 2.89841592e-001
      8.75817016e-002 5.13570428e-001 1.10356443e-001</_>
    <_>
      2.72727281e-001 0. 6.97083414e-001 7.70491779e-001 1.41450793e-001
      2.30414756e-002 1. 0. 3.87828648e-001 4.11764681e-001
      6.63670227e-002 3.50230373e-002 2.90322572e-001 2.25806445e-001
      7.21574724e-002 8.73372376e-001 7.45967746e-001 8.86417210e-001 0.
      0. 9.75609757e-003 7.47744024e-001 1.33706667e-002 1.53623968e-002
      9.81333293e-003 9.72566253e-004 1.30528003e-001 6.96883425e-002
      6.72705919e-002 8.09632003e-001 1.77808002e-001 1.25599997e-002
      2.91466080e-002 5.91298041e-004 4.08555597e-001 1.82099026e-002
      2.85714298e-001 2.98701286e-001 2.05634728e-001 4.94933903e-001
      1.13872578e-002 2.03519464e-001 2.93753207e-001</_>
    <_>
      7.60869533e-002 3.83152187e-001 9.90685523e-001 8.36065531e-001
      3.24791372e-001 9.76958498e-002 1.22448981e-001 3.26530606e-001
      9.75812376e-001 6.66666627e-001 6.22496121e-002 1.93548389e-002
      1.78443119e-001 3.84431124e-001 1.92074180e-001 9.97004211e-001
      5.68548441e-001 8.34596574e-001 0. 0. 4.04181220e-002
      1.03207909e-001 1.74560547e-001 5.10109127e-001 7.41831437e-002
      2.58429311e-002 7.69678727e-002 3.34535986e-002 3.00039575e-002
      4.90496308e-001 4.81465667e-001 2.80380249e-002 3.95707553e-003
      3.46941270e-005 7.33139455e-001 1.82390455e-002 1.48000002e-001
      3.93333346e-001 2.31829286e-001 4.23943192e-001 4.36159879e-001
      9.17424038e-002 4.87509854e-002</_>
    <_>
      6.00000024e-001 2.00000003e-001 9.16745186e-001 5.90163946e-001
      9.54555795e-002 5.43778762e-002 0. 3.33333343e-001 7.38712609e-001
      4.82352912e-001 4.64562625e-002 3.41013819e-002 3.52941185e-001
      4.70588237e-001 7.05010146e-002 9.76683795e-001 5.44354856e-001
      8.16302121e-001 0. 0. 5.64459935e-002 2.29849622e-001
      3.50927301e-002 2.59368424e-003 4.76190471e-004 2.25695294e-005
      6.65563881e-001 5.21851517e-002 6.04929812e-002 8.22055154e-004
      7.89824545e-001 2.09353387e-001 1.67645141e-001 5.75387776e-002
      5.49944878e-001 3.66962468e-003 4.61538464e-001 3.84615391e-001
      6.53533280e-001 4.07748193e-001 2.69288337e-003 4.24708813e-001
      1.66891903e-001</_>
    <_>
      9.13043499e-001 4.34782617e-002 9.01454866e-001 9.38524544e-001
      2.70260990e-001 3.46543759e-001 8.00000012e-001 0. 9.21782017e-001
      9.05882299e-001 2.39628553e-001 3.02304149e-001 6.55462205e-001
      9.24369767e-002 2.12648273e-001 9.85093772e-001 2.13709667e-001
      6.59344494e-001 0. 0. 1.23344958e-001 2.46048003e-001
      3.71093340e-002 4.03543096e-003 3.73333351e-005 8.40489403e-004
      6.45200014e-001 5.38031235e-002 5.88816293e-002 2.66666666e-005
      7.37056017e-001 2.62917340e-001 5.83046023e-003 3.22785490e-005
      6.32810414e-001 1.91003568e-002 6.48351669e-001 8.79120901e-002
      6.31633103e-001 3.54151189e-001 4.21196548e-003 5.51277936e-001
      9.14780647e-002</_>
    <_>
      1. 0. 3.58407915e-001 4.05737698e-001 8.07969049e-002
      2.85714287e-002 1. 0. 4.70992804e-001 3.21568608e-001
      9.81501788e-002 2.85714287e-002 1. 0. 1.08136177e-001
      6.37312174e-001 3.95161301e-001 7.79084086e-001 0. 0.
      6.55052364e-002 1.02647573e-001 8.05713385e-002 4.28394586e-001
      2.88135260e-002 5.92941092e-003 2.65131801e-001 8.64746496e-002
      5.66043146e-002 5.08305728e-002 7.56056666e-001 1.93112776e-001
      4.86374609e-002 3.83006060e-003 7.81512409e-002 2.73003038e-002 1.
      0. 2.03917041e-001 1.91607684e-001 1.68099087e-002 3.57178956e-001
      4.39783901e-001</_>
    <_>
      1. 0. 7.45606124e-001 9.71311390e-001 4.75108298e-003
      3.96313369e-002 1. 0. 7.50974298e-001 1.88235283e-001
      1.65680307e-004 9.21658939e-004 3.62637371e-001 2.85714298e-001
      1.78593993e-002 9.59022462e-001 7.25806430e-002 2.27636844e-001 0.
      2.57618695e-001 1.32404193e-002 8.30713958e-002 2.44434968e-001
      2.52524167e-001 4.19299662e-001 4.41969787e-005 1.74503693e-005
      5.09446800e-005 1.68301305e-003 2.13031933e-001 2.61982411e-001
      5.24985671e-001 7.89024457e-002 1.47437062e-002 2.66919881e-001
      6.72744866e-003 3.48837197e-001 3.25581402e-001 3.17213207e-001
      6.72589302e-001 3.22508305e-001 0. 4.96308133e-003</_>
    <_>
      1. 0. 5.22192717e-001 6.51639342e-001 4.32229927e-003
      9.21659023e-002 1. 0. 6.41720891e-001 5.13725519e-001
      2.47894437e-003 3.77880186e-002 1. 0. 4.97862929e-003
      7.94786990e-001 4.91935492e-001 7.48531580e-001 0. 0.
      1.18466899e-001 3.87834668e-001 7.71733327e-003 3.41090048e-003
      5.21600014e-003 1.96314277e-003 4.83333319e-001 8.37344453e-002
      1.05991468e-001 0. 4.72927988e-001 5.27072012e-001 3.99432369e-002
      2.85664410e-003 9.96859312e-001 0. 1. 0. 6.77280247e-001
      3.82020712e-001 4.42596432e-003 4.46181118e-001 1.69445217e-001</_>
    <_>
      6.45161271e-001 1.29032254e-001 6.16544187e-001 1. 3.34100097e-001
      8.94009247e-002 1. 0. 5.02133012e-001 6.94117606e-001
      1.46861807e-001 5.52995354e-002 7.55102038e-001 4.08163257e-002
      3.00879210e-001 7.99277425e-001 8.06451589e-003 4.44854438e-001 0.
      0. 7.87456557e-002 2.87449419e-001 3.37525696e-001 7.52148703e-002
      1.71807632e-002 1.53522212e-002 1.48159206e-001 1.02926143e-001
      9.78595987e-002 2.90149242e-001 4.38421220e-001 2.71429509e-001
      4.43871953e-002 3.21062375e-003 8.55299234e-001 3.28902118e-002
      6.94174767e-001 9.70873795e-003 4.51940358e-001 7.07014143e-001
      4.55181003e-002 8.51871967e-002 1.64290518e-001</_>
    <_>
      0. 8.39999974e-001 9.49459493e-001 6.10655725e-001 7.71677345e-002
      2.11981572e-002 1. 0. 2.31285691e-001 2.74509788e-002
      4.18991921e-003 0. 1.11111112e-001 7.77777791e-001 3.40656415e-002
      9.61577535e-001 6.81451678e-001 9.44750190e-001 1.52146444e-001 0.
      8.36236961e-003 5.16402423e-001 2.16948956e-001 3.56639624e-002
      5.26126148e-003 2.70427718e-005 1.76222220e-001 5.48049584e-002
      2.04664245e-002 8.28072071e-001 1.71753749e-001 1.74174173e-004
      2.26378560e-001 7.82667771e-002 4.81498288e-003 2.31631398e-001 0.
      1. 4.50706959e-001 9.46450830e-001 4.73225415e-002 3.73599003e-003
      2.52150861e-003</_>
    <_>
      9.23076928e-001 7.69230798e-002 9.52910721e-001 9.30327833e-001
      4.92894650e-002 1.41935483e-001 1. 0. 9.66707289e-001
      6.94117606e-001 1.88073553e-002 8.66359472e-002 6.96132600e-001
      7.18232021e-002 6.87651932e-002 9.94199097e-001 2.01612890e-001
      6.39667869e-001 0. 0. 1.93031356e-001 1.30650833e-001
      1.01463318e-001 2.81064305e-002 4.58183289e-002 5.01528904e-002
      6.25088990e-001 1.31648211e-002 3.14140283e-002 3.18387337e-002
      5.22340119e-001 4.45821136e-001 1.03635318e-003 4.06122217e-006
      6.41363978e-001 4.93905880e-003 6.80981576e-001 8.58895704e-002
      6.14979923e-001 3.18642467e-001 7.34436810e-002 5.73654175e-001
      3.46840173e-002</_>
    <_>
      1. 0. 6.14091992e-001 8.72950792e-001 3.09301671e-002
      4.88479212e-002 1. 0. 6.79078579e-001 3.37254882e-001
      2.44809054e-002 2.30414756e-002 8.99999976e-001 1.00000001e-001
      2.88455896e-002 8.99638116e-001 6.45161271e-002 4.28176314e-001 0.
      0. 2.50871107e-002 1.35976464e-001 1.13195293e-001 4.53882396e-001
      2.10061178e-001 5.60390912e-002 2.64847055e-002 1.08161382e-002
      6.66081766e-003 3.61440003e-001 3.27623516e-001 3.10936481e-001
      6.10180236e-002 2.02882010e-003 9.97172892e-001 0. 8.99999976e-001
      1.00000001e-001 4.28855717e-001 2.89153785e-001 6.07171893e-001
      8.99014995e-002 1.39434161e-002</_>
    <_>
      4.20289844e-001 2.02898547e-001 9.86769617e-001 9.87704813e-001
      1.79470301e-001 5.89861721e-002 8.57142866e-001 0. 9.65122879e-001
      4.74509776e-001 4.03672010e-002 8.29492975e-003 4.11552340e-001
      2.20216602e-001 1.32392615e-001 9.97794151e-001 2.62096763e-001
      7.57240951e-001 0. 0. 3.34494784e-002 4.07206230e-002
      1.39746353e-001 1.71233505e-001 5.51076233e-001 7.99506232e-002
      2.28513088e-002 2.28497689e-003 3.89190763e-003 6.69296265e-001
      2.68480927e-001 6.22227974e-002 2.66485452e-003 2.12399973e-005
      1.66642413e-001 2.96711624e-002 4.20408159e-001 2.32653067e-001
      3.22809637e-001 3.22933137e-001 3.84875774e-001 2.91923612e-001
      2.70767894e-004</_>
    <_>
      4.49999988e-001 2.50000000e-001 8.41954291e-001 4.87704933e-001
      8.43494684e-002 1.84331799e-003 2.00000003e-001 4.00000006e-001
      7.13730156e-001 1.09803915e-001 2.94076521e-002 9.21658939e-004
      1.66666672e-001 5.00000000e-001 6.26930743e-002 9.62466478e-001
      9.55645144e-001 9.84407008e-001 9.62068558e-001 0. 1.39372819e-003
      6.47199988e-001 6.67200014e-002 2.59975731e-001 1.29386671e-002
      9.84573155e-004 1.06239999e-002 2.08823243e-003 7.83272088e-004
      9.66773331e-001 3.03733330e-002 2.85333325e-003 7.91916177e-002
      6.73487037e-003 5.40043473e-001 1.23096928e-002 1.70731708e-001
      5.12195110e-001 3.56480479e-002 6.69600904e-001 3.04752499e-001
      2.19672620e-002 3.72491474e-003</_>
    <_>
      7.50000000e-001 6.25000000e-002 8.33330989e-001 1. 1.77398548e-001
      4.05529924e-002 7.50000000e-001 6.25000000e-002 8.61512840e-001 1.
      1.68818131e-001 4.05529924e-002 8.50000024e-001 5.00000007e-002
      1.98212475e-001 9.58602130e-001 4.03225794e-003 4.70547408e-001 0.
      0. 4.45993021e-002 1.58346668e-002 9.06666683e-005 3.25610221e-004
      3.61674666e-001 6.99551225e-001 5.81333356e-004 2.93085250e-005
      2.27035398e-005 1.34570673e-001 5.38879991e-001 3.26549321e-001
      1.95489824e-002 4.23782098e-004 6.29861832e-001 7.65410066e-003
      8.09523821e-001 4.76190485e-002 6.85466170e-001 8.27679783e-003
      2.33972184e-002 9.68207240e-001 1.20195051e-004</_>
    <_>
      1. 0. 9.69344139e-001 1.84426218e-001 3.50206234e-002
      1.47465440e-002 1. 0. 9.61899698e-001 1.37254909e-001
      3.10529601e-002 7.37327198e-003 1. 0. 4.66774590e-002
      9.95779037e-001 8.02419364e-001 9.12801385e-001 0. 0.
      1.32404193e-002 1.39924362e-001 2.96872463e-002 9.44202915e-002
      5.05210876e-001 1.73038125e-001 6.97669983e-002 2.81953556e-003
      1.12724584e-002 8.91400635e-001 1.08599342e-001 0. 1.29272020e-003
      2.60434263e-006 9.99246895e-001 0. 1. 0. 1.14641346e-001
      1.75876617e-001 4.60183710e-001 3.52361143e-001 1.17219519e-002</_>
    <_>
      0. 4.39999998e-001 8.86973262e-001 9.50819612e-001 5.78380413e-002
      9.21658939e-004 0. 6.66666687e-001 5.21978676e-001 9.01960731e-002
      2.25326717e-002 9.21658939e-004 6.96517378e-002 3.88059705e-001
      7.32299313e-002 9.72899675e-001 9.71774220e-001 9.94358540e-001
      9.48591471e-001 0. 6.96864096e-004 4.36915666e-001 9.28313285e-002
      4.42128956e-001 1.90240964e-002 1.99363055e-003 5.61445765e-003
      1.75453897e-003 1.73097383e-003 9.51572299e-001 3.17349397e-002
      1.66927706e-002 7.03425556e-002 1.26074981e-002 5.34410536e-001
      2.87398025e-002 4.34782617e-002 3.97515535e-001 5.50057851e-002
      5.45823991e-001 4.36857909e-001 1.33667504e-002 4.00026049e-003</_>
    <_>
      3.00000012e-001 1.00000001e-001 4.27282929e-001 9.09835994e-001
      8.02035332e-002 3.31797190e-002 1. 0. 3.87963057e-001
      2.98039228e-001 1.75600145e-002 1.84331797e-002 7.96296299e-001
      3.70370373e-002 8.86054486e-002 7.72074819e-001 3.83064508e-001
      8.39249909e-001 0. 0. 2.16027871e-002 9.18400008e-003
      4.15946655e-002 1.08214691e-001 7.37306654e-001 1.09053493e-001
      6.78399997e-003 8.79255676e-005 1.36221235e-004 6.97983980e-001
      2.32218668e-001 6.97973371e-002 1.16105482e-001 1.40750958e-002
      8.07532966e-001 5.01193479e-003 6.86274529e-001 1.96078438e-002
      2.33788952e-001 8.24436769e-002 7.78512001e-001 1.38898805e-001
      1.47322338e-004</_>
    <_>
      1.62162155e-001 2.70270258e-001 7.95206726e-001 9.30327833e-001
      9.84246135e-002 4.88479212e-002 1. 0. 6.93422973e-001
      7.05882385e-002 3.58882896e-003 4.60829493e-003 4.52380955e-001
      1.66666672e-001 3.55547853e-002 9.54775393e-001 3.22580636e-002
      6.78487241e-001 0. 0. 2.09059231e-002 1.90961197e-001
      1.41095474e-001 1.94134817e-001 1.60945892e-001 8.18643272e-002
      2.15136215e-001 1.37028731e-002 3.23342308e-002 7.27556884e-001
      1.97920486e-001 7.45226517e-002 3.08515783e-002 8.48857278e-004
      2.72703111e-001 7.98928365e-003 4.50331122e-001 1.98675498e-001
      4.75627422e-001 3.75779837e-001 1.76965028e-001 4.10910428e-001
      3.67948636e-002</_>
    <_>
      1. 0. 6.61070406e-001 5.36885262e-001 2.17410978e-002
      5.25345579e-002 1. 0. 6.81499779e-001 3.84313703e-001
      1.16797704e-002 2.94930879e-002 7.72727251e-001 2.27272734e-002
      3.76376882e-002 9.30819809e-001 2.78225780e-001 6.86548591e-001 0.
      0. 9.75609794e-002 4.23564374e-001 1.27085507e-001 1.19254604e-001
      1.16601460e-001 6.32080138e-002 1.53740659e-001 3.71767301e-003
      2.12114747e-003 3.56117427e-001 5.58668077e-001 8.52145255e-002
      2.49089748e-002 7.07473373e-004 7.13804007e-001 1.30306580e-003
      7.50000000e-001 0. 2.99974054e-001 6.65685177e-001 1.56252667e-001
      1.71407834e-001 6.73672417e-003</_>
    <_>
      2.50000000e-001 3.62676054e-001 9.79146779e-001 9.71311390e-001
      2.40028158e-001 6.72811046e-002 2.99319714e-001 3.36734682e-001
      9.86458540e-001 9.41176414e-001 2.78364927e-001 1.54838711e-001
      3.10008138e-001 2.95362085e-001 3.59389752e-001 9.96903479e-001
      1.25000000e-001 6.64515018e-001 0. 0. 9.12892073e-002
      2.86680847e-001 1.37915298e-001 1.79963872e-001 9.18871537e-002
      5.25131747e-002 2.30771378e-001 1.73644256e-002 2.90404521e-002
      3.46252441e-001 5.00872314e-001 1.52875260e-001 1.04576501e-003
      1.95596272e-006 7.92774975e-001 4.53042425e-002 3.02358478e-001
      3.16981137e-001 3.84103537e-001 4.18193936e-001 2.42506608e-001
      2.91551203e-001 4.83396426e-002</_>
    <_>
      1. 0. 8.42978358e-001 8.52459013e-001 2.30831027e-001
      1.56682029e-001 1. 0. 6.44902408e-001 3.64705861e-001
      8.49559996e-003 1.75115205e-002 1. 0. 5.78413494e-002
      9.44084942e-001 4.11290288e-001 7.71420538e-001 0. 0.
      6.75958171e-002 6.59200028e-002 1.02666663e-002 1.94512066e-002
      1.32799996e-002 8.29082727e-003 8.53061318e-001 2.38205027e-002
      2.83794254e-002 2.77226660e-002 5.20031989e-001 4.52245325e-001
      6.42880872e-002 7.18225027e-003 3.89941521e-002 1.74879208e-002 1.
      0. 5.64634264e-001 2.25112975e-001 4.92948107e-003 6.88210309e-001
      8.27597305e-002</_>
    <_>
      1. 0. 9.30935740e-001 6.10655725e-001 5.45238480e-002
      9.76958498e-002 0. 1. 9.65471447e-001 3.25490177e-001
      1.47585675e-001 3.87096740e-002 1.07526882e-002 8.60215068e-001
      1.42670646e-001 9.94059861e-001 6.00806475e-001 8.40945005e-001 0.
      0. 1.21254355e-001 4.15429324e-001 3.11360005e-002 1.27628529e-002
      1.15466667e-002 6.72871768e-002 4.30799991e-001 2.93085221e-002
      3.66662145e-002 0. 8.20378661e-001 1.79621339e-001 7.43269827e-003
      7.40058531e-005 4.25796863e-003 3.36428583e-001 0. 9.16666687e-001
      5.24018228e-001 7.03750014e-001 1.19999997e-001 9.00000036e-002
      8.73182714e-002</_>
    <_>
      1. 0. 7.99700320e-001 9.22131062e-001 2.27053910e-002
      1.50230408e-001 1. 0. 8.87502432e-001 3.92156839e-001
      1.81049239e-002 1.47465440e-002 5.00000000e-001 3.33333343e-001
      4.20833118e-002 9.71449614e-001 2.45967746e-001 6.60656631e-001 0.
      0. 1.39372826e-001 6.67701304e-001 3.47520001e-002 2.79224105e-002
      2.41173338e-002 1.04340753e-002 1.18330665e-001 9.29300040e-002
      1.07035831e-001 1.19957335e-001 5.16725361e-001 3.63317341e-001
      5.35310153e-003 2.46555173e-005 3.64920348e-001 4.20291070e-003
      5.55555582e-001 2.77777791e-001 7.69071639e-001 9.87236559e-001
      5.63524570e-003 1.27341924e-003 5.92731684e-003</_>
    <_>
      1. 0. 8.92987847e-001 8.56557310e-001 3.93750183e-002
      1.23502307e-001 1. 0. 7.70257711e-001 5.92156887e-001
      2.14980543e-002 5.34562171e-002 1. 0. 4.26861830e-002
      9.76289272e-001 1.69354826e-001 6.66504562e-001 0. 0.
      2.79442519e-001 1.74600601e-001 3.67447436e-002 3.41611765e-002
      9.69369337e-003 4.01652716e-002 6.73417389e-001 2.04631593e-002
      4.43460457e-002 3.03303311e-003 6.42504513e-001 3.54462475e-001
      8.72144941e-003 1.08747154e-004 8.81205201e-002 1.81350186e-002 1.
      0. 8.51087809e-001 7.76617527e-001 3.27600329e-003 1.62708163e-001
      5.81092276e-002</_>
    <_>
      2.22222224e-001 4.44444448e-001 8.46589327e-001 6.22950733e-001
      8.15652758e-002 2.76497677e-002 0. 1. 8.26740444e-001
      4.86274481e-001 9.63372737e-002 6.72811046e-002 3.41269851e-001
      3.88888896e-001 2.12177441e-001 9.76814091e-001 6.20967746e-001
      7.94437349e-001 0. 0. 6.96864128e-002 6.54832006e-001
      9.80959982e-002 2.80878842e-002 3.09120007e-002 1.65096112e-003
      1.40714660e-001 3.43276076e-002 4.45443392e-002 2.13333333e-005
      6.77482665e-001 3.22495997e-001 2.76729409e-002 1.18267583e-003
      5.57686687e-001 1.84468627e-002 3.03921580e-001 3.92156869e-001
      5.79408526e-001 6.63033485e-001 9.05869305e-002 1.38820782e-001
      1.08891003e-001</_>
    <_>
      7.66666651e-001 1.00000001e-001 8.31036687e-001 7.41803288e-001
      7.73489624e-002 5.71428537e-002 7.33333349e-001 6.66666701e-002
      8.52268994e-001 4.98039186e-001 8.51288736e-002 3.87096740e-002
      6.95238113e-001 6.66666701e-002 7.76462108e-002 9.69832242e-001
      3.95161301e-001 7.28218257e-001 0. 0. 6.41115084e-002
      2.51670063e-001 2.70323828e-002 8.70768912e-003 3.44434497e-003
      2.17826897e-003 5.54670751e-001 1.14359155e-001 1.47515550e-001
      1.60714649e-002 8.21389437e-001 1.62539110e-001 4.75491164e-003
      1.51721339e-004 8.04230988e-001 3.99105484e-003 7.29591846e-001
      4.08163257e-002 4.96733397e-001 2.20696673e-001 3.51220137e-003
      5.00706613e-001 2.78491646e-001</_>
    <_>
      1. 0. 6.50616527e-001 3.60655725e-001 1.67044308e-002
      5.06912395e-002 1. 0. 6.31115913e-001 1.99999988e-001
      9.69311129e-003 6.45161280e-003 1. 0. 1.55805228e-002
      8.92564237e-001 6.37096763e-001 8.55814993e-001 0. 0.
      2.36933809e-002 1.30908713e-001 4.46071297e-001 1.81805432e-001
      6.59536943e-002 5.47472313e-002 1.21240065e-001 5.19592455e-003
      3.74070392e-003 7.31538892e-001 2.68461108e-001 0. 3.00943106e-002
      6.51431677e-004 9.98806655e-001 0. 1. 0. 1.32239595e-001
      6.07952535e-001 1.84546024e-001 2.01470882e-001 6.10527396e-003</_>
    <_>
      4.76190485e-002 5.69786549e-001 9.91259754e-001 9.83606458e-001
      3.05451512e-001 6.35944679e-002 2.44716350e-002 5.78420460e-001
      9.96529639e-001 8.35294127e-001 4.16074306e-001 2.00921655e-001
      5.20558283e-002 5.20558298e-001 1.84513569e-001 9.97818351e-001
      1.29032254e-001 7.38467634e-001 0. 0. 3.83275263e-002
      6.23997986e-001 4.69729118e-002 5.52990995e-002 2.86992383e-003
      7.51456071e-004 1.03417717e-001 1.09731287e-001 1.85068622e-001
      4.23840851e-001 4.12466675e-001 1.63692474e-001 2.70804437e-003
      1.12756879e-005 2.98433423e-001 1.48508087e-001 4.31878902e-002
      5.48530698e-001 6.75378323e-001 8.05921137e-001 5.47817759e-002
      5.57717588e-003 1.35376155e-001</_>
    <_>
      1. 0. 7.83539295e-001 8.15573692e-001 1.04488671e-001
      9.40092131e-002 9.65517223e-001 3.44827585e-002 8.48151743e-001
      6.50980353e-001 1.86045200e-001 4.88479212e-002 8.48066270e-001
      6.90607727e-002 2.01384827e-001 9.73860443e-001 3.70967716e-001
      7.23221362e-001 0. 0. 1.15679443e-001 7.06461370e-002
      7.19902694e-001 1.13523833e-001 1.80878844e-002 1.69339590e-002
      6.19301014e-002 4.79999406e-004 1.30444043e-003 5.96547946e-002
      7.65510440e-001 1.74834758e-001 1.51535692e-002 3.87132983e-004
      4.26838934e-001 1.67372692e-002 8.52517962e-001 5.75539581e-002
      5.76066315e-001 9.93072212e-001 5.71155967e-003 1.10871450e-003
      1.08843320e-004</_>
    <_>
      2.10810810e-001 6.10810816e-001 9.95071232e-001 7.95081913e-001
      3.44908357e-001 1.49308756e-001 1.15740739e-001 7.06018507e-001
      9.97962058e-001 6.35294080e-001 4.16370660e-001 1.63133636e-001
      2.98935294e-001 4.65192467e-001 3.86306316e-001 9.98829782e-001
      3.95161301e-001 7.73075640e-001 0. 0. 2.13240415e-001
      1.26809433e-001 9.65156555e-002 1.42667651e-001 3.97349030e-001
      9.76506397e-002 1.29432678e-001 1.38216633e-002 2.24258341e-002
      3.71894836e-002 7.72660553e-001 1.90149948e-001 1.18864048e-003
      6.08231801e-007 7.39833117e-001 3.07347048e-002 2.49772102e-001
      5.22333622e-001 5.35544634e-001 2.42414072e-001 5.18939853e-001
      2.07951203e-001 3.10750473e-002</_>
    <_>
      8.84615362e-001 0. 6.88891351e-001 8.40163887e-001 1.96111888e-001
      9.30875614e-002 1. 0. 7.89369166e-001 6.47058785e-001
      1.28507987e-001 4.33179699e-002 9.37500000e-001 0. 1.05851553e-001
      8.56092632e-001 5.00000000e-001 7.81792998e-001 0. 0.
      5.57491332e-002 1.85941339e-001 2.34106660e-001 3.92515093e-001
      1.30453333e-001 9.70164873e-003 4.31573316e-002 5.22424467e-003
      3.70067661e-003 1.83626674e-002 8.78202677e-001 1.03434667e-001
      1.50065739e-002 3.62391758e-004 1.75209373e-001 1.18365372e-002
      8.63636374e-001 0. 5.27085483e-001 3.50719422e-001 4.69028175e-001
      1.59889042e-001 2.06155851e-002</_>
    <_>
      5.41666687e-001 6.94444478e-002 8.18400085e-001 9.83606458e-001
      1.65926844e-001 7.18894005e-002 5.55555582e-001 7.40740746e-002
      8.22069287e-001 5.76470613e-001 1.44922391e-001 4.51612882e-002
      4.82243001e-001 1.42056078e-001 1.42906606e-001 9.78534520e-001
      5.00000000e-001 8.59196663e-001 0. 0. 3.69338021e-002
      3.84204909e-002 2.88015120e-002 4.53480743e-002 8.69055390e-002
      5.69874048e-002 7.20037818e-001 3.09283528e-002 1.57223977e-002
      6.52937531e-001 3.08033377e-001 3.90290804e-002 1.02766529e-002
      2.47636228e-004 5.52720785e-001 1.42895970e-002 5.04255295e-001
      1.21276595e-001 2.46543854e-001 6.07949235e-002 1.29750192e-001
      7.05993414e-001 1.04742900e-001</_>
    <_>
      4.13793117e-001 1.72413796e-001 6.69496059e-001 9.59016323e-001
      1.33905709e-001 1.75115205e-002 3.33333343e-001 0. 6.90986276e-001
      4.62745070e-001 3.16888243e-002 2.58064512e-002 5.82089543e-001
      9.70149264e-002 1.40929699e-001 8.94638956e-001 3.34677398e-001
      7.93773055e-001 0. 0. 3.69338021e-002 7.23259032e-001
      2.01746989e-002 2.48705465e-002 3.35240960e-002 1.38333545e-003
      1.22295178e-001 4.62718233e-002 8.72410908e-002 6.23668671e-001
      3.10795188e-001 6.55361414e-002 5.37538305e-002 2.42175092e-003
      7.56125629e-001 1.08608175e-002 5.04424751e-001 4.42477874e-002
      2.20797718e-001 7.37029850e-001 5.43462634e-002 1.12714045e-001
      9.70977768e-002</_>
    <_>
      5.82089543e-001 1.19402982e-001 9.76108074e-001 8.27868819e-001
      2.05046907e-001 7.09677413e-002 1. 0. 9.82234895e-001
      5.60784340e-001 1.26756817e-001 2.67281085e-002 4.90797549e-001
      1.22699387e-001 1.44041359e-001 9.95929062e-001 1.97580650e-001
      6.08563840e-001 0. 0. 4.87804897e-002 9.67784896e-002
      8.76711130e-001 2.10182630e-002 2.41992762e-004 7.89800106e-005
      1.09970674e-003 1.55999803e-003 6.30581146e-003 5.24723344e-002
      6.93257689e-001 2.54269958e-001 2.48071179e-003 1.05221316e-005
      3.39128166e-001 9.51084215e-003 5.52447557e-001 1.04895107e-001
      7.21491396e-001 9.84265208e-001 7.86529202e-003 1.34048262e-003
      6.60990551e-003</_>
    <_>
      5.55555582e-001 2.22222224e-001 8.45631182e-001 9.34426248e-001
      1.72796592e-001 1.56682022e-002 6.66666687e-001 0. 5.90831816e-001
      3.64705861e-001 6.16344325e-002 4.60829493e-003 4.47368413e-001
      2.76315778e-001 7.63523355e-002 9.26801562e-001 6.57258093e-001
      9.23964441e-001 0. 0. 9.75609757e-003 9.15887824e-004
      1.61993768e-004 1.06009138e-004 2.42990660e-004 8.41611545e-005
      9.88498449e-001 1.29679944e-002 1.19352713e-003 7.34348893e-001
      2.42772579e-001 2.28785053e-002 9.51940343e-002 1.32365394e-002
      2.23712608e-001 3.48805226e-002 3.89830500e-001 3.05084735e-001
      2.12628394e-001 2.23133340e-003 8.08858371e-004 7.46520519e-001
      2.53541172e-001</_>
    <_>
      1. 0. 8.39022279e-001 6.76229477e-001 5.23354858e-002
      5.25345579e-002 1. 0. 7.64550805e-001 1.99999988e-001
      3.56817327e-004 1.56682022e-002 5.45454562e-001 1.81818187e-001
      3.46700847e-002 9.60849643e-001 2.45967746e-001 4.80610758e-001 0.
      0. 5.71428575e-002 6.73255324e-002 2.13351697e-001 3.19093227e-001
      3.63762379e-002 3.15855592e-002 3.33705157e-001 1.05639221e-003
      3.38605931e-003 3.69361155e-002 4.84889060e-001 4.78174835e-001
      5.09974770e-002 5.09825675e-003 1.13348998e-001 3.83853610e-003
      2.85714298e-001 5.71428597e-001 3.89525354e-001 2.42232561e-001
      5.26490211e-001 2.26533249e-001 4.80271084e-003</_>
    <_>
      9.80000019e-001 0. 9.29911554e-001 9.26229477e-001 1.36866912e-001
      1.34562209e-001 1. 0. 9.31415319e-001 6.19607866e-001
      7.30600879e-002 4.33179699e-002 9.95348811e-001 0. 1.16579913e-001
      9.88778412e-001 2.50000000e-001 6.81843996e-001 0. 0.
      1.13588855e-001 3.69860344e-002 8.65503922e-002 3.23678941e-001
      6.52376786e-002 1.02243826e-001 3.84044647e-001 8.53896514e-003
      1.43280663e-002 8.13992843e-002 6.48869812e-001 2.69730896e-001
      4.21798648e-003 1.49241432e-005 6.54267311e-001 6.15801010e-003
      9.94285703e-001 0. 5.36430776e-001 1.31478757e-001 3.64246845e-001
      4.97105628e-001 7.25756306e-003</_>
    <_>
      6.25000000e-002 2.50000000e-001 6.09557211e-001 9.42622900e-001
      8.06094781e-002 1.47465440e-002 1. 0. 3.31144243e-001
      1.49019614e-001 6.26194244e-003 7.37327198e-003 2.62295067e-001
      2.29508191e-001 4.45581302e-002 8.05922806e-001 8.87096763e-001
      9.58605886e-001 0. 0. 9.75609757e-003 2.53984004e-001
      5.05706668e-002 5.21670245e-002 5.30293323e-002 1.39821405e-002
      4.50560004e-001 1.14486419e-001 9.36066806e-002 9.35472012e-001
      5.56799993e-002 8.84800032e-003 2.31447384e-001 3.76269072e-002
      4.12322693e-002 6.97080716e-002 2.44444445e-001 2.00000003e-001
      3.83738309e-001 7.93576777e-001 2.43460238e-002 1.20435124e-002
      1.72139660e-001</_>
    <_>
      1. 0. 6.30792022e-001 9.50819612e-001 1.85398757e-002
      8.57142881e-002 1. 0. 7.31026769e-001 7.33333290e-001
      4.54239212e-002 1.02304146e-001 1. 0. 2.90890839e-002
      9.13796544e-001 2.70161271e-001 6.73448503e-001 0. 0.
      1.46341473e-001 3.25530678e-001 1.95637330e-001 0. 0.
      1.20069908e-005 4.39002663e-001 2.97921132e-002 3.85960154e-002
      1.27200000e-002 7.78682649e-001 2.08597332e-001 9.10039525e-003
      1.98722060e-004 9.96859312e-001 0. 1. 0. 5.45254827e-001
      5.16867936e-001 0. 4.18451875e-001 6.54812679e-002</_>
    <_>
      1.15942031e-001 5.79710126e-001 9.67451453e-001 2.49999970e-001
      5.18521853e-002 1.84331799e-003 8.33333358e-002 8.33333313e-001
      9.48670685e-001 7.84313679e-002 2.61894334e-002 9.21658939e-004
      1.85714290e-001 5.61904788e-001 5.37524819e-002 9.92208302e-001
      9.23387110e-001 9.80458677e-001 8.58904660e-001 0. 1.39372819e-003
      5.93819916e-001 2.37125397e-001 1.34535432e-001 4.56619263e-003
      1.37409093e-004 3.67355347e-003 9.18707438e-003 4.16850895e-002
      9.58178222e-001 3.63426208e-002 5.47917699e-003 1.47786178e-003
      2.56353906e-006 6.80228174e-001 3.87698598e-003 2.13836476e-001
      5.34591198e-001 3.77480388e-002 8.19440961e-001 1.61343172e-001
      1.74672983e-003 1.76855382e-002</_>
    <_>
      2.00000003e-001 0. 6.62451088e-001 9.91803229e-001 5.75791933e-002
      1.20737329e-001 1. 0. 4.96951640e-001 2.90196091e-001
      1.95403509e-002 4.33179699e-002 1.56250000e-001 2.50000000e-001
      6.73060566e-002 8.77925634e-001 2.01612897e-002 6.72194719e-001 0.
      0. 6.41115084e-002 9.91666690e-002 4.31249999e-002 1.12791225e-001
      5.62695324e-001 1.25536948e-001 5.48958331e-002 1.11266486e-002
      1.66008528e-002 5.69960952e-001 3.30937505e-001 9.91015658e-002
      1.06638499e-001 1.95804313e-002 1.18917964e-001 4.04135324e-002
      1.73913047e-001 3.47826093e-001 8.69452834e-001 3.66447359e-001
      6.95175454e-002 5.42763174e-001 2.15354003e-002</_>
    <_>
      9.30232555e-002 6.27906978e-001 9.92643416e-001 8.15573692e-001
      3.12930405e-001 2.55299538e-001 2.27941170e-001 5.29411793e-001
      9.94923472e-001 6.50980353e-001 3.71183902e-001 2.45161295e-001
      3.57993186e-001 4.21768695e-001 4.33919102e-001 9.98902321e-001
      1.41129017e-001 6.59774005e-001 0. 0. 2.38327533e-001
      1.07439674e-001 2.05701198e-002 6.12716340e-002 4.73400116e-001
      2.30029985e-001 1.08626045e-001 1.45169403e-002 2.94274781e-002
      7.07041398e-002 6.95716858e-001 2.33578995e-001 5.80614433e-004
      3.36166210e-007 8.27446759e-001 2.95621566e-002 3.63026828e-001
      4.24329489e-001 5.47249079e-001 1.27200112e-001 4.47403580e-001
      3.89388055e-001 3.64542380e-002</_>
    <_>
      7.77777791e-001 7.77777806e-002 6.77592397e-001 8.60655665e-001
      1.57442778e-001 1.54838711e-001 1.63934425e-001 2.62295067e-001
      7.08688617e-001 7.64705837e-001 8.95947292e-002 1.44700468e-001
      5.11556268e-001 1.98767334e-001 1.74875766e-001 9.04031754e-001
      2.82258034e-001 6.06263995e-001 0. 0. 1.52613238e-001
      3.56992930e-001 5.52876778e-002 1.61117222e-002 3.52257639e-002
      5.10971025e-002 4.57253337e-001 2.71728206e-002 2.97351126e-002
      2.55830556e-001 4.62188721e-001 2.81980723e-001 1.57327596e-002
      6.72950759e-004 8.39035809e-001 1.55251231e-002 5.03401339e-001
      2.31292516e-001 4.89337742e-001 4.60403144e-001 4.60263491e-002
      4.27816570e-001 6.65683597e-002</_>
    <_>
      1. 0. 5.99317014e-001 6.51639342e-001 3.20979506e-002
      4.70046028e-002 1. 0. 7.06112504e-001 5.64705908e-001
      2.00920552e-002 1.10599082e-002 7.74193525e-001 9.67741907e-002
      9.18549448e-002 9.30720329e-001 3.42741907e-001 7.74414957e-001 0.
      0. 4.59930301e-002 1.38640001e-001 4.15370673e-001 2.82955289e-001
      1.26672000e-001 1.74581651e-002 1.49600003e-002 4.32300707e-003
      6.35699090e-003 6.48586690e-001 2.99338669e-001 5.20746671e-002
      2.65908521e-002 1.13347184e-003 8.60435724e-001 2.68711825e-003
      7.91666687e-001 8.33333358e-002 2.27135450e-001 6.44556344e-001
      3.22802722e-001 2.56384797e-002 7.08920136e-003</_>
    <_>
      3.49999994e-001 3.24999988e-001 7.66020715e-001 1. 8.12473372e-002
      2.21198164e-002 2.77777791e-001 3.88888896e-001 8.64326060e-001
      9.88235235e-001 8.72524306e-002 3.68663557e-002 4.19087142e-001
      2.46887967e-001 1.36292621e-001 9.62271571e-001 2.01612897e-002
      4.23400402e-001 0. 0. 1.66550517e-001 6.76919147e-002
      3.49354628e-003 2.97297654e-003 7.84476940e-003 9.19317007e-002
      1.31098852e-001 4.84536529e-001 7.50371397e-001 7.73743242e-002
      4.59013253e-001 4.63612437e-001 7.60318525e-003 2.67299736e-004
      4.94115651e-001 2.55789142e-002 4.05727923e-001 2.62529820e-001
      7.64595509e-001 4.50987294e-002 1.17178895e-002 2.56330550e-001
      6.95360065e-001</_>
    <_>
      1. 0. 5.30165315e-001 4.79508162e-001 7.66981095e-002
      3.04147471e-002 1. 0. 5.64395487e-001 1.25490203e-001
      7.43357651e-003 6.45161280e-003 9.84126985e-001 0. 6.19913489e-002
      8.79076421e-001 4.91935492e-001 7.63137460e-001 0. 0.
      2.78745666e-002 3.66783977e-001 2.36375593e-002 3.36488076e-002
      7.89421946e-002 4.48239967e-002 4.51592326e-001 5.02415420e-003
      4.14270815e-003 2.12012395e-001 7.86468506e-001 1.51909725e-003
      1.75849497e-002 5.20794245e-004 6.42520338e-002 7.49615068e-003
      9.62962985e-001 0. 1.73766896e-001 4.26389784e-001 3.71485949e-002
      5.23594379e-001 1.30266296e-002</_>
    <_>
      1. 0. 9.72543001e-001 8.11475396e-001 1.92296162e-001
      1.19815664e-002 1. 0. 9.34194267e-001 5.13725519e-001
      5.41573577e-002 7.37327198e-003 5.97701132e-001 5.74712642e-002
